{"version":"0.7.0","metadata":{"date":{"year":2026,"month":6,"day":11,"hour":2,"minute":29,"second":30},"loudness":-17.774238578479153,"gain":0.4278463101532142,"name":"[AMP] FRTN.EVL.PMPKN-Mar4x12-CLN Homecoming - BLEND #1","modeled_by":"2dor","gear_type":"amp_cab","gear_make":"Fortin","gear_model":"Fortin","tone_type":"fortin","trainer":"TONE3000","input_level_dbu":18.995,"output_level_dbu":13.195},"architecture":"SlimmableContainer","config":{"submodels":[{"max_value":0.5,"model":{"version":"0.7.0","metadata":{"date":{"year":2026,"month":6,"day":11,"hour":2,"minute":29,"second":27},"loudness":-17.87652396361099,"gain":0.5221303767447772},"architecture":"WaveNet","config":{"layers":[{"input_size":1,"condition_size":1,"head":{"out_channels":1,"kernel_size":16,"bias":true},"channels":3,"kernel_sizes":[6,6,6,6,6,6,6,6,6,6,6,6,6,6,15,15,6,6,6,6,6,6,6],"dilations":[1,3,7,17,41,101,239,1,3,7,17,41,101,239,1,13,1,3,7,17,41,101,239],"activation":[{"type":"LeakyReLU","negative_slope":0.01},{"type":"LeakyReLU","negative_slope":0.01},{"type":"LeakyReLU","negative_slope":0.01},{"type":"LeakyReLU","negative_slope":0.01},{"type":"LeakyReLU","negative_slope":0.01},{"type":"LeakyReLU","negative_slope":0.01},{"type":"LeakyReLU","negative_slope":0.01},{"type":"LeakyReLU","negative_slope":0.01},{"type":"LeakyReLU","negative_slope":0.01},{"type":"LeakyReLU","negative_slope":0.01},{"type":"LeakyReLU","negative_slope":0.01},{"type":"LeakyReLU","negative_slope":0.01},{"type":"LeakyReLU","negative_slope":0.01},{"type":"LeakyReLU","negative_slope":0.01},{"type":"LeakyReLU","negative_slope":0.01},{"type":"LeakyReLU","negative_slope":0.01},{"type":"LeakyReLU","negative_slope":0.01},{"type":"LeakyReLU","negative_slope":0.01},{"type":"LeakyReLU","negative_slope":0.01},{"type":"LeakyReLU","negative_slope":0.01},{"type":"LeakyReLU","negative_slope":0.01},{"type":"LeakyReLU","negative_slope":0.01},{"type":"LeakyReLU","negative_slope":0.01}],"bottleneck":3,"head1x1":{"active":false,"out_channels":1,"groups":1},"layer1x1":{"active":true,"groups":1},"groups_input":1,"groups_input_mixin":1,"conv_pre_film":{"active":false,"shift":true,"groups":1},"conv_post_film":{"active":false,"shift":true,"groups":1},"input_mixin_pre_film":{"active":false,"shift":true,"groups":1},"input_mixin_post_film":{"active":false,"shift":true,"groups":1},"activation_pre_film":{"active":false,"shift":true,"groups":1},"activation_post_film":{"active":false,"shift":true,"groups":1},"layer1x1_post_film":{"active":false,"shift":true,"groups":1},"head1x1_post_film":{"active":false,"shift":true,"groups":1},"gating_mode":["none","none","none","none","none","none","none","none","none","none","none","none","none","none","none","none","none","none","none","none","none","none","none"],"secondary_activation":[null,null,null,null,null,null,null,null,null,null,null,null,null,null,null,null,null,null,null,null,null,null,null],"slimmable":null}],"head":null,"head_scale":0.01079269447999198},"weights":[-0.33098307251930237,-1.224179983139038,-0.20699922740459442,-0.7296050786972046,0.6998642683029175,0.19854740798473358,-0.21242623031139374,0.07496634125709534,0.10572106391191483,-0.8375414609909058,0.7389166951179504,0.3507276475429535,-0.22625839710235596,-0.1577877253293991,0.149198979139328,-0.7002996802330017,0.7461312413215637,0.20089948177337646,0.07453064620494843,-0.14285480976104736,0.23153378069400787,-0.030787602066993713,0.10734623670578003,-0.16057708859443665,-0.2535648047924042,0.00014357241161633283,0.0898362323641777,0.007551481947302818,-0.15103492140769958,-0.1550847440958023,-0.2759879231452942,-0.28392308950424194,0.11234638094902039,0.03831544518470764,-0.016887355595827103,-0.03473857417702675,-0.05070091784000397,-0.0609479695558548,0.004037319682538509,0.037862855941057205,0.1325368583202362,-0.14406657218933105,-0.44884929060935974,0.3841513991355896,-0.08545108884572983,0.009074185974895954,0.3931449055671692,-0.216067835688591,-0.5741873383522034,0.6517062783241272,-0.01020621694624424,-0.0016516136238351464,0.21009543538093567,-0.03436177596449852,-0.43817394971847534,0.33528679609298706,-0.08663647621870041,-0.006118902005255222,-0.011316530406475067,-0.005568320397287607,0.13259539008140564,0.4557718336582184,0.3079749345779419,-0.6284576654434204,-0.22896935045719147,-0.11979740858078003,-0.30187734961509705,0.38711097836494446,0.11827823519706726,-0.854036271572113,0.2662360966205597,-1.1326597929000854,0.01826493628323078,-0.08649374544620514,-0.09460842609405518,-0.0023648252245038748,-0.003529774257913232,-0.005371097009629011,-0.039757583290338516,-0.16735388338565826,0.685660719871521,0.13397440314292908,-0.040015894919633865,0.21996253728866577,0.22125577926635742,0.18253779411315918,0.09680255502462387,-0.3747560679912567,-0.3150993287563324,-0.46438536047935486,-0.30897071957588196,-0.6890885829925537,0.08611857891082764,0.05884714424610138,0.07521398365497589,0.19910559058189392,0.14292412996292114,0.35934963822364807,-0.11649923771619797,0.023822225630283356,0.13896693289279938,0.1676802635192871,0.19484934210777283,0.45706671476364136,0.009249971248209476,-0.042217858135700226,-0.056209806352853775,-0.19475099444389343,-0.18406489491462708,-0.4701676666736603,-0.15572355687618256,-0.06264513731002808,-0.10726110637187958,-0.22920210659503937,-0.05008156970143318,-0.08777531236410141,0.3934868574142456,-0.040592558681964874,0.12890245020389557,0.1603240966796875,0.27428311109542847,0.3799694776535034,-0.050486139953136444,-0.02681743912398815,-0.13606411218643188,-0.05366930365562439,-0.3006129562854767,-0.21749794483184814,-0.19816404581069946,0.24309149384498596,0.2815477252006531,0.003135925391688943,-0.037726521492004395,0.5781314373016357,1.0043485164642334,-0.5236783027648926,0.19973404705524445,-0.31908321380615234,-0.3550114333629608,0.4333033561706543,0.26862096786499023,-0.5429729223251343,-0.658433198928833,-0.5147222876548767,0.2964703440666199,0.05426369607448578,0.22411134839057922,0.05891825631260872,-0.22948803007602692,-0.2746882140636444,-0.4428855776786804,-0.6069270372390747,0.30013883113861084,-0.09129397571086884,0.06426873058080673,-0.046141475439071655,0.057781800627708435,0.16401152312755585,0.558195948600769,-0.07206214219331741,-0.08714071661233902,-0.13200213015079498,-0.23179878294467926,-0.2866779565811157,0.1238257884979248,-0.0894479751586914,-0.05953029915690422,-0.042151350528001785,-0.12383720278739929,-0.15665681660175323,-0.0770183727145195,-0.09892721474170685,-0.0636797696352005,-0.05154026672244072,-0.06465762853622437,-0.1543244868516922,-0.4844183623790741,-0.060738034546375275,-0.14328041672706604,-0.15930408239364624,-0.11759103089570999,-0.17357395589351654,-0.1190367117524147,-0.009567219763994217,-0.04116115719079971,-0.1032208576798439,-0.3605545163154602,-0.3676247000694275,-0.6848676800727844,0.012270521372556686,-0.02565521001815796,-0.021378738805651665,0.19210593402385712,0.30327290296554565,0.11360467970371246,0.010693321004509926,-0.006328640505671501,-0.01351917628198862,0.01292306650429964,0.014789910987019539,-0.16086457669734955,0.09332125633955002,-0.14313533902168274,0.1567535549402237,-0.02130717970430851,-0.201657235622406,0.0738864317536354,-0.46086859703063965,-0.5013754963874817,0.6160122156143188,-0.2571847140789032,0.139369398355484,0.39546751976013184,-0.03739596903324127,0.03554379194974899,1.3024756908416748,0.08504614233970642,0.0071408418007195,0.2781171500682831,0.18067730963230133,0.18442943692207336,0.27799123525619507,0.1125020682811737,0.02859509550035,-0.1448720544576645,0.06574128568172455,0.07814116775989532,0.03181060776114464,0.012487567029893398,-0.03273569792509079,-0.9196654558181763,-0.052555982023477554,-0.00011755819286918268,-0.019868960604071617,-0.005058491602540016,0.07436718791723251,0.0881238654255867,0.005126791540533304,-0.03703652694821358,-0.04985273629426956,-0.0002648347581271082,0.1721641719341278,0.4137256443500519,-0.004876323975622654,-0.0760532096028328,-0.035396136343479156,-0.10665033012628555,-0.18638771772384644,-1.0555260181427002,0.03527386114001274,0.00789561029523611,0.02054792083799839,0.020976757630705833,-0.011385597288608551,-0.16185428202152252,-0.10886868834495544,-0.19546295702457428,-0.2194279134273529,-0.31720587611198425,-0.32152602076530457,-0.4353231191635132,-0.13194534182548523,-0.07817808538675308,-0.11037527024745941,-0.10753845423460007,-0.16541236639022827,-0.4531848132610321,-0.12569056451320648,-0.11297915130853653,-0.121857650578022,-0.18288441002368927,-0.18614786863327026,0.6921963691711426,-0.09782378375530243,0.00862666592001915,0.2247321456670761,-1.431720495223999,-1.3164582252502441,-0.5714616179466248,0.2072683721780777,0.20332682132720947,-0.2525808811187744,0.44331035017967224,1.1010395288467407,0.2230093777179718,0.34541213512420654,0.17599517107009888,-0.8487821221351624,-0.23028552532196045,-0.14651145040988922,0.26246312260627747,0.0683794766664505,0.04184764623641968,0.10151174664497375,0.04170345515012741,-0.029292032122612,-0.0869874432682991,-0.038611896336078644,-0.03229741007089615,-0.06547395884990692,-0.055231574922800064,0.026923608034849167,0.5811205506324768,0.0387239083647728,0.05140974745154381,0.04807398095726967,0.10668415576219559,0.0825728103518486,0.07217947393655777,-0.03100726380944252,-0.010962149128317833,-0.0036097439005970955,-0.07082666456699371,-0.062365658581256866,-0.6399571895599365,-0.0005891020409762859,-0.002624359680339694,0.0023290475364774466,0.005974347237497568,0.0035716479178518057,0.13366831839084625,0.0015830791089683771,-0.0023010941222310066,-0.01633443869650364,-0.03930899128317833,-0.059536971151828766,0.7404311299324036,0.031790751963853836,-0.047371380031108856,-0.07813671976327896,-0.04377518594264984,-0.0879591554403305,0.034124284982681274,0.017899159342050552,0.04046160727739334,0.03516543284058571,0.04007745161652565,0.016508029773831367,-0.44869041442871094,-0.017378007993102074,-0.02310829982161522,-0.0311572328209877,-0.06682516634464264,-0.042438607662916183,-0.3838282525539398,-0.32633742690086365,-0.20078551769256592,0.3525710999965668,-0.7422190308570862,-0.34490934014320374,1.519992709159851,-0.4805968403816223,-0.26146644353866577,-0.48172813653945923,-1.0116584300994873,-0.0009801492560654879,0.15781818330287933,-0.41070035099983215,-0.5590851902961731,-0.6393674612045288,-0.043516986072063446,0.026665139943361282,0.1912536770105362,0.0004289747739676386,-0.00019029511895496398,0.021242564544081688,0.019104402512311935,0.046073876321315765,0.04411337524652481,-0.0011252203257754445,-0.002897129161283374,-0.013705989345908165,0.01886574551463127,0.01212466973811388,0.14543943107128143,-0.002532412763684988,-0.002717317547649145,-0.006034535821527243,-0.01679079234600067,-0.01150385569781065,1.3435194492340088,-0.0006212624139152467,-0.005383079405874014,-0.008454716764390469,-0.01166924461722374,-0.021717814728617668,0.27576759457588196,0.0025828813668340445,0.01211242750287056,0.016205696389079094,0.01190275326371193,0.09586219489574432,-0.1957559436559677,-0.009631677530705929,-0.007904398255050182,-0.005605762824416161,0.008419206365942955,-0.019482770934700966,-0.38247352838516235,0.002084161853417754,0.0009395814849995077,-0.0023043490946292877,-0.005146470386534929,-0.0025796256959438324,-0.5197716355323792,0.0019526160322129726,0.0011950775515288115,0.013203609734773636,0.0036541088484227657,0.030051227658987045,0.01287370827049017,-0.0059058633632957935,-0.00766603322699666,-0.0041073099710047245,-0.004059359896928072,-0.01265228632837534,-0.5653876066207886,-0.22420668601989746,0.323483407497406,0.03531760349869728,-1.5740936994552612,1.0697581768035889,0.2554468810558319,0.9051457643508911,-0.47673720121383667,1.4449231624603271,0.9019086956977844,-0.42781466245651245,0.4107070863246918,0.092628613114357,-0.0755731612443924,0.36253365874290466,-0.3055006265640259,-0.009224162437021732,-0.4319121837615967,0.04231948032975197,0.17075160145759583,0.2559235692024231,0.1972484439611435,0.17014029622077942,-0.005947865545749664,-0.07162154465913773,-0.015208370983600616,0.03575713559985161,0.0010898483451455832,0.03485335037112236,-0.13295908272266388,0.034708794206380844,0.061698321253061295,0.10278269648551941,0.10790444910526276,0.18514837324619293,0.12127748131752014,-0.07794440537691116,0.023673441261053085,0.12429933995008469,-0.026452165096998215,0.0463288240134716,-0.17750975489616394,0.1120390072464943,-0.03215409070253372,-0.11354949325323105,0.05386459082365036,-0.010769055224955082,-0.5905787944793701,-0.0596366748213768,0.04816141352057457,0.04115849733352661,-0.017817892134189606,0.032797668129205704,0.1679379642009735,0.0009574282448738813,0.0031571933068335056,0.008939003571867943,0.0007490093121305108,-0.010402416810393333,0.5041840672492981,-0.001552974572405219,-0.000013832547665515449,-0.000023389937268802896,0.005400118883699179,0.0388970747590065,0.14145775139331818,0.00021778939117211848,0.0013145827688276768,0.003911308012902737,-0.01109376922249794,-0.03790303319692612,0.5188177227973938,-0.27805793285369873,-0.15435369312763214,0.2739109396934509,0.0035463119857013226,0.4901988208293915,0.1376759111881256,0.049628641456365585,0.09592173993587494,0.6046727895736694,-0.49960389733314514,0.5786443948745728,-0.05881859362125397,-0.317167729139328,-0.31014618277549744,0.00004711356450570747,0.2478053867816925,-0.22972513735294342,-0.004695063456892967,0.1358572542667389,0.15129758417606354,-0.24985073506832123,-0.6148414611816406,-0.35142409801483154,1.01003897190094,-0.04288434609770775,-0.05504952743649483,-0.4320785105228424,-0.514829158782959,0.028667600825428963,0.5095778107643127,0.08268492668867111,0.09580746293067932,-0.12147076427936554,-0.2521430552005768,0.013402935117483139,0.762530505657196,0.14620943367481232,0.12203247100114822,0.2907288074493408,0.09272699803113937,0.07300397753715515,-0.5536918044090271,0.01659841276705265,-0.051227569580078125,0.18542851507663727,0.01630575768649578,0.3275025188922882,-0.8532641530036926,-0.28460609912872314,-0.23469336330890656,-0.2621144950389862,-0.35790160298347473,-0.16903837025165558,0.043431807309389114,-0.014750267378985882,-0.20464952290058136,0.3609559237957001,0.29475387930870056,0.5550549030303955,-0.3321063816547394,-0.06595490872859955,0.08135031908750534,0.07580123096704483,0.0487082414329052,-0.1697050780057907,-0.5299960970878601,-0.26853036880493164,-0.27894631028175354,0.34761154651641846,-0.04680878669023514,-0.04708389565348625,-0.1591392606496811,0.04673958942294121,-0.1296852082014084,0.02955593541264534,-1.1558572053909302,0.06970454752445221,0.8165731430053711,0.4834701120853424,0.6563060879707336,-0.41209322214126587,2.1731557846069336,0.8392655849456787,-0.5665295124053955,0.6459859013557434,0.0205206461250782,-0.6864570379257202,-0.11645025759935379,-0.3365967273712158,0.11960003525018692,-0.13341212272644043,0.1005314514040947,0.04186283051967621,-0.1604543924331665,-0.07776541262865067,-0.05814896896481514,0.010663963854312897,-0.008334916085004807,0.09299831837415695,0.07094530761241913,0.14960411190986633,0.7801892161369324,-0.006366756744682789,-0.05026634782552719,-0.1596338450908661,-0.10571740567684174,-0.40488550066947937,0.3487838804721832,0.10024268180131912,-0.09055756777524948,0.17917725443840027,0.35963380336761475,0.3083001375198364,-0.34710994362831116,-0.016881780698895454,-0.026190809905529022,-0.008578060194849968,-0.09504222124814987,0.035247866064310074,-0.5765187740325928,0.01518159732222557,0.14758840203285217,0.0151940006762743,0.5789456963539124,0.02063000202178955,-0.3754132091999054,-0.17769424617290497,-0.2085498422384262,-0.1893264800310135,-0.2446344941854477,0.26509296894073486,0.48205652832984924,0.037032123655080795,0.04936636984348297,-0.2090742141008377,-0.0058589838445186615,0.12904079258441925,0.5726944804191589,0.359544038772583,0.3435952663421631,0.2783168852329254,0.5212424993515015,0.41961967945098877,0.39471471309661865,0.23459714651107788,-0.04678531736135483,0.3754763901233673,0.00514534767717123,0.10006661713123322,-0.16081827878952026,-0.2631133198738098,-0.05595092102885246,-0.4758412539958954,-0.9603447914123535,-0.7933106422424316,0.07419583201408386,-0.32968035340309143,-0.45255744457244873,0.11822524666786194,0.18125168979167938,0.059822894632816315,-0.06543176621198654,-0.010065414942800999,-0.020946407690644264,-0.07196656614542007,-0.010077021084725857,0.11172254383563995,-0.6570506691932678,0.056194230914115906,0.09629989415407181,0.1127910166978836,0.1741790622472763,0.3710392713546753,-0.5250598192214966,-0.03037675842642784,-0.08490241318941116,-0.05418581888079643,-0.00884013157337904,0.011762692593038082,-0.5891073942184448,-0.06941058486700058,-0.03607948124408722,0.07840408384799957,0.0024997140280902386,-0.13707497715950012,0.9501093626022339,-0.07359957695007324,-0.1657792031764984,-0.21198110282421112,-0.2705322206020355,-0.42571336030960083,0.24601969122886658,0.005095651838928461,0.021105125546455383,0.0036297778133302927,-0.04001171886920929,-0.12683479487895966,-0.048656173050403595,0.1926048994064331,0.09536571800708771,0.14710752665996552,0.027457864955067635,-0.009464212693274021,-0.5599537491798401,0.07764580100774765,0.09547584503889084,0.0913572683930397,0.09899307787418365,0.10494352877140045,0.18321610987186432,-0.009190013632178307,-0.00023727328516542912,0.11971145868301392,0.09500766545534134,-0.03867722302675247,0.5042997598648071,-0.018973754718899727,0.00005189641160541214,0.4551176428794861,-0.25773102045059204,-0.7523025274276733,-1.1408320665359497,0.47310584783554077,-0.3579210042953491,0.5476536154747009,0.802125871181488,0.407421350479126,-0.19225721061229706,0.20146694779396057,0.29076048731803894,0.3426908254623413,0.019363056868314743,0.0006929044611752033,0.050668131560087204,-0.1397002786397934,-0.20580488443374634,-0.23764678835868835,-0.2327178716659546,-0.4727151393890381,0.7080918550491333,-0.051189254969358444,-0.12104889750480652,-0.03702807053923607,-0.09396568685770035,-0.04215367138385773,-0.10050944983959198,-0.03191134333610535,-0.0677139088511467,-0.044116776436567307,-0.14074940979480743,-0.22246010601520538,0.02995964139699936,0.08069473505020142,0.04962489753961563,0.021242238581180573,0.014751357957720757,0.058645542711019516,0.6022815704345703,-0.08050017803907394,-0.018378673121333122,-0.07142981141805649,-0.08967322111129761,0.0010356719139963388,-0.6158560514450073,0.09043005853891373,0.00017356809985358268,0.0414765439927578,0.03787640854716301,0.0702182725071907,-0.1354312300682068,-0.1323079764842987,-0.0769377127289772,-0.052343253046274185,-0.017954446375370026,-0.09569759666919708,0.19017720222473145,0.09454068541526794,0.024836959317326546,0.03131004795432091,0.02510855905711651,-0.036586638540029526,0.34923669695854187,-0.09632505476474762,-0.08054617792367935,-0.08192799240350723,-0.054237786680459976,-0.03741895407438278,1.0494157075881958,0.3400786221027374,-0.40817713737487793,0.2188466340303421,-0.017977677285671234,0.8547230362892151,0.5230563282966614,-0.8425446152687073,-0.013668461702764034,0.24485182762145996,0.04811432212591171,0.28049421310424805,0.7390545606613159,0.17929048836231232,1.029114007949829,0.12821321189403534,0.1529473513364792,0.2319217473268509,-0.2866738438606262,-0.11032375693321228,-0.07786918431520462,-0.23148488998413086,-0.2902657985687256,-0.29273274540901184,0.5669995546340942,0.042196840047836304,0.02615768276154995,0.08680006861686707,0.09645723551511765,0.11546891927719116,1.0685776472091675,-0.01344062015414238,-0.0292813740670681,-0.0432259663939476,-0.0988868772983551,-0.10248855501413345,0.41524529457092285,0.18287105858325958,0.09924349188804626,0.17349445819854736,0.210418701171875,0.1657722443342209,-0.3367351293563843,-0.08647003769874573,-0.017591338604688644,-0.025944631546735764,-0.029137540608644485,-0.05760878324508667,-0.960287868976593,0.0718449056148529,0.07076321542263031,-0.010304389521479607,0.01798134110867977,0.10878050327301025,-0.552788257598877,-0.029472308233380318,-0.18578927218914032,-0.47115129232406616,-0.39231500029563904,-0.4878222644329071,0.3481370806694031,-0.004611426033079624,0.05051124840974808,0.11331642419099808,0.05094075947999954,0.04708968847990036,1.0067280530929565,0.028654230758547783,-0.005972842685878277,-0.10187212377786636,-0.08569060266017914,-0.04395855963230133,0.5698566436767578,-0.37365588545799255,-0.18185658752918243,0.289919912815094,-0.04921633377671242,0.19633056223392487,-0.1634594053030014,-0.33871951699256897,0.2486390471458435,-0.500097930431366,-0.86736661195755,0.2759031653404236,0.5713573694229126,0.550015389919281,0.8678359389305115,0.27985280752182007,-0.15209133923053741,0.16421835124492645,-0.4408946633338928,0.16062620282173157,0.10630364716053009,0.19405701756477356,0.1733953207731247,-0.1936051994562149,0.29603955149650574,0.17262554168701172,0.1636524498462677,0.22142617404460907,0.12058675289154053,0.05318332090973854,0.23911890387535095,-0.00574141088873148,-0.05465150251984596,-0.05464399233460426,-0.008999411948025227,-0.28384509682655334,0.20074765384197235,0.018096068874001503,0.012756413780152798,0.03927204757928848,0.19385187327861786,0.16307754814624786,0.01633521541953087,0.03301875293254852,0.046167824417352676,0.05669635906815529,0.07548636198043823,0.05013131722807884,-0.5612955093383789,-0.01300183404237032,-0.02507050521671772,-0.01194907445460558,0.07542634010314941,0.061384640634059906,-0.9829652905464172,0.030850989744067192,0.03930940479040146,0.18154658377170563,0.21023239195346832,0.3480539321899414,-0.47437477111816406,-0.08491286635398865,-0.04015826806426048,0.0004633538192138076,-0.1211039125919342,0.00867333821952343,0.6536676287651062,0.08442334085702896,0.06861914694309235,0.1359216570854187,0.2592664361000061,0.21362639963626862,-0.09016794711351395,-0.1423734575510025,0.7577731609344482,0.013135148212313652,0.12245849519968033,-0.08075880259275436,-0.2921046316623688,-0.3293982446193695,-0.268829345703125,0.46811288595199585,0.3803143799304962,-0.8830834627151489,-0.5514019727706909,0.0893230065703392,-0.4150424897670746,-0.36787426471710205,-0.005029099527746439,-0.3271477222442627,0.4174083471298218,0.0478958934545517,-0.0056924764066934586,0.08623777329921722,0.07370210438966751,0.5195702314376831,-0.5759421586990356,-0.06182124838232994,0.009897664189338684,-0.043623849749565125,-0.024555187672376633,-0.050941746681928635,-0.270145982503891,0.07245519012212753,0.00922255776822567,0.03713132068514824,0.07447079569101334,0.10666457563638687,-0.10598909109830856,-0.020171387121081352,0.03929969295859337,0.007959313690662384,0.10066022723913193,0.3489273488521576,-0.0418749675154686,0.006390677765011787,0.010935173369944096,0.019513027742505074,-0.0421517938375473,-0.03557264432311058,-1.2447799444198608,-0.011277505196630955,0.004334829747676849,0.0026847179979085922,0.04717729613184929,0.1102602556347847,-0.20982757210731506,-0.03463545814156532,0.023878246545791626,0.023180337622761726,0.08693554997444153,0.29451560974121094,-0.19786429405212402,-0.010596752166748047,-0.010064314119517803,-0.006200704723596573,-0.04373506084084511,-0.05335202068090439,-0.9737818241119385,-0.0013983557000756264,0.011776121333241463,0.016493266448378563,0.04735547676682472,0.10165160894393921,-0.47660720348358154,-0.36170274019241333,0.7519864439964294,-0.723996639251709,0.005412214435636997,0.3743017017841339,0.06722680479288101,0.5982198119163513,-0.520893394947052,1.0903078317642212,0.455267995595932,-1.12375009059906,1.018916130065918,0.7180476784706116,-0.10242290049791336,0.15942150354385376,-0.23304668068885803,0.07107318937778473,-0.7793883681297302,-0.1711612492799759,-0.05033872649073601,-0.07136505097150803,0.15877072513103485,0.13660238683223724,-0.04548552632331848,0.038591377437114716,-0.006612304598093033,-0.1671213060617447,-0.2116410881280899,-0.0035163373686373234,-0.13456667959690094,-0.11035087704658508,0.2165784388780594,0.4853098392486572,-0.0002749575360212475,0.12812918424606323,-0.08986063301563263,0.1350623369216919,0.3319602608680725,-0.08355645090341568,0.017806928604841232,0.08289439976215363,-0.4282887876033783,-0.08502204716205597,0.4106181263923645,-0.21827666461467743,-0.07439731061458588,0.22859986126422882,-0.18726955354213715,-0.09727579355239868,-0.08250624686479568,-0.011930574662983418,0.022309882566332817,0.03536611422896385,0.017686769366264343,-0.01820942759513855,-0.10412312299013138,-0.14919635653495789,-0.19199301302433014,-0.33715271949768066,-0.29849421977996826,-0.23877748847007751,0.1199154257774353,0.21577364206314087,0.026385217905044556,0.0525800921022892,0.09445323795080185,0.17458881437778473,0.12180386483669281,0.0720871165394783,0.002404887694865465,-0.2545212209224701,0.3458126485347748,0.3472377359867096,0.1693420261144638,0.422887921333313,0.13000541925430298,-0.31091415882110596,-0.7225221991539001,0.240507572889328,-0.13475292921066284,0.02605695277452469,0.2008717954158783,0.012464450672268867,0.11233335733413696,0.3653152883052826,-0.7379977703094482,0.647915780544281,-0.063459113240242,-0.16721922159194946,0.6432337760925293,-0.31913691759109497,-0.91317218542099,-0.5503197908401489,-0.023781366646289825,0.15234054625034332,-0.003247338579967618,-0.04859855771064758,-0.0042803590185940266,-0.11091603338718414,-0.03854408487677574,0.003830193541944027,0.18003971874713898,-0.1719922125339508,0.1311376988887787,0.08047790080308914,-0.66239994764328,-0.8485381603240967,-0.5333506464958191,0.09945778548717499,-0.03532859683036804,-0.29205313324928284,-0.11347565054893494,-0.19795964658260345,-0.23226487636566162,-0.15139275789260864,-0.28153446316719055,-0.08409877866506577,-0.05401912331581116,-0.176538348197937,-0.3379068970680237,-0.1279572993516922,-0.25701963901519775,-0.6335492730140686,0.3331615626811981,-0.06968426704406738,-0.5029090642929077,-0.041611168533563614,-0.32685843110084534,-0.1906159371137619,-0.359945684671402,-0.2610291540622711,-0.23967713117599487,-0.574495255947113,-0.6115267872810364,-0.7608587145805359,-0.2262348085641861,-0.15391577780246735,-1.0404719114303589,0.029513951390981674,0.02055271901190281,-0.17786665260791779,-0.27628740668296814,-0.2941160798072815,-0.021269921213388443,-0.1417599767446518,0.1075330600142479,0.1295563131570816,0.007329339627176523,-0.15696388483047485,-0.07516918331384659,-0.1387050747871399,-0.20631572604179382,-0.2748367190361023,0.1631915420293808,0.8189350962638855,-0.04160481318831444,0.19092655181884766,-0.33454903960227966,-0.442064493894577,-0.47324392199516296,-0.009046372957527637,-0.4630478024482727,0.5092176198959351,-0.8515416383743286,-0.2475951611995697,0.21040399372577667,-0.8913170099258423,0.23577812314033508,-0.43836596608161926,0.00261940760537982,0.1910906583070755,0.08699365705251694,0.16236703097820282,-0.020598942413926125,0.007683930452913046,0.11575374752283096,0.1851532906293869,0.12428776174783707,0.1052686795592308,0.011086433194577694,0.043039046227931976,0.059532277286052704,0.20895494520664215,0.1678580492734909,0.22407735884189606,0.13198010623455048,-0.07872172445058823,-0.1287713348865509,-0.0014989926712587476,0.019419942051172256,-0.08742891252040863,-0.17120569944381714,-0.13330700993537903,-0.10085505247116089,0.03016543947160244,-0.007489535957574844,0.01252868864685297,-0.10572372376918793,-0.07047415524721146,0.019324785098433495,-0.6218544840812683,0.08396150916814804,0.13835957646369934,-0.03118113800883293,-0.006319466512650251,0.129472553730011,0.2143392562866211,0.15389958024024963,0.10952195525169373,-0.05898398533463478,0.02274145372211933,-0.002316911704838276,0.12012426555156708,0.08829102665185928,-0.03426263853907585,-1.1499990224838257,0.025516889989376068,-0.045277081429958344,0.14573360979557037,0.09933573007583618,-0.08612643927335739,0.04905279725790024,-0.011519886553287506,0.01652619242668152,0.09379523247480392,0.019510190933942795,0.027650177478790283,0.008054075762629509,0.07542107999324799,0.0314045175909996,-0.049374066293239594,-0.00466828653588891,0.03221629559993744,-0.10395006090402603,-0.11385838687419891,0.10164162516593933,-0.01974673755466938,0.05649826303124428,0.014661175198853016,-0.06340675801038742,0.0020953835919499397,-0.04794374108314514,-0.03692512959241867,-0.1517598181962967,-0.19369308650493622,0.14822909235954285,-0.005963590461760759,-0.023221587762236595,0.13704055547714233,0.10683400928974152,-0.1450204998254776,0.0018037965055555105,-0.07525721192359924,-0.016866154968738556,0.07016723603010178,-0.031032735481858253,0.032542891800403595,0.04065900295972824,0.19128604233264923,0.22256983816623688,0.2992478311061859,-0.37720414996147156,-0.2929627299308777,-0.1380799412727356,-0.08175912499427795,-0.21703417599201202,-0.03400924429297447,-0.1417955756187439,0.09286699444055557,-0.013498817570507526,0.031551290303468704,-0.04774145409464836,0.030255237594246864,-0.06268619745969772,-0.039934951812028885,-0.37075987458229065,-0.0204765684902668,-0.05360206216573715,0.17346005141735077,0.1408311426639557,-0.057973407208919525,0.07685460895299911,-0.05337248370051384,-0.018978487700223923,0.08599746972322464,0.021308984607458115,0.14740894734859467,0.03967804089188576,0.2132084220647812,-0.10964974015951157,-0.6261073350906372,0.06817828863859177,-0.06782595813274384,-0.10943185538053513,-0.14687351882457733,0.02227441594004631,-0.04332153499126434,-0.07216464728116989,-0.09914476424455643,-0.03117327019572258,-0.012535958550870419,-0.031872279942035675,-0.006509340368211269,0.12008075416088104,-0.2332853227853775,0.17069396376609802,-0.06309634447097778,0.022727301344275475,0.23344439268112183,-0.5014437437057495,-0.9596573114395142,-0.9691541790962219,0.12182869762182236,-0.14034616947174072,0.04482823237776756,0.46870988607406616,-0.3625337779521942,0.2523285448551178,0.3210826814174652,-0.7125978469848633,0.3944091200828552,-0.3113652765750885,-0.055206552147865295,0.17884911596775055,0.11206874251365662,0.08628156781196594,-0.059815555810928345,0.083084836602211,-0.14748738706111908,-0.0617930069565773,0.13035288453102112,-0.08220460265874863,0.27220046520233154,0.14133977890014648,-0.05902647227048874,0.053369950503110886,0.12894921004772186,0.03770283982157707,-0.09516492486000061,0.16565576195716858,0.15110374987125397,0.3477819561958313,-0.5900806784629822,-0.009825377725064754,0.538564145565033,-0.2883257567882538,0.36755165457725525,0.09363403916358948,0.1461031138896942,-0.006967347580939531,0.16742286086082458,-0.02086373046040535,-0.3221225440502167,-0.7149020433425903,0.09756051003932953,-0.05560858175158501,-0.18798422813415527,0.33680960536003113,0.054136063903570175,0.0317256785929203,-0.26110976934432983,-0.03842039033770561,0.11016694456338882,0.2342078685760498,-0.0612860731780529,0.3088194727897644,0.12863251566886902,0.26224467158317566,0.1378268301486969,0.1459428369998932,-0.46522217988967896,-0.27803000807762146,-0.16761308908462524,-0.12779702246189117,-0.05897870659828186,-0.1696782410144806,0.3690624535083771,-0.09415580332279205,0.8543900847434998,0.054749779403209686,0.720488965511322,0.1171846017241478,0.2021588534116745,-0.6715362668037415,-0.013079863972961903,0.11085722595453262,-0.3552640974521637,0.43906137347221375,-0.2039470672607422,-0.6413341760635376,-0.8225207328796387,-0.3737912178039551,-0.353147029876709,-0.0013175617204979062,0.25137239694595337,0.006006401497870684,-0.2518106997013092,-0.19816036522388458,-0.12840193510055542,-0.18508972227573395,-0.1767730861902237,0.12842579185962677,-0.0538451224565506,0.0642242357134819,-0.11376116424798965,-0.3446817100048065,-0.15645691752433777,0.38484522700309753,-0.24458810687065125,-0.16354058682918549,0.12427684664726257,0.14486058056354523,0.04807991907000542,-0.17106635868549347,0.030194221064448357,-0.050468042492866516,0.09513691812753677,-0.014094609767198563,0.07059674710035324,0.0646798312664032,-0.027322717010974884,-0.07050597667694092,-0.28334492444992065,0.04264392703771591,0.11201789230108261,0.13809926807880402,0.16464559733867645,0.02261803299188614,-0.0681820958852768,0.17790956795215607,-0.10017284750938416,0.055357202887535095,0.11747751384973526,0.014653285965323448,0.16111421585083008,0.043386176228523254,0.0028886976651847363,-0.1408570110797882,0.05426378920674324,-0.0025607540737837553,-0.2659134566783905,0.2959161400794983,0.028200579807162285,-0.18537625670433044,-0.053764015436172485,0.03517356514930725,-0.025058284401893616,0.03268612176179886,0.3697749674320221,0.2556498348712921,0.5420488715171814,-0.09099981933832169,-0.13867411017417908,-0.09065034240484238,-0.5148940086364746,-0.27047210931777954,-0.05792325735092163,0.12398623675107956,0.14894013106822968,-0.5975956320762634,-0.3077241778373718,-0.29670876264572144,0.424078106880188,-0.06783423572778702,-0.141265407204628,-0.04832825809717178,0.16770753264427185,-0.015935903415083885,-0.19963884353637695,-0.26033711433410645,-0.24649542570114136,0.1145288422703743,-0.18390719592571259,-0.1060822457075119,0.04850037023425102,-0.6770884394645691,-0.09591275453567505,0.08918682485818863,0.28008225560188293,0.23731163144111633,0.18400532007217407,-0.3222559094429016,0.18488959968090057,-0.04932259023189545,0.030519913882017136,0.6435514688491821,0.10614105314016342,0.08499690145254135,0.060895778238773346,0.12431689351797104,0.4232213795185089,-0.4353116452693939,0.034748200327157974,0.03466181829571724,-0.03725489228963852,0.10180047899484634,-0.1857163906097412,0.06214653700590134,-0.02035401575267315,0.09487569332122803,0.08589611947536469,0.048106659203767776,0.10768807679414749,0.2515451908111572,0.05925411731004715,0.1444055140018463,0.07471124082803726,-0.0945504829287529,0.6370400786399841,-0.12271571904420853,-0.05498746037483215,0.00047847392852418125,-0.12449800223112106,-0.051022280007600784,-0.14712582528591156,-0.028847651556134224,0.04334476217627525,0.042114417999982834,0.10127213597297668,0.1962842345237732,-0.1864878088235855,0.04891369864344597,0.38634273409843445,-0.23051609098911285,-0.18249158561229706,-0.5121327042579651,-0.784140408039093,0.14340607821941376,-0.1705746203660965,0.11073033511638641,-0.09896737337112427,-0.14931073784828186,-0.2525138854980469,-0.41901010274887085,-0.5434401035308838,-0.11019060015678406,-0.15264330804347992,0.20968450605869293,0.4104170799255371,-0.09725964069366455,-0.2783466875553131,-0.3549085855484009,-0.05929902568459511,-0.011728093028068542,0.049634624272584915,-0.18690091371536255,-0.28988730907440186,-0.42427459359169006,-0.02006102353334427,-0.24820803105831146,-0.127721905708313,0.262193500995636,0.009975477121770382,0.5122728943824768,0.3780943751335144,-0.43518686294555664,0.08761610835790634,0.14205752313137054,-0.4355366826057434,-0.578494131565094,-0.4167556166648865,0.003471650183200836,0.22111746668815613,-0.01438743807375431,-0.6391310691833496,-0.09508214890956879,0.4103139042854309,-0.28188809752464294,-0.056470777839422226,-0.2966274321079254,0.5575286746025085,0.3584069311618805,-0.08523906767368317,-0.5711445808410645,-0.4280966520309448,-0.6000450849533081,0.0656152069568634,0.26761385798454285,-0.00633847713470459,0.13595984876155853,0.07781870663166046,0.00867468025535345,0.15777099132537842,0.29470181465148926,-0.024541115388274193,0.17293709516525269,0.026293734088540077,-0.13842499256134033,-0.008707568049430847,-0.21341431140899658,-0.1660172939300537,0.23469612002372742,-0.07211914658546448,-0.27858778834342957,-0.080760657787323,-0.020417911931872368,0.16803303360939026,-0.14832870662212372,-0.1364855319261551,-0.4609009623527527,0.41727975010871887,-0.08794689178466797,-0.6762819886207581,-0.44324272871017456,-0.12696833908557892,-0.030771300196647644,-0.5964420437812805,0.494418740272522,0.4106908142566681,-0.4696720838546753,-0.05315865948796272,-0.20072408020496368,-0.26070696115493774,0.08634179830551147,-0.07644965499639511,-0.13482525944709778,-0.19680283963680267,0.14789949357509613,0.09598550945520401,-0.10194279998540878,-0.19980381429195404,-0.2405177652835846,0.024075830355286598,-0.011766067706048489,-0.09734038263559341,0.42721259593963623,-0.25323379039764404,0.08192691206932068,-0.3941788673400879,-0.5317341685295105,0.040544841438531876,-0.009226523339748383,-0.1165834367275238,-0.5122849941253662,-0.2542921006679535,-0.2768004834651947,0.06058535352349281,-0.07539321482181549,-0.19527487456798553,-0.19513456523418427,-0.3507651686668396,-0.06357773393392563,0.03668825328350067,0.33306747674942017,0.18898509442806244,-0.05895962193608284,0.09011498838663101,-0.39339032769203186,0.2443595826625824,0.007391131483018398,-0.08940590173006058,-0.10141797363758087,0.07768659293651581,-0.017677336931228638,-0.16039212048053741,0.07822495698928833,0.12436873465776443,0.205128014087677,0.07834221422672272,0.08790165185928345,0.13771304488182068,-0.14690591394901276,0.10269716382026672,-0.05398954078555107,0.26598820090293884,0.148484468460083,0.08879320323467255,-0.0657256618142128,-0.006691917777061462,-0.15233704447746277,-0.018223116174340248,-0.10283873230218887,-0.695662260055542,0.6191219687461853,0.4019550085067749,-0.18484504520893097,-0.6276826858520508,0.2828759253025055,0.5393703579902649,0.8531052470207214,-0.5387841463088989,-0.24091464281082153,-0.13295671343803406,-0.1839158684015274,-0.001883212011307478,0.05854601785540581,-0.02377706579864025,-0.09804638475179672,-0.2002057135105133,-0.22793589532375336,-0.1237395852804184,-0.10322561860084534,-0.031738460063934326,0.1406920999288559,0.42611414194107056,0.009416903369128704,0.02302842028439045,0.002218272304162383,0.03393271565437317,0.011873283423483372,-0.23592214286327362,-0.2722163498401642,-0.09341895580291748,0.17420275509357452,0.28258001804351807,-0.23658159375190735,-0.4084111750125885,-0.29830700159072876,-0.13996148109436035,-0.3217720687389374,-0.06564125418663025,0.5621605515480042,0.2639985978603363,0.3546367585659027,-0.10473928600549698,-0.13016675412654877,0.021982360631227493,-0.07089480757713318,-0.4592204988002777,-0.00624453229829669,-0.18620449304580688,-0.3108743727207184,-0.0064595649018883705,0.055909957736730576,0.0380825400352478,-0.3582629859447479,0.0541880764067173,0.05101858824491501,-0.0932423546910286,-0.3210548460483551,-0.11453387886285782,-0.13187368214130402,-0.06748227775096893,0.008896266110241413,-0.29621997475624084,0.0441884808242321,0.3023955523967743,0.05831358954310417,0.18682831525802612,0.030735069885849953,0.22464801371097565,-0.03163880109786987,-0.05234622582793236,-1.0502445697784424,-0.29582858085632324,-0.3905150294303894,0.1274247169494629,-0.5216429233551025,-0.34715670347213745,0.5018208622932434,-0.15892614424228668,-0.5818865895271301,1.0224562883377075,0.00183411396574229,-0.02807294949889183,0.029994528740644455,0.3769967257976532,-0.007694961037486792,-0.07063692808151245,-0.28894931077957153,-0.07011678814888,0.05424553528428078,1.2038764953613281,0.4525262713432312,1.681947946548462,-0.1454118937253952,0.10255832970142365,0.08761118352413177,0.5053399205207825,-0.6542923450469971,-0.5366412401199341,-1.1165554523468018,-0.38072848320007324,0.02788976952433586,-0.008766034618020058,0.10775745660066605,0.5766425132751465,-0.09869842976331711,0.11006660759449005,-0.10815990716218948,0.11862757056951523,0.3639766275882721,0.46277061104774475,0.1909513622522354,0.04806359484791756,-0.030920779332518578,0.2593667805194855,0.05682840570807457,0.18035420775413513,-0.6051210761070251,-0.30552735924720764,0.09318725764751434,-0.08824455738067627,0.007403979543596506,-0.14166893064975739,0.051664724946022034,-0.07253401726484299,0.09373226016759872,-0.03402389958500862,-0.02705702744424343,-0.04473075643181801,-0.06244634836912155,-0.02348574995994568,-0.2950327694416046,0.0006847252370789647,0.00037605391116812825,0.0016055009327828884,-0.07181405276060104,-0.2162162810564041,-0.1629742681980133,-0.014370911754667759,0.0007163985865190625,-0.022136695683002472,-0.004071912728250027,-0.0065201022662222385,-0.20840804278850555,0.4162098467350006,-0.00858832336962223,0.5327888131141663,0.11612158268690109,0.18631941080093384,-0.07476914674043655,-0.32249006628990173,-0.3899204134941101,-0.36959829926490784,-0.3457287847995758,0.4948616325855255,-0.35605674982070923,0.01753145270049572,0.046985987573862076,0.06580880284309387,0.05725618451833725,0.022719262167811394,-0.032465435564517975,-0.09531768411397934,-0.14744868874549866,-0.19292619824409485,-0.20212608575820923,-0.15070462226867676,-0.07894797623157501,-0.02904936857521534,-0.00005429363955045119,0.01038848515599966,0.0034333192743360996,-0.02774243801832199,-0.08319313079118729,-0.15358003973960876,-0.2048288732767105,-0.21123570203781128,-0.17891323566436768,-0.10017219930887222,-0.003186895977705717,0.1007307693362236,0.17730216681957245,0.17951425909996033,0.1259605884552002,0.06909774243831635,0.028259286656975746,0.007060867268592119,0.002733419183641672,-0.006784612778574228,-0.01372024230659008,-0.02144801989197731,-0.01866934262216091,-0.00030312364106066525,0.03226923197507858,0.0741070881485939,0.1169731393456459,0.1578313261270523,0.17727786302566528,0.16042084991931915,0.12427330762147903,0.08733531087636948,0.05042842775583267,0.018633872270584106,0.003101788926869631,-0.09406372904777527,0.01079269423875646],"sample_rate":48000}},{"max_value":1,"model":{"version":"0.7.0","metadata":{"date":{"year":2026,"month":6,"day":11,"hour":2,"minute":29,"second":28},"loudness":-17.774238578479153,"gain":0.4278463101532142},"architecture":"WaveNet","config":{"layers":[{"input_size":1,"condition_size":1,"head":{"out_channels":1,"kernel_size":16,"bias":true},"channels":8,"kernel_sizes":[6,6,6,6,6,6,6,6,6,6,6,6,6,6,15,15,6,6,6,6,6,6,6],"dilations":[1,3,7,17,41,101,239,1,3,7,17,41,101,239,1,13,1,3,7,17,41,101,239],"activation":[{"type":"LeakyReLU","negative_slope":0.01},{"type":"LeakyReLU","negative_slope":0.01},{"type":"LeakyReLU","negative_slope":0.01},{"type":"LeakyReLU","negative_slope":0.01},{"type":"LeakyReLU","negative_slope":0.01},{"type":"LeakyReLU","negative_slope":0.01},{"type":"LeakyReLU","negative_slope":0.01},{"type":"LeakyReLU","negative_slope":0.01},{"type":"LeakyReLU","negative_slope":0.01},{"type":"LeakyReLU","negative_slope":0.01},{"type":"LeakyReLU","negative_slope":0.01},{"type":"LeakyReLU","negative_slope":0.01},{"type":"LeakyReLU","negative_slope":0.01},{"type":"LeakyReLU","negative_slope":0.01},{"type":"LeakyReLU","negative_slope":0.01},{"type":"LeakyReLU","negative_slope":0.01},{"type":"LeakyReLU","negative_slope":0.01},{"type":"LeakyReLU","negative_slope":0.01},{"type":"LeakyReLU","negative_slope":0.01},{"type":"LeakyReLU","negative_slope":0.01},{"type":"LeakyReLU","negative_slope":0.01},{"type":"LeakyReLU","negative_slope":0.01},{"type":"LeakyReLU","negative_slope":0.01}],"bottleneck":8,"head1x1":{"active":false,"out_channels":1,"groups":1},"layer1x1":{"active":true,"groups":1},"groups_input":1,"groups_input_mixin":1,"conv_pre_film":{"active":false,"shift":true,"groups":1},"conv_post_film":{"active":false,"shift":true,"groups":1},"input_mixin_pre_film":{"active":false,"shift":true,"groups":1},"input_mixin_post_film":{"active":false,"shift":true,"groups":1},"activation_pre_film":{"active":false,"shift":true,"groups":1},"activation_post_film":{"active":false,"shift":true,"groups":1},"layer1x1_post_film":{"active":false,"shift":true,"groups":1},"head1x1_post_film":{"active":false,"shift":true,"groups":1},"gating_mode":["none","none","none","none","none","none","none","none","none","none","none","none","none","none","none","none","none","none","none","none","none","none","none"],"secondary_activation":[null,null,null,null,null,null,null,null,null,null,null,null,null,null,null,null,null,null,null,null,null,null,null],"slimmable":null}],"head":null,"head_scale":0.01079269447999198},"weights":[-0.5593807697296143,-0.010322966612875462,0.44407397508621216,0.34847941994667053,-0.8030707240104675,-0.6197226643562317,-0.000515405205078423,0.38540515303611755,-0.058009758591651917,0.011303393170237541,0.0643874853849411,-0.20851561427116394,0.21793323755264282,0.12611369788646698,0.005224291700869799,0.004382228013128042,0.005936478264629841,0.001797227538190782,0.00557720148935914,0.004266116768121719,0.0349031426012516,0.0444970466196537,-0.025550739839673042,0.19583271443843842,-0.13525380194187164,-0.1559300720691681,-0.03696487098932266,0.05607915297150612,-0.04911002144217491,0.1476942002773285,-0.12265806645154953,-0.0855177715420723,-0.038121916353702545,0.008956566452980042,0.08686979115009308,-0.21706107258796692,0.20733200013637543,0.14888416230678558,0.009274585172533989,0.006679758429527283,0.07233117520809174,-0.21522703766822815,0.1540747582912445,0.18780727684497833,0.0029120505787432194,0.0027354187332093716,0.0037676270585507154,0.0032398125622421503,0.003644112031906843,0.003565664868801832,0.06905709207057953,-0.02976074442267418,-0.024142129346728325,0.27936843037605286,-0.12525083124637604,-0.13730336725711823,0.04954303428530693,0.06993936747312546,0.1195504441857338,0.12430472671985626,0.09783165156841278,0.0126597099006176,-0.003282940946519375,-0.0026470774319022894,-0.0022816702257841825,-0.0012450128560885787,-0.00139528582803905,-0.0017199288122355938,0.007221617735922337,-0.045026931911706924,-0.11612943559885025,-0.11486022919416428,-0.09422516822814941,-0.026119861751794815,-0.019458970054984093,-0.03418785333633423,-0.06351282447576523,-0.07135829329490662,-0.055271852761507034,-0.01464501116424799,0.027298571541905403,0.1494436115026474,0.13184352219104767,0.20956623554229736,0.13799113035202026,0.03689013794064522,0.007756158709526062,0.10243132710456848,0.10062217712402344,0.13662168383598328,0.11282550543546677,0.018077151849865913,0.0002113125956384465,0.0002686847292352468,0.0001433958241250366,0.00018918816931545734,0.0003194958553649485,0.00022722355788573623,-0.042739398777484894,-0.08712656050920486,-0.11247633397579193,-0.13475409150123596,-0.07833071798086166,-0.0007613014313392341,0.009821344166994095,0.06765243411064148,0.036237072199583054,0.45351356267929077,-0.0014384264359250665,-0.38136979937553406,-0.006331142503768206,-0.0067884125746786594,-0.012826054356992245,-0.0033188890665769577,-0.002387614920735359,-0.006726084277033806,0.068269744515419,-0.13342224061489105,0.08856984972953796,-0.46495530009269714,-0.0109556308016181,0.3221467435359955,0.08483578264713287,-0.13527238368988037,-0.04731526970863342,-0.291534423828125,-0.009348695166409016,0.2881120443344116,0.06741224229335785,-0.04970361292362213,0.022264083847403526,0.32704073190689087,0.11457045376300812,-0.40191441774368286,-0.04751177132129669,0.062820203602314,-0.09528535604476929,0.390132337808609,-0.012206238694489002,-0.40203869342803955,-0.007357469294220209,-0.008236113004386425,-0.00890579354017973,-0.00896161887794733,-0.00846816599369049,-0.009078530594706535,0.064021535217762,0.005213807336986065,0.05640769749879837,-0.4546022117137909,-0.05541783198714256,0.2959388196468353,-0.00665894104167819,0.028745977208018303,0.05387300252914429,-0.19256913661956787,-0.14215043187141418,0.1965765655040741,0.002065506065264344,0.003204915439710021,0.004083816893398762,0.0010697655379772186,0.0008493268978781998,0.0038981367833912373,0.0025941114872694016,-0.02909117192029953,-0.0525716207921505,0.15654689073562622,0.1137869581580162,-0.1626158207654953,0.0032630297355353832,-0.021391287446022034,-0.04104159027338028,0.10847168415784836,0.07734745740890503,-0.1070520281791687,-0.0034497336018830538,0.039979349821805954,0.06635802239179611,-0.2486078143119812,-0.18566648662090302,0.26411330699920654,-0.007190058473497629,0.02739054150879383,0.05580412596464157,-0.1949770599603653,-0.14530235528945923,0.19978266954421997,-0.0025641124229878187,-0.0019907515961676836,-0.0014039970701560378,-0.0009985832730308175,-0.0007671170751564205,0.00004434423681232147,0.0064485082402825356,-0.02591821923851967,-0.045359574258327484,0.1650940626859665,0.11982625722885132,-0.16390550136566162,-0.11397259682416916,-0.05280618742108345,-0.004603637848049402,0.16382601857185364,0.18341952562332153,-0.00457890285179019,-0.0010437481105327606,-0.0004002615751232952,-0.00001952736420207657,0.0033718454651534557,0.004205852281302214,0.0010493142763152719,0.09371428936719894,0.02557554468512535,-0.005567794665694237,-0.13195466995239258,-0.14992275834083557,-0.023270083591341972,0.05784345790743828,0.023244583979249,-0.002388098044320941,-0.09290261566638947,-0.10153459012508392,-0.011447337456047535,-0.14210224151611328,-0.0707804411649704,-0.009351525455713272,0.22124537825584412,0.21075968444347382,-0.0027109330985695124,-0.12704111635684967,-0.034414250403642654,-0.015993889421224594,0.1846838742494583,0.1786150187253952,-0.0003536480653565377,-0.0008948809700086713,-0.0008905629510991275,-0.000477837078506127,-0.0002320398489246145,-0.00009354670328320935,-0.0007243484724313021,0.08068870007991791,0.027312548831105232,0.010713625699281693,-0.1209845170378685,-0.1530957818031311,-0.00844910554587841,0.06318406015634537,-0.043611977249383926,0.08075185865163803,-0.20171980559825897,-0.2666165232658386,0.28346267342567444,0.007299886085093021,0.00687577435746789,0.008665038272738457,0.005867432337254286,0.004428086802363396,0.0078004589304327965,0.003983167000114918,0.10272501409053802,-0.01331246830523014,0.15354837477207184,0.23162345588207245,-0.24633191525936127,0.030774207785725594,0.00039200313040055335,-0.07061372697353363,0.11272062361240387,0.19608542323112488,-0.16128824651241302,0.037623267620801926,-0.1406879723072052,0.05169792100787163,-0.21017715334892273,-0.22762703895568848,0.31356918811798096,0.03582049161195755,-0.07956438511610031,0.02057993970811367,-0.21563445031642914,-0.24915429949760437,0.26860398054122925,0.00040929700480774045,0.00016669632168486714,0.0008544667507521808,0.0006489530787803233,0.000622456893324852,0.0006731380126439035,-0.0041654775850474834,0.06677878648042679,-0.01829589530825615,0.1627287119626999,0.26850059628486633,-0.16422778367996216,-0.17124609649181366,0.13945353031158447,-0.33790770173072815,0.18630437552928925,0.26863035559654236,-0.057273391634225845,-0.0011142033617943525,-0.0005980327259749174,-0.0015556465368717909,0.00016526626131962985,0.000886437192093581,0.0023584445007145405,0.12227272242307663,-0.13475380837917328,0.192363440990448,-0.2511071562767029,-0.22832269966602325,-0.009332288056612015,0.049399539828300476,-0.07148005068302155,0.14471933245658875,-0.1994515061378479,-0.22272686660289764,-0.01826675795018673,-0.09725628048181534,0.035413291305303574,-0.3604657053947449,0.3150792717933655,0.2756756842136383,0.01372726820409298,-0.1341545730829239,0.059914980083703995,-0.26879000663757324,0.24422003328800201,0.29486212134361267,-0.12121423333883286,-0.008635022677481174,-0.00862092338502407,-0.008249609731137753,-0.00826456118375063,-0.0080572459846735,-0.007442036177963018,0.1328057199716568,-0.15857863426208496,0.2964925467967987,-0.30623456835746765,-0.18767766654491425,-0.020103037357330322,-0.10412056744098663,-0.05905482545495033,0.19361284375190735,-0.2888789176940918,-0.01119026355445385,0.21431787312030792,0.008291776292026043,0.007309150416404009,0.009670906700193882,0.004607232287526131,0.006118237506598234,0.008088886737823486,0.057891953736543655,-0.0075470516458153725,-0.1023864820599556,0.19336198270320892,-0.061615802347660065,-0.18146604299545288,-0.006244276184588671,0.10533877462148666,-0.14842848479747772,0.1205117329955101,-0.036817073822021484,-0.1073700562119484,0.008032381534576416,-0.0553601011633873,0.11203104257583618,-0.27725499868392944,0.01621445268392563,0.11629854887723923,0.05379630625247955,-0.1444302201271057,0.06678792834281921,-0.2739950716495514,0.01784670725464821,0.21004004776477814,0.004231680184602737,0.004865417722612619,0.005872360430657864,0.0048994948156178,0.005643163807690144,0.0048026335425674915,0.016082661226391792,-0.008858620189130306,-0.058580152690410614,0.1658736914396286,0.019814131781458855,-0.14878210425376892,0.05533266067504883,0.1261204034090042,0.019945459440350533,-0.014647840522229671,0.021059924736618996,0.058961957693099976,0.014141314662992954,0.060587622225284576,-0.32660001516342163,0.019640879705548286,0.2662712335586548,-0.3263333737850189,-0.17298167943954468,0.006878368556499481,0.4454215168952942,-0.6011343598365784,0.09730426222085953,-0.008704607374966145,-0.2657293379306793,0.15435774624347687,0.18817037343978882,-0.04344470426440239,0.14624454081058502,0.3251640498638153,-0.28720495104789734,-0.03956719860434532,0.08572728931903839,0.46233069896698,-0.24266734719276428,-0.5332908630371094,0.41782429814338684,-0.19538600742816925,0.023443246260285378,0.5345193147659302,0.4411371350288391,0.24881277978420258,0.23293691873550415,-0.4881335496902466,0.2805638909339905,-0.2720375061035156,0.27780842781066895,-0.05649612098932266,0.4211328327655792,0.32525551319122314,-0.1612773835659027,0.11290434002876282,0.7200490236282349,0.05042782053351402,0.10547899454832077,-0.17972205579280853,-0.17512209713459015,-0.12562324106693268,-0.47667747735977173,-0.030586330220103264,0.48777368664741516,0.29173851013183594,0.364309161901474,0.11139726638793945,0.164091095328331,0.11419261246919632,-0.049608685076236725,0.16539716720581055,0.22503434121608734,-0.20924873650074005,-0.2997472882270813,-0.16747882962226868,0.33512741327285767,0.30834177136421204,0.1069653332233429,0.09504605829715729,0.513629674911499,-0.25959211587905884,-0.2786617577075958,0.03076332062482834,0.5611867904663086,0.4448644816875458,-0.15961939096450806,-0.3306632339954376,0.3832227885723114,-0.3749591112136841,-0.06962530314922333,0.07535304129123688,-0.07672851532697678,-0.02165829949080944,-0.026566019281744957,-0.04850098863244057,0.04655717313289642,0.06634131073951721,0.0020641982555389404,-0.035701461136341095,-0.05310358479619026,0.07769346982240677,-0.032104238867759705,-0.21734783053398132,0.013394230045378208,-0.01574057526886463,-0.003819800214841962,0.006664019078016281,-0.1961325705051422,-0.08712724596261978,0.007511990610510111,0.06486796587705612,0.01784268207848072,0.18496498465538025,0.1576877236366272,-0.08854477852582932,0.026693806052207947,0.007668840698897839,-0.04535194858908653,-0.12407132983207703,0.23637403547763824,0.43837448954582214,0.022466275840997696,0.04150063171982765,0.055873844772577286,0.12065022438764572,0.07142125815153122,0.06152524799108505,-0.027612917125225067,0.005979596637189388,0.12063419073820114,0.07409016042947769,-0.031795404851436615,0.10348290950059891,-0.006645051762461662,-0.06704255938529968,-0.006402439437806606,0.006936610676348209,0.010206785053014755,0.2568110525608063,0.008055372163653374,0.01772666722536087,0.04228060692548752,-0.05510460212826729,-0.13483917713165283,0.1219630315899849,0.001697423169389367,0.011729942634701729,0.0279886145144701,0.010694456286728382,-0.012512346729636192,0.20405471324920654,0.005557263735681772,0.03616295009851456,0.08323519676923752,-0.07412932068109512,0.12513616681098938,-0.10868146270513535,-0.05602109804749489,0.06578980386257172,0.04526831954717636,-0.1603962779045105,-0.07972630113363266,-0.06043452024459839,-0.028774378821253777,0.04428352043032646,-0.11175042390823364,0.21694022417068481,0.05468646064400673,0.16155806183815002,-0.06257946044206619,0.0227174274623394,0.031395960599184036,0.003358506364747882,0.16429205238819122,0.029956484213471413,0.017046095803380013,-0.12904316186904907,0.07878275215625763,-0.04966308921575546,-0.14401952922344208,0.15317967534065247,0.04561035707592964,0.0161414947360754,0.010009832680225372,-0.11787814646959305,-0.25580039620399475,-0.20714004337787628,0.027391433715820312,-0.1039702370762825,0.01588205061852932,-0.08562152087688446,0.034243304282426834,-0.2361924648284912,0.08388987928628922,0.023991307243704796,0.010812007822096348,0.05334840342402458,0.19458919763565063,-0.03571510314941406,0.16814489662647247,0.17434062063694,0.16765038669109344,0.15939228236675262,-0.02320864051580429,0.16669204831123352,-0.004562942311167717,-0.06323406100273132,0.04378881677985191,-0.0017057065851986408,-0.015820473432540894,-0.1694840043783188,0.017439570277929306,-0.024920813739299774,0.16735516488552094,0.07591962814331055,0.12479358166456223,-0.19440776109695435,0.15620534121990204,0.13003456592559814,0.1519729495048523,0.11313828825950623,0.2104906290769577,0.012233014218509197,-0.10101929306983948,0.07792318612337112,0.007011976093053818,0.0331370048224926,0.3314847946166992,-0.32596248388290405,0.09345078468322754,-0.0853670984506607,-0.16746094822883606,0.009010130539536476,0.09317179769277573,-0.25460541248321533,0.1314087063074112,0.19492916762828827,0.18468226492404938,0.17565198242664337,-0.03614233061671257,-0.07235103100538254,-0.04298730939626694,-0.028013478964567184,0.01472125668078661,-0.08123183250427246,-0.11493763327598572,0.01946408301591873,-0.11032230406999588,0.02805422618985176,0.08285633474588394,-0.0845479965209961,-0.04284841567277908,0.10491569340229034,0.005151404999196529,-0.22226276993751526,-0.005038841627538204,-0.2172362208366394,0.05388011038303375,0.14131474494934082,-0.01830020546913147,-0.20534071326255798,-0.12919524312019348,-0.1731812059879303,-0.015532506629824638,0.17579935491085052,-0.0407860204577446,-0.06952152401208878,0.11674041301012039,-0.17529596388339996,-0.08972523361444473,0.1680612862110138,-0.013740655966103077,0.08597929775714874,-0.01948869414627552,0.03579632565379143,-0.011568563058972359,0.17284919321537018,-0.21487823128700256,0.12156178057193756,-0.1155507043004036,0.17091427743434906,-0.14300569891929626,0.08539748191833496,0.005405850242823362,0.08328545093536377,0.03326411917805672,0.019032975658774376,-0.1151176169514656,0.15183117985725403,-0.005364289507269859,-0.03392279893159866,0.06612222641706467,-0.004697206895798445,0.1656154841184616,0.1513964831829071,0.017459707334637642,-0.05877865478396416,-0.04023091495037079,-0.032449983060359955,-0.12458083778619766,-0.012115000747144222,0.06114165857434273,-0.07872051000595093,0.06439486145973206,0.037385039031505585,0.12546472251415253,-0.17379899322986603,0.0730181410908699,0.24288251996040344,0.026142336428165436,0.12276552617549896,0.04651717469096184,0.3039052188396454,0.041644636541604996,-0.0339716412127018,0.07507207989692688,0.0643201395869255,-0.08220736682415009,0.06218842417001724,0.06143753603100777,-0.08621539175510406,0.049501750618219376,0.0008690435788594186,0.05621669068932533,0.3921809494495392,-0.01769286021590233,0.019008737057447433,0.04740346595644951,0.0993906781077385,0.0000174757278728066,0.15232907235622406,-0.017415380105376244,-0.032278187572956085,0.029971642419695854,0.10889068990945816,-0.11194413900375366,0.08294130861759186,-0.05408412963151932,0.02726607583463192,0.1202036663889885,0.13667231798171997,-0.04861664026975632,-0.030915357172489166,-0.05249791219830513,0.02912391535937786,0.05256405845284462,0.1095849797129631,-0.0599621906876564,0.12737567722797394,-0.022743823006749153,0.06905152648687363,0.04918744042515755,0.2324639856815338,0.01641114614903927,0.08076179772615433,0.11162162572145462,0.07763425260782242,-0.0800216868519783,-0.049493324011564255,0.00020550515910144895,0.03469202667474747,-0.02373565174639225,-0.0007037256145849824,0.09037186950445175,0.09153871983289719,0.040087293833494186,0.0753924548625946,-0.06676606088876724,-0.0002604071923997253,0.0190830510109663,0.08832202851772308,-0.07837975025177002,-0.0025817598216235638,0.027032002806663513,-0.08333834260702133,0.007567264139652252,0.0367051437497139,-0.06370770931243896,-0.08345642685890198,-0.09445752203464508,-0.06864960491657257,-0.027926070615649223,-0.04119343310594559,0.0068434784188866615,-0.020599283277988434,-0.055297836661338806,-0.05810122936964035,0.017753446474671364,-0.0038906955160200596,-0.06251105666160583,-0.11292371898889542,-0.018406640738248825,0.07161695510149002,0.0010780622251331806,0.007180058863013983,-0.0053715757094323635,-0.24034488201141357,0.008295398205518723,-0.04077322408556938,0.032545775175094604,-0.014139427803456783,-0.12602999806404114,0.5726406574249268,0.172060027718544,0.08548722416162491,0.11876391619443893,0.1153952032327652,0.15166446566581726,0.17831051349639893,0.04272015020251274,0.0900387093424797,0.1118672713637352,0.1364656239748001,0.1450432986021042,-0.3326503038406372,0.043172672390937805,0.03114333748817444,0.046985529363155365,0.09921647608280182,0.09412831813097,0.2084387242794037,-0.13419397175312042,-0.14089363813400269,-0.09381468594074249,0.11940570920705795,0.1250886172056198,-0.009030855260789394,0.037394583225250244,0.09850183129310608,0.026023058220744133,0.07007148116827011,0.012575086206197739,-0.04751430079340935,0.001959284069016576,0.03242763131856918,0.09610342234373093,0.051562778651714325,-0.08812505006790161,-0.021888133138418198,0.09164966642856598,0.2351868897676468,0.12255053222179413,-0.013344055972993374,-0.02103559486567974,-0.16784615814685822,-0.0663585513830185,0.004625477362424135,0.05542392283678055,0.04870675131678581,0.11244091391563416,-0.303037166595459,-0.017743881791830063,-0.05210975930094719,-0.10289705544710159,0.09676841646432877,0.03709022328257561,0.01626553386449814,-0.021999040618538857,0.05693873018026352,-0.002678935881704092,-0.094759002327919,-0.1251368522644043,-0.04128061234951019,0.056108783930540085,0.01784193143248558,0.15754355490207672,0.06137045472860336,-0.011586572974920273,-0.1499527096748352,-0.052935417741537094,-0.061484046280384064,0.16637641191482544,0.030477367341518402,0.30966058373451233,-0.07150086760520935,0.0796581357717514,0.01748293824493885,0.039013661444187164,-0.0020152851939201355,0.16795849800109863,-0.08405330777168274,-0.04413694888353348,-0.04044278338551521,0.003175269579514861,-0.04611624777317047,-0.038328785449266434,0.0812813937664032,-0.020425762981176376,-0.06242692470550537,0.2699536085128784,0.12470003962516785,0.3358897268772125,-0.11723041534423828,-0.19175958633422852,0.265404611825943,0.2783069908618927,-0.1572725474834442,0.2848717272281647,-0.5095270872116089,0.3182176351547241,-0.10635613650083542,-0.14234808087348938,-0.04832939803600311,0.255867063999176,0.14929373562335968,-0.24749144911766052,0.12865211069583893,0.05315461382269859,-0.051074642688035965,-0.16825777292251587,-0.17645178735256195,0.026756269857287407,0.053633689880371094,-0.14906837046146393,0.4044537842273712,0.05586337298154831,-0.2063392996788025,0.10662471503019333,0.23657169938087463,-0.300489217042923,0.3070909380912781,-0.25783926248550415,0.2155863493680954,0.4234447181224823,-0.46312597393989563,-0.07789710909128189,-0.026122450828552246,0.034264806658029556,0.4094189703464508,0.038660697638988495,-0.3710283935070038,0.1939285844564438,-0.10909437388181686,-0.4166865050792694,-0.28697383403778076,0.6676570773124695,-0.15272855758666992,0.16644960641860962,0.03453540429472923,0.3198219835758209,-0.14773577451705933,-0.23351627588272095,0.24167077243328094,0.08780191838741302,0.06548725068569183,-0.38387420773506165,0.22812408208847046,0.256320059299469,-0.26128727197647095,-0.061354804784059525,0.1097475066781044,0.029865095391869545,0.23541703820228577,-0.3480263352394104,0.019148968160152435,0.27255624532699585,-0.3088856339454651,0.020731471478939056,0.21981500089168549,-0.4143505096435547,0.3110980689525604,-0.00949789211153984,-0.011444457806646824,0.09209395945072174,-0.06368453800678253,0.05421601980924606,-0.043606799095869064,-0.05488210916519165,-0.08475808799266815,0.06682948768138885,0.012134942226111889,0.0767718032002449,0.04408593103289604,-0.05767917260527611,0.4804263710975647,0.04808707907795906,0.045288894325494766,0.06731738895177841,0.1192295029759407,-0.020062968134880066,0.02439446747303009,0.006421388126909733,0.00940640363842249,-0.024769145995378494,-0.07334093749523163,-0.06644262373447418,-0.3856016993522644,0.014368440955877304,0.09100024402141571,0.12940335273742676,0.08595684915781021,0.2840668559074402,0.10982289165258408,0.032266054302453995,0.06585165858268738,0.08944088220596313,0.11462464928627014,0.20562666654586792,0.31996649503707886,0.07029525935649872,0.10282393544912338,0.05927601829171181,0.1361839324235916,0.06717110425233841,-0.13457296788692474,-0.018218304961919785,-0.00022068002726882696,0.08653609454631805,0.026175061240792274,0.24289683997631073,0.5122036933898926,0.04298563674092293,0.038028065115213394,0.0708584114909172,0.07738900184631348,0.01467940118163824,-0.04807677119970322,-0.055730994790792465,0.022266168147325516,0.008376777172088623,0.052635304629802704,0.09277357906103134,0.4226246178150177,-0.03563021495938301,-0.01317017711699009,0.06578321754932404,-0.014854738488793373,-0.04511706903576851,-0.022208821028470993,0.010564201511442661,0.006479748524725437,0.05161136016249657,-0.04977506771683693,-0.06348823010921478,0.39591914415359497,0.026570584625005722,0.07540381699800491,0.05918876826763153,0.07101815938949585,0.13415516912937164,-0.06680158525705338,0.021862028166651726,-0.031063145026564598,0.008713171817362309,0.04703225940465927,0.04617031663656235,0.04948560148477554,0.038692884147167206,0.031550098210573196,-0.004562695510685444,-0.06590725481510162,-0.062282830476760864,0.2848338782787323,0.06552233546972275,0.008965888060629368,0.039398085325956345,0.11226172000169754,0.06316050887107849,-0.37289902567863464,-0.023291675373911858,-0.023443615064024925,-0.06518534570932388,-0.009485775604844093,0.0532694049179554,-0.23002885282039642,0.029496002942323685,-0.014991706237196922,0.03451261669397354,0.05859396606683731,0.045598383992910385,-0.09678544104099274,0.03307603299617767,0.03023904375731945,0.0036548711359500885,0.003662609960883856,-0.06722951680421829,-0.02968447096645832,-0.004392911680042744,0.006874796934425831,0.0010588415898382664,-0.047003310173749924,-0.09742940962314606,0.5636054873466492,0.004797630477696657,0.08982602506875992,0.08462237566709518,0.09930985420942307,0.19361665844917297,0.33713752031326294,0.02774660289287567,0.06638316810131073,0.07101385295391083,0.0008616741397418082,0.11904410272836685,-0.3388749957084656,0.037896234542131424,0.02283662185072899,0.07825862616300583,0.07338274270296097,0.058390531688928604,0.237537682056427,-0.021090175956487656,-0.007359284907579422,0.024127626791596413,0.005178824532777071,0.03799709677696228,0.36277735233306885,0.06626109778881073,-0.01501760259270668,0.07293270528316498,0.04990930110216141,0.2060810774564743,-0.09107466787099838,0.04661815986037254,0.11159881949424744,0.14879852533340454,0.07673458009958267,0.15775875747203827,-0.1331053376197815,0.04114382341504097,0.018345754593610764,0.03132353723049164,-0.019906824454665184,-0.04212171956896782,-0.08818475157022476,-0.01242589857429266,-0.014530445449054241,-0.00700848875567317,-0.048201318830251694,0.022113844752311707,-0.03706793114542961,0.054334938526153564,0.1377670168876648,0.1332114189863205,0.224958598613739,0.3195308446884155,0.12381380051374435,0.055095721036195755,0.08797670900821686,0.10907949507236481,0.15415561199188232,0.14517688751220703,0.22516222298145294,0.05096299573779106,-0.0013562809908762574,0.10692901909351349,0.06654027849435806,0.17257645726203918,-0.19734928011894226,0.09900961071252823,0.11883851885795593,0.1449139267206192,0.22571240365505219,0.1854650229215622,-0.1887492537498474,0.06176376715302467,0.051484063267707825,0.07871957123279572,0.0948215052485466,0.15015855431556702,-0.1122257262468338,0.000031740291888127103,0.00998381432145834,0.022794365882873535,0.008531801402568817,0.04357058182358742,-0.23525172472000122,0.09824860095977783,0.051490455865859985,0.008293714374303818,0.07381854951381683,0.06504875421524048,0.36087021231651306,-0.039100635796785355,-0.055520862340927124,-0.06427904218435287,-0.10128957778215408,-0.013293761759996414,-0.23861825466156006,0.0446833074092865,0.038729313760995865,0.09354036301374435,0.12999741733074188,0.10259779542684555,-0.04477265477180481,0.07645439356565475,0.15308797359466553,0.13405509293079376,0.16521857678890228,0.20227663218975067,0.15703260898590088,0.04605575278401375,0.07671529799699783,0.10436000674962997,0.14761310815811157,0.08691960573196411,0.21658748388290405,-0.010564623400568962,0.02828737534582615,0.06851713359355927,0.07638922333717346,0.21179066598415375,-0.0013946016551926732,0.05815653130412102,0.15424853563308716,0.18091559410095215,0.18933145701885223,0.10745278745889664,0.03527548536658287,-0.03781094402074814,-0.026370955631136894,-0.03168671578168869,-0.1081322655081749,-0.10998008400201797,0.09443797171115875,0.048279471695423126,0.032312143594026566,0.07090947777032852,0.05553220957517624,0.0883006751537323,0.04756161943078041,-0.030577145516872406,0.049331653863191605,-0.050321176648139954,-0.08356453478336334,0.03411107510328293,-0.2050403654575348,0.002469356171786785,0.09520234912633896,-0.07472231239080429,0.08774232119321823,-0.08600839227437973,-0.13146613538265228,-0.01891440525650978,0.006062473636120558,0.010902476496994495,-0.010950945317745209,-0.09731998294591904,0.20021946728229523,-0.017822125926613808,-0.08680374920368195,0.023333456367254257,-0.0634337067604065,0.03302526846528053,-0.007954148575663567,0.06315591186285019,-0.02568178065121174,0.11911040544509888,-0.07356522977352142,-0.015022586099803448,0.06157519295811653,-0.018524164333939552,0.003902277909219265,0.05509399622678757,-0.029548484832048416,-0.027910521253943443,-0.09897235780954361,0.05778981000185013,0.060894813388586044,0.11438203603029251,0.002974653383716941,0.1159103661775589,-0.183932363986969,0.01504333782941103,0.005457233637571335,0.06962394714355469,0.09759770333766937,0.08423420041799545,0.3703305423259735,0.06004329398274422,0.07083029299974442,0.092866912484169,0.014576287008821964,0.05155491456389427,0.029196731746196747,-0.13623009622097015,-0.06585109978914261,-0.16669322550296783,-0.21955540776252747,-0.07995380461215973,-0.09025599807500839,-0.035420943051576614,-0.021622750908136368,-0.010203844867646694,0.011062785983085632,0.04010537639260292,-0.21897456049919128,-0.07049619406461716,-0.01045958325266838,-0.08753620833158493,0.0006663917447440326,-0.14542856812477112,-0.3426940441131592,0.10130704194307327,-0.008830040693283081,-0.0069171660579741,-0.06884578615427017,-0.11680280417203903,0.20665912330150604,0.00479908287525177,0.013862526044249535,0.014905733056366444,-0.03338824212551117,-0.088960662484169,0.29170817136764526,-0.016316216439008713,-0.027035240083932877,0.01175027433782816,-0.1635662168264389,0.08547837287187576,0.011793870478868484,-0.011349420994520187,-0.020098449662327766,-0.008704048581421375,-0.008424054831266403,-0.024216288700699806,0.06434520334005356,0.008015196770429611,0.0011174293467774987,0.09120180457830429,0.02723177708685398,-0.10017833858728409,0.04062936082482338,-0.01857740804553032,-0.036682065576314926,-0.03707435727119446,-0.2317754626274109,-0.043049123138189316,0.029404349625110626,-0.05740083009004593,-0.013554995879530907,-0.06723911315202713,-0.12441877275705338,0.036531925201416016,0.020945774391293526,0.0013272009091451764,0.037299178540706635,0.014506098814308643,-0.03333023935556412,0.055436018854379654,0.009968702681362629,0.018609868362545967,0.008857079781591892,-0.04993348941206932,-0.09678902477025986,0.001177165424451232,0.02055436559021473,-0.01354376319795847,-0.04569626227021217,-0.041546016931533813,0.06762950867414474,-0.056093327701091766,0.11392372846603394,-0.05884470045566559,-0.2585473358631134,-0.011289088055491447,0.1119551733136177,0.1070256307721138,-0.04447377845644951,-0.0376964695751667,-0.06896816939115524,0.0977669209241867,-0.1436074823141098,0.30634763836860657,0.0672396644949913,-0.46811532974243164,-0.15838569402694702,0.0698181539773941,0.04103768989443779,-0.5712616443634033,-0.30794593691825867,0.27244818210601807,0.5733724236488342,0.33330264687538147,-0.03955670818686485,-0.29119405150413513,0.07565198838710785,-0.242776557803154,0.2767566740512848,-0.2951774597167969,0.11539790034294128,-0.11089181900024414,0.031035834923386574,0.1038079485297203,0.06924112886190414,0.43841370940208435,-0.07318633794784546,-0.507086992263794,-0.06089767813682556,-0.021510105580091476,-0.15038998425006866,-0.026345446705818176,-0.005081369541585445,-0.15050660073757172,0.321639746427536,-0.32725101709365845,0.23167099058628082,0.22875644266605377,-0.1288101077079773,-0.015817763283848763,-0.09155450016260147,-0.3635578453540802,0.07342537492513657,0.2005469799041748,-0.13469962775707245,0.3400976359844208,0.0957612469792366,-0.3283965587615967,0.2041994333267212,-0.018569303676486015,-0.391040563583374,0.06616409122943878,0.331552118062973,0.09270972013473511,-0.2128385603427887,0.3253491520881653,-0.1657497137784958,-0.3551730513572693,0.3546295464038849,-0.22027236223220825,0.3821355998516083,0.304519921541214,-0.04805925488471985,-0.042994942516088486,-0.049294278025627136,0.15083537995815277,0.38663268089294434,-0.28011319041252136,0.2089758962392807,0.18407650291919708,-0.1472140997648239,0.03544849902391434,-0.0928896889090538,0.09163821488618851,0.040105290710926056,-0.08381101489067078,0.0338667631149292,0.05198289826512337,0.04824052378535271,0.05238460376858711,0.019962435588240623,0.0004209727921988815,0.001965080387890339,0.009783092886209488,-0.014248153194785118,0.02338581532239914,-0.0013437098823487759,-0.013549569994211197,-0.016045041382312775,0.014760810881853104,-0.02773186005651951,-0.009088645689189434,0.012984246015548706,-0.031293779611587524,-0.034167855978012085,-0.012708054855465889,-0.036741551011800766,-0.054248128086328506,-0.029600121080875397,0.012566294521093369,-0.0004137475916650146,-0.018769044429063797,0.043153226375579834,0.021228311583399773,-0.008248706348240376,-0.02970856986939907,0.004122430458664894,0.04274900257587433,0.02037413977086544,-0.018657619133591652,0.001386728836223483,0.0011186294723302126,-0.006110582035034895,0.008388574235141277,0.004276219289749861,0.011936236172914505,-0.023572057485580444,0.011532137170433998,0.008961358107626438,0.017503025010228157,-0.01924486644566059,0.04298104718327522,0.031222978606820107,-0.0067566633224487305,-0.01913202740252018,0.010210986249148846,0.001009694067761302,0.018106238916516304,0.010372819378972054,-0.10094420611858368,-0.14149963855743408,-0.15322360396385193,-0.2478586584329605,-0.3164556622505188,-0.14794045686721802,0.07709423452615738,0.09940291941165924,0.11037871241569519,0.10911174863576889,0.07796170562505722,-0.20549269020557404,-0.10012651234865189,-0.036838967353105545,-0.14458829164505005,-0.053337302058935165,-0.23595184087753296,0.09848211705684662,0.02268611267209053,0.033851321786642075,0.06591638177633286,0.14034250378608704,0.1794031262397766,-0.2400556355714798,-0.13696399331092834,-0.17383098602294922,-0.17044709622859955,-0.13816596567630768,-0.18974032998085022,-0.09402292966842651,0.2105693519115448,0.2374005764722824,0.1227521151304245,0.09417835623025894,-0.0565505251288414,0.15265077352523804,-0.004857802763581276,0.04421438276767731,0.1120440661907196,0.08694744855165482,0.1204109638929367,-0.48120614886283875,-0.007632898632436991,0.08569280058145523,0.019222043454647064,0.20428887009620667,-0.010343052446842194,-0.2864483594894409,-0.07433485984802246,-0.06317120790481567,-0.02985830418765545,-0.03984786197543144,-0.05784948915243149,-0.45248159766197205,-0.0027885923627763987,0.03841722011566162,-0.014896668493747711,0.04279925674200058,-0.02037666365504265,0.3891783356666565,0.02363719791173935,0.016614705324172974,0.022118978202342987,-0.0064912461675703526,0.08555913716554642,0.49496984481811523,-0.0438169427216053,-0.11074242740869522,-0.1499430239200592,-0.11623203754425049,-0.1381724327802658,0.19062539935112,0.014416782185435295,0.026859786361455917,-0.007443231530487537,-0.020008457824587822,-0.0038224265445023775,-0.22317342460155487,-0.0023515664506703615,-0.04164127632975578,0.03748992830514908,0.04496699571609497,0.01204451359808445,-0.21264280378818512,-0.05147431045770645,-0.10446006804704666,-0.03746121749281883,-0.1432359665632248,-0.1363256275653839,0.2191626876592636,-0.08588279783725739,-0.0887373834848404,-0.058482296764850616,-0.06903545558452606,-0.05134996399283409,0.6222591996192932,-0.010468020103871822,0.013304133899509907,-0.07352886348962784,-0.11609698086977005,-0.10156451165676117,0.22120614349842072,-0.06616559624671936,0.010717064142227173,0.02344810776412487,0.044095348566770554,0.01964707486331463,-0.057674430310726166,0.027563920244574547,-0.01740957796573639,-0.021154461428523064,-0.07376381754875183,-0.026339812204241753,0.34668630361557007,-0.01305778231471777,0.0044851116836071014,0.041718874126672745,0.06872643530368805,0.09819769114255905,-0.1863328069448471,0.002246592892333865,0.04617322236299515,0.03156575933098793,-0.16989490389823914,-0.10156245529651642,-0.013860777020454407,-0.0767892599105835,-0.11553621292114258,-0.07132486999034882,-0.07424695044755936,-0.050218816846609116,0.18674081563949585,-0.024643199518322945,0.055988505482673645,0.017864113673567772,0.045310452580451965,0.06163373962044716,-0.20414496958255768,0.10620728135108948,0.004683679901063442,-0.01125802006572485,0.03353220596909523,-0.04107388108968735,-0.07673711329698563,0.04870043694972992,0.01913842000067234,0.05655395984649658,0.013862233608961105,0.11983758956193924,-0.40400761365890503,0.038607481867074966,0.01967846229672432,-0.026885244995355606,0.028598325327038765,-0.09764734655618668,-0.13137754797935486,-0.03302248567342758,-0.02491496503353119,0.008588274009525776,0.07122131437063217,0.01698530651628971,0.08106814324855804,-0.05481262877583504,-0.12132585793733597,-0.11607597768306732,-0.036555685102939606,-0.11376360058784485,0.09242381155490875,-0.0880589634180069,0.0012480125296860933,0.013107341714203358,0.003551271976903081,-0.04459729418158531,-0.5692019462585449,0.11207296699285507,0.03058861568570137,-0.059909090399742126,0.04085205867886543,-0.014715200290083885,-0.24395707249641418,-0.033837560564279556,-0.11015515774488449,-0.09568346291780472,0.027426792308688164,-0.1458732634782791,0.10683818906545639,-0.0043968139216303825,0.008233612403273582,0.0029466182459145784,-0.03763223811984062,-0.026179086416959763,0.2005828320980072,-0.014874743297696114,0.05955471470952034,0.039936408400535583,0.00686083035543561,0.001674020430073142,0.26506978273391724,-0.04390556737780571,-0.06806454807519913,-0.11700397729873657,-0.029801009222865105,-0.060736026614904404,0.5553595423698425,0.017230428755283356,0.06597518920898438,0.06479799002408981,0.032000280916690826,0.08384766429662704,0.45230111479759216,-0.012433265335857868,0.023535871878266335,0.010931061580777168,0.006636751815676689,0.09913800656795502,0.5113484859466553,-0.012317714281380177,-0.04143711179494858,-0.012477301992475986,-0.018097415566444397,0.007169385906308889,0.5326138734817505,0.07692600786685944,0.059174854308366776,0.05620251223444939,0.140879288315773,-0.003831385402008891,-0.11480731517076492,-0.02099297009408474,0.02195630595088005,-0.024720966815948486,-0.023520303890109062,-0.06103804334998131,0.1208852156996727,0.03886999934911728,0.004392936825752258,0.04021067172288895,0.029399016872048378,-0.006086256820708513,0.14596565067768097,-0.07097271084785461,-0.09441939741373062,-0.07651916146278381,-0.15728941559791565,-0.1701904833316803,0.1842905580997467,0.043999385088682175,0.04126273840665817,0.012492721900343895,0.02620377391576767,0.1510353535413742,-0.10643325746059418,0.005476196296513081,-0.0051011512987315655,0.006120878737419844,0.00006247584678931162,-0.033104415982961655,-0.47156989574432373,0.004993651993572712,-0.09223920106887817,-0.09991730749607086,-0.14615634083747864,-0.023139776661992073,-0.6926891803741455,-0.013650196604430676,0.03330620378255844,0.005162614863365889,0.034528981894254684,-0.09083971381187439,0.2613193392753601,-0.049164317548274994,-0.08898817747831345,-0.0348660834133625,-0.05115910619497299,-0.1695261150598526,-0.13368521630764008,-0.0671214908361435,-0.0782812088727951,-0.039021290838718414,-0.00030778878135606647,-0.13539786636829376,-0.4449274241924286,-0.127999410033226,-0.11466728895902634,-0.10736506432294846,-0.15885888040065765,-0.18005941808223724,-0.7724432945251465,0.027390044182538986,0.004294128157198429,0.006976407486945391,-0.0007802917971275747,0.011819534935057163,-0.006558535620570183,0.039131827652454376,-0.02485436387360096,0.02225901558995247,-0.06818707287311554,-0.08030035346746445,-0.06829220801591873,-0.0747552439570427,-0.09155908972024918,-0.055770955979824066,-0.10929206013679504,-0.05900457128882408,-0.08186014741659164,-0.014246144331991673,0.002659386955201626,0.031044071540236473,0.031065458431839943,0.02688531205058098,0.008181213401257992,0.03889108821749687,-0.020880969241261482,0.02294534631073475,-0.060382720082998276,-0.044198449701070786,-0.0446036234498024,-0.013245617039501667,-0.04542068392038345,-0.06740550696849823,-0.06673640757799149,-0.04871472343802452,-0.054759278893470764,0.006791521795094013,-0.01107430923730135,0.016010817140340805,-0.009759887121617794,0.008958378806710243,-0.010453639551997185,-0.0006286892457865179,-0.012533522211015224,-0.002237242180854082,-0.04723784327507019,-0.08553947508335114,-0.06807983666658401,-0.015128951519727707,0.1775985062122345,0.19767260551452637,-0.14246375858783722,-0.07891049236059189,-0.19255581498146057,0.1348099261522293,-0.35232171416282654,0.08364373445510864,0.04532072693109512,0.6889824867248535,-0.32546326518058777,0.4061565697193146,-0.24199707806110382,-0.6630512475967407,0.39874640107154846,-0.008282487280666828,0.32652974128723145,-0.5675528645515442,0.024567455053329468,-0.28102654218673706,-0.27078235149383545,0.13521912693977356,-0.003426901763305068,-0.10933234542608261,-0.21327243745326996,-0.07729662209749222,-0.19690562784671783,-0.04440273717045784,-0.37037861347198486,-0.5138580799102783,-0.3066646158695221,-0.018348360434174538,0.18679341673851013,0.41278427839279175,0.11321970075368881,-0.22250768542289734,-0.23133201897144318,-0.6175816059112549,0.06214657798409462,0.09816915541887283,0.05726146325469017,0.2918906509876251,0.22961439192295074,-0.17540690302848816,-0.2944889962673187,-0.2830367088317871,-0.078698068857193,-0.018473690375685692,0.27304190397262573,-0.22295135259628296,0.40384185314178467,0.39652541279792786,-0.25241413712501526,0.27075251936912537,0.13507378101348877,0.03272616118192673,-0.4264964461326599,-0.008019855245947838,-0.3269323706626892,0.5672935247421265,0.0400274433195591,-0.030349120497703552,-0.07296480238437653,-0.042896248400211334,0.1947181671857834,0.2438688725233078,0.22951872646808624,0.07454255223274231,-0.0104448813945055,-0.4005202651023865,-0.06967510282993317,0.06829480826854706,0.23546455800533295,-0.09348632395267487,-0.19386924803256989,-0.2130642682313919,-0.21586495637893677,0.033639900386333466,-0.10739819705486298,0.04155426472425461,0.08437326550483704,0.04667335003614426,0.06579110771417618,-0.09808287024497986,-0.017975151538848877,-0.08888477087020874,0.05689111724495888,0.048505861312150955,0.05973822996020317,0.051989104598760605,0.06038777902722359,0.046305082738399506,0.43668824434280396,0.13399167358875275,0.10374381393194199,0.0762670636177063,0.10032176971435547,0.1551724076271057,0.07469415664672852,-0.023885009810328484,0.02767336182296276,0.005265286657959223,-0.0653219223022461,-0.031519245356321335,-0.16995885968208313,0.0711035504937172,0.08084340393543243,0.09356113523244858,0.13267529010772705,0.08809909224510193,-0.16502690315246582,0.012765279039740562,0.07585440576076508,0.03664867579936981,0.03405683860182762,0.13523663580417633,0.4748000204563141,-0.0019411331741139293,-0.0830748900771141,-0.0902455598115921,-0.09631001949310303,-0.07049961388111115,-0.1497620940208435,-0.004401136189699173,0.023370016366243362,0.04356113076210022,0.07521051913499832,0.09817397594451904,-0.23081842064857483,-0.009019608609378338,0.015039942227303982,0.07807116955518723,0.07784433662891388,0.008527656085789204,-0.08928379416465759,0.03162480145692825,-0.020666539669036865,-0.06364637613296509,0.06817179918289185,0.10272238403558731,-0.04839872196316719,0.053497105836868286,0.042149245738983154,-0.014212647452950478,-0.03954969719052315,-0.03373512998223305,0.014785161241889,-0.028518516570329666,-0.030195094645023346,-0.007849061861634254,-0.051201142370700836,0.007286082487553358,0.06810101121664047,-0.05443315953016281,-0.0505787692964077,-0.014650868251919746,-0.06374821811914444,-0.11768948286771774,0.015238666906952858,0.033929191529750824,-0.018077410757541656,-0.012121475301682949,0.09019376337528229,0.02596181258559227,-0.0014426729176193476,0.05068700760602951,0.07927054911851883,-0.026340866461396217,-0.04488826543092728,0.10432358831167221,0.015717482194304466,-0.034987568855285645,-0.014942634850740433,0.017534799873828888,-0.04608210176229477,-0.09737174957990646,0.00996044185012579,-0.03347035124897957,-0.0454658679664135,-0.025164639577269554,-0.02435879409313202,-0.04382014647126198,-0.014932832680642605,-0.021166468039155006,0.0026336649898439646,0.018198911100625992,0.013636784628033638,0.005645067896693945,-0.19070906937122345,0.019791526719927788,0.019820760935544968,0.00877867080271244,0.008315599523484707,-0.0037377504631876945,0.18532483279705048,0.013541184365749359,0.008450125344097614,0.03125643730163574,0.017232665792107582,0.04960344731807709,0.3406018316745758,-0.02869623713195324,-0.0031805457547307014,-0.0010690983617678285,-0.0005844227271154523,-0.029706209897994995,0.1493128538131714,0.011839577928185463,-0.004724928177893162,0.006070415023714304,0.01313565019518137,-0.03206563740968704,-0.0972120612859726,-0.017514418810606003,0.002835899591445923,0.00007806471694493666,-0.01755547896027565,-0.05452713370323181,-0.16184654831886292,-0.020159389823675156,0.004093490540981293,-0.003841093508526683,0.015447990968823433,-0.03818577900528908,0.009876367636024952,-0.03809076175093651,-0.02948903664946556,0.0010328147327527404,-0.03539060428738594,-0.06000768393278122,0.32778695225715637,0.020641757175326347,0.05730794742703438,0.06241415813565254,0.043924324214458466,0.02409941889345646,0.21048951148986816,0.012216029688715935,0.06615757942199707,0.051442258059978485,0.05371217429637909,0.12600019574165344,-0.234421968460083,-0.0017267512157559395,0.046962060034275055,0.08298975229263306,0.027989020571112633,0.057300761342048645,-0.3427818715572357,-0.026096638292074203,-0.024677567183971405,-0.06913567334413528,-0.03892592713236809,-0.04207633435726166,-0.12632451951503754,-0.05322885513305664,-0.03714374452829361,-0.10020622611045837,-0.005567958112806082,-0.016021721065044403,0.24923847615718842,0.014018594287335873,-0.002039629267528653,0.06571478396654129,0.00650247884914279,-0.0016901383642107248,-0.2656259834766388,-0.02723228931427002,-0.006744877900928259,-0.05733274295926094,-0.0267059076577425,0.0036138775758445263,-0.10088957101106644,-0.010345220565795898,-0.1119675561785698,0.009730780497193336,0.004518386907875538,-0.014103668741881847,-0.04945339262485504,0.024675922468304634,0.030924052000045776,0.03737296164035797,0.012544929049909115,-0.018773091956973076,0.21898560225963593,0.0018724671099334955,0.004726212006062269,-0.022137561812996864,-0.0453072227537632,-0.0595845989882946,0.24242836236953735,0.02761586382985115,0.025111239403486252,0.06540866941213608,0.033715929836034775,0.029719695448875427,-0.19772107899188995,0.02099919132888317,0.06246526539325714,0.10055553168058395,0.06761020421981812,0.1370900273323059,-0.18784506618976593,0.013713464140892029,0.022988002747297287,0.04243725538253784,0.07243496924638748,0.09807653725147247,0.5142475962638855,-0.06804943084716797,-0.07001185417175293,-0.1334434151649475,-0.14199155569076538,-0.25885841250419617,-0.15430773794651031,-0.008124803192913532,0.05733713507652283,0.04211508482694626,0.11514309048652649,0.05430695042014122,-0.3782089650630951,0.000883121567312628,-0.0003901375166606158,0.005600553005933762,0.08354373276233673,0.031554754823446274,-0.1415548473596573,0.10411094129085541,0.04659930244088173,0.024455957114696503,0.05417267605662346,-0.03954235836863518,-0.3818422853946686,-0.05929683521389961,-0.0003828602493740618,-0.06044039875268936,-0.056109193712472916,-0.14304541051387787,0.19237786531448364,0.056824132800102234,0.03301452845335007,0.06392747908830643,0.10436026751995087,0.06983626633882523,-0.07393819093704224,0.11247728019952774,0.17523331940174103,0.20846939086914062,0.14357739686965942,0.11017504334449768,-0.03278409689664841,-0.011364782229065895,0.05400857329368591,0.08641116321086884,0.05463482439517975,0.10751396417617798,-0.06545864045619965,-0.13485315442085266,-0.18241967260837555,-0.25827255845069885,-0.2513382136821747,-0.2902708947658539,0.0012182682985439897,0.045219991356134415,0.07243062555789948,0.08557235449552536,0.10518825054168701,0.07115720957517624,-0.3073616623878479,0.04891704022884369,0.017916543409228325,0.021038658916950226,0.04392677918076515,0.0932595431804657,-0.1633916199207306,0.03239782899618149,0.06328276544809341,0.06330327689647675,0.06918752193450928,-0.039313528686761856,0.1396053582429886,0.05482667684555054,0.11920708417892456,0.09005310386419296,0.1265002191066742,0.11066538840532303,0.2361261546611786,0.01386452279984951,-0.013031614013016224,0.0057968501932919025,0.026260118931531906,-0.017862778156995773,0.5054405331611633,0.023531636223196983,0.05602939799427986,0.04501074180006981,0.04338102787733078,-0.0610596127808094,0.03801042586565018,0.018660539761185646,0.02765422686934471,-0.00935269333422184,-0.008560076355934143,0.005192925687879324,0.0972682535648346,-0.025321945548057556,-0.024243729189038277,-0.023135317489504814,0.01758253015577793,0.04614000394940376,-0.015491161495447159,0.043333444744348526,0.037665944546461105,0.052129290997982025,0.0182661060243845,-0.06356494873762131,0.013885137625038624,-0.02445090189576149,-0.03742208704352379,-0.021843980997800827,-0.03614768758416176,-0.059912797063589096,0.003943656571209431,0.01385713741183281,0.01260942779481411,-0.009961829520761967,0.0077852653339505196,0.02972652018070221,0.31480807065963745,-0.011515789665281773,-0.0007008914253674448,-0.027779147028923035,-0.028006020933389664,-0.03205891698598862,-0.31002333760261536,0.003738712053745985,0.00006500497693195939,0.015561101026833057,0.006594631355255842,0.003962344955652952,-0.22300726175308228,-0.005341961979866028,0.003435326274484396,0.00888989120721817,-0.00425681471824646,0.00042094409582205117,-0.32900887727737427,0.003187073627486825,0.006441428326070309,0.026780318468809128,0.0180556271225214,0.04747355356812477,0.3088033199310303,0.008702379651367664,0.011187007650732994,-0.02436615154147148,0.014927632175385952,-0.03143153339624405,0.17068912088871002,0.03649380803108215,0.04066597670316696,0.0062808142974972725,0.0649304911494255,0.12631851434707642,-0.10122767090797424,0.0010426563676446676,-0.01649862341582775,0.02397182583808899,0.0285981185734272,0.0490882471203804,-0.2871866524219513,-0.1345478743314743,-0.06216224655508995,0.051840316504240036,-0.07298683375120163,0.14742259681224823,0.04723643511533737,-0.028610605746507645,-0.13713869452476501,-0.1438451111316681,-0.004943893291056156,0.26887786388397217,0.06002339720726013,-0.5738806128501892,0.06671810150146484,0.006501090247184038,0.03461338207125664,-0.06585190445184708,-0.06327719241380692,-0.3183877766132355,-0.1507364958524704,0.4313892722129822,0.16147209703922272,0.13220131397247314,-0.11357923597097397,-0.07053239643573761,-0.054493729025125504,0.027362626045942307,-0.0906820148229599,-0.3332314193248749,-0.013099083676934242,0.12039204686880112,0.0698254182934761,0.2792331874370575,-0.013959793373942375,0.14601029455661774,-0.3846238851547241,0.16245752573013306,0.13518233597278595,0.04798540845513344,0.0027870547492057085,-0.2627456784248352,-0.0026818232145160437,-0.05024348571896553,-0.06866505742073059,-0.21233928203582764,-0.28900909423828125,-0.1146349236369133,0.14484184980392456,-0.20336350798606873,-0.09000781923532486,-0.3555828928947449,-0.029061373323202133,-0.1696135550737381,0.04586275294423103,0.09207616746425629,-0.24818424880504608,0.44564294815063477,0.18612155318260193,0.06597818434238434,0.2090916633605957,0.02305462770164013,-0.37769269943237305,0.2810837924480438,-0.15529422461986542,0.33463194966316223,-0.07471883296966553,0.0985049456357956,0.08292772620916367,0.06449504941701889,0.3306236267089844,0.3853282630443573,0.16671380400657654,0.25144949555397034,0.1409241259098053,-0.01795339398086071,0.2867259979248047,-0.28310513496398926,0.05420152470469475,-0.17016741633415222,0.3505699932575226,-0.15495999157428741,0.09664823859930038,-0.10434436053037643,-0.08151572197675705,0.09184446185827255,0.14794360101222992,-0.013953686691820621,0.0741991475224495,-0.07376605272293091,-0.04354442283511162,-0.09572335332632065,-0.08687961101531982,-0.09383013099431992,-0.08547309786081314,0.0036032956559211016,0.0391741506755352,0.10789702832698822,0.03875917196273804,0.1393653303384781,0.01666499301791191,0.009645708836615086,0.022066909819841385,-0.007107910700142384,0.03436843305826187,-0.0371878482401371,0.07258899509906769,0.011758516542613506,-0.017781158909201622,-0.0687921866774559,0.049220044165849686,-0.05059317499399185,-0.23870351910591125,0.01897582970559597,-0.01978215202689171,0.03264881297945976,0.08934300392866135,0.0514218807220459,-0.16944186389446259,0.029906613752245903,-0.0008861768874339759,0.044567935168743134,0.06238262355327606,0.3057229518890381,-0.24380429089069366,-0.3083871603012085,-0.25036364793777466,-0.3126688599586487,-0.3334946930408478,-0.3062310516834259,-0.012470826506614685,0.02308398112654686,-0.16912713646888733,-0.3221519887447357,-0.20058180391788483,-0.21388950943946838,-0.1691998690366745,0.08553706854581833,0.05678245425224304,0.07657968997955322,-0.11902008205652237,0.017092222347855568,-0.003095246385782957,0.06177270784974098,0.05569307506084442,0.09651415050029755,-0.16613316535949707,-0.04863453656435013,-0.020132672041654587,-0.017379140481352806,-0.023346196860074997,-0.03283350542187691,0.000050295377150177956,0.01692616194486618,0.04779180511832237,-0.058400046080350876,-0.034991148859262466,-0.004350290168076754,0.029329920187592506,-0.005751525983214378,-0.008501828648149967,0.07356999814510345,0.0845266729593277,0.12950897216796875,-0.009404484182596207,0.007035321090370417,-0.00472647650167346,-0.0937424972653389,-0.056043531745672226,-0.002308101858943701,0.026664886623620987,-0.11165722459554672,-0.2094378024339676,-0.05500207841396332,-0.03632013127207756,-0.07709049433469772,-0.10455433279275894,-0.0019261365523561835,0.10155940055847168,0.02377709373831749,-0.0677465870976448,-0.02688806690275669,-0.0766918957233429,-0.012880688533186913,0.04384901747107506,0.004446737468242645,-0.0026227831840515137,-0.01643000915646553,-0.04609939455986023,-0.00954190269112587,-0.3116317391395569,0.013560105115175247,0.026669157668948174,0.024986162781715393,-0.007327329833060503,0.11279990524053574,0.5484560132026672,-0.01789538562297821,0.002011456759646535,-0.014153347350656986,0.006953270640224218,-0.037333935499191284,0.228791281580925,0.06492248922586441,0.0005634591216221452,-0.0010090976720675826,0.02831105701625347,-0.03865138068795204,0.33048015832901,-0.0030230593401938677,-0.013932834379374981,0.01921817660331726,0.025183483958244324,-0.045516934245824814,-0.32484620809555054,0.047083448618650436,0.03713751956820488,0.03729252144694328,0.06597527116537094,0.12071198970079422,0.1801496297121048,-0.07214963436126709,-0.05068516731262207,-0.03804021701216698,-0.08473577350378036,-0.13129922747612,0.23631395399570465,0.02909199707210064,-0.03703267499804497,-0.06786129623651505,-0.06494279950857162,-0.10532058030366898,0.06772162020206451,-0.006142336409538984,-0.015524939633905888,-0.025105992332100868,-0.022744005545973778,0.018882321193814278,-0.044219519942998886,-0.02322991192340851,0.001523274346254766,0.1568446010351181,0.03858218342065811,-0.0007650302723050117,0.10231542587280273,0.057878587394952774,-0.020803283900022507,-0.13686110079288483,0.011140317656099796,-0.01800539158284664,0.0011913245543837547,0.02729218639433384,-0.06470421701669693,-0.0319690965116024,-0.0034320310223847628,-0.03351597860455513,-0.04050077497959137,-0.0324162021279335,-0.04745471104979515,0.1091778427362442,0.018755218014121056,0.006004180759191513,-0.04015803709626198,-0.01657036878168583,-0.019853156059980392,0.050953902304172516,0.13129986822605133,0.007668077014386654,0.17882433533668518,-0.1009228527545929,-0.12298823148012161,-0.09367698431015015,-0.03529578447341919,-0.09165243059396744,-0.1664830446243286,-0.039577629417181015,-0.048970986157655716,0.0734315738081932,-0.0104985311627388,-0.012268890626728535,-0.11792560666799545,-0.003969900775700808,0.001643578289076686,0.01694563776254654,0.07037198543548584,0.09398441016674042,0.14904598891735077,-0.024188201874494553,-0.03961232304573059,0.00672006793320179,0.03852353245019913,-0.01208249107003212,0.0015369028551504016,0.01725313626229763,0.053184088319540024,0.06579245626926422,0.06428700685501099,0.0944930762052536,0.04925749823451042,-0.09413686394691467,0.014694265089929104,-0.00618452113121748,-0.07564664632081985,-0.0883273184299469,-0.28512245416641235,-0.03412768989801407,0.007647971622645855,-0.04512329399585724,-0.14666838943958282,-0.07240857183933258,-0.0822475403547287,-0.11033324152231216,-0.11776018887758255,-0.032100241631269455,-0.05731356143951416,-0.23009423911571503,0.005761172156780958,0.10625728964805603,0.06973440200090408,0.05253789946436882,0.08655368536710739,0.2344331294298172,-0.1578168272972107,-0.01844765990972519,0.10089880973100662,0.02417273446917534,0.12482139468193054,0.1774148941040039,-0.0077526262030005455,-0.006415040232241154,-0.03769940510392189,-0.06238982081413269,0.00776686193421483,0.13285422325134277,-0.024625279009342194,0.05179257690906525,-0.0715620294213295,-0.09651648253202438,-0.04966022074222565,-0.0820242166519165,0.048300378024578094,-0.06454300135374069,-0.043081991374492645,-0.015361336059868336,0.06505212932825089,-0.020396823063492775,-0.02030082978308201,-0.049990661442279816,0.015320897102355957,0.01437980867922306,0.02174946665763855,-0.07149302959442139,-0.043234504759311676,-0.021984582766890526,0.0938495621085167,0.05104459822177887,-0.0410148911178112,-0.005445367190986872,0.010343065485358238,0.004844182636588812,-0.11842088401317596,-0.09335755556821823,0.04204234853386879,0.13683182001113892,-0.12845690548419952,0.06403861194849014,0.06340933591127396,-0.004787221550941467,-0.028299910947680473,-0.05347033590078354,0.024541731923818588,-0.04248235747218132,-0.04291469231247902,-0.04817087948322296,-0.055670883506536484,0.0076302820816636086,-0.006523547228425741,-0.018186073750257492,-0.020895404741168022,-0.014357225969433784,0.009863907471299171,0.052193425595760345,-0.3680252730846405,-0.03175811097025871,-0.01681862398982048,0.008390327915549278,0.006125009153038263,0.02537751942873001,0.14852948486804962,0.042371656745672226,-0.009112346917390823,0.005803884007036686,0.017546402290463448,0.04383059963583946,-0.01821793243288994,-0.015356342308223248,-0.01623435877263546,-0.047290485352277756,-0.02745124325156212,-0.029211213812232018,0.3237091302871704,-0.009303363971412182,-0.0015743413241580129,-0.031623475253582,-0.0040743183344602585,-0.06459543108940125,-0.26169365644454956,-0.01444335002452135,0.003641830524429679,-0.002897505648434162,-0.009172957390546799,-0.023817218840122223,-0.030417848378419876,-0.021146785467863083,-0.020995313301682472,-0.007162092719227076,-0.019346067681908607,-0.02142750844359398,-0.0012184691149741411,0.015891773626208305,0.009968682192265987,-0.005617931485176086,0.05271581932902336,0.04902902990579605,0.012203874997794628,0.017716066911816597,0.006350481417030096,0.017303256317973137,0.011151449754834175,0.0377405621111393,0.17860201001167297,0.024670161306858063,0.02183237113058567,0.02524278312921524,0.0327347107231617,0.025082247331738472,0.03233261778950691,-0.0009972155094146729,0.00032214110251516104,-0.00040411914233118296,-0.006863508373498917,0.02070552483201027,