{"version":"0.5.4","metadata":{"date":{"year":2026,"month":5,"day":20,"hour":21,"minute":9,"second":43},"loudness":-17.87843894958496,"gain":0.4336044728665134,"name":"[AMP] FRTN.EVL.PMPKN-Mar4x12-CLN Homecoming - BLEND #1","modeled_by":"2dor","gear_type":"amp","gear_make":"tz-make","gear_model":"tz-model","tone_type":"overdrive","input_level_dbu":18.995,"output_level_dbu":13.195,"training":{"settings":{"ignore_checks":true},"data":{"latency":{"manual":0,"calibration":{"algorithm_version":1,"delays":[1],"safety_factor":1,"recommended":0,"warnings":{"matches_lookahead":false,"disagreement_too_high":false,"not_detected":false}}},"checks":{"version":4,"passed":false}},"validation_esr":0.009261935108839204}},"architecture":"WaveNet","config":{"layers":[{"input_size":1,"condition_size":1,"head_size":8,"channels":16,"kernel_size":3,"dilations":[1,2,4,8,16,32,64,128,256,512],"activation":"Tanh","gated":false,"head_bias":false},{"input_size":16,"condition_size":1,"head_size":1,"channels":8,"kernel_size":3,"dilations":[1,2,4,8,16,32,64,128,256,512],"activation":"Tanh","gated":false,"head_bias":true}],"head":null,"head_scale":0.02},"weights":[-0.5317392945289612,1.2737759351730347,-1.1371281147003174,-1.3496863842010498,-0.9751195311546326,0.3293461501598358,-0.9068306684494019,0.8974778652191162,-0.4444617033004761,0.9837905168533325,-0.5679600834846497,-0.8942099809646606,-1.4386076927185059,-1.1496849060058594,-0.8815009593963623,0.8589847683906555,0.05111101269721985,0.01012320164591074,-0.14548374712467194,-0.0886983647942543,0.1102948933839798,0.14129860699176788,-0.007662374060600996,0.043747540563344955,-0.050806302577257156,0.03994249925017357,0.07074964791536331,-0.1572723090648651,-0.06739038228988647,-0.09669805318117142,-0.08145031332969666,0.12201762944459915,-0.019162504002451897,-0.024426840245723724,-0.08955316990613937,-0.19824232161045074,-0.12426097691059113,0.10283798724412918,0.12410968542098999,0.09384513646364212,0.014663985930383205,-0.13720586895942688,-0.013673318549990654,-0.149717316031456,-0.03882528841495514,-0.038165751844644547,0.09951671212911606,0.010216847062110901,-0.10615088790655136,0.012033568695187569,0.030883099883794785,0.11023105680942535,0.08305271714925766,-0.03887204825878143,0.07609071582555771,-0.05944548174738884,-0.03278319910168648,-0.13692715764045715,-0.079128697514534,-0.13302870094776154,0.04214754328131676,0.04598769173026085,-0.03926052525639534,0.0775110125541687,0.08062641322612762,0.2251892238855362,0.07114488631486893,0.017384789884090424,-0.1254960000514984,0.06572118401527405,-0.09310635924339294,0.1470351368188858,0.12827564775943756,0.13474933803081512,0.32806557416915894,0.1978359818458557,0.042162202298641205,0.08119048178195953,0.0836394876241684,-0.08805269747972488,-0.3218036890029907,0.07587149739265442,0.09766983240842819,0.08124946057796478,0.09247933328151703,-0.03863820433616638,-0.225417360663414,-0.13362926244735718,0.052687838673591614,0.11758043617010117,0.10676267743110657,0.059176839888095856,-0.10625699162483215,-0.015553850680589676,-0.13465616106987,0.09984175860881805,0.1296989470720291,0.035013001412153244,0.09292693436145782,-0.01944897137582302,0.15261733531951904,0.3039841651916504,0.009205294772982597,-0.01989465020596981,0.06859063357114792,0.0709773376584053,-0.09611585736274719,0.09440755099058151,0.05892433971166611,0.023875443264842033,-0.3211641013622284,0.029147358611226082,0.017585594207048416,-0.10758195072412491,-0.2664358913898468,-0.2482004016637802,0.13923567533493042,0.36882179975509644,0.14885446429252625,-0.12188749760389328,-0.298535019159317,0.1391521841287613,-0.22868649661540985,-0.2881876230239868,-0.007853701710700989,-0.25109684467315674,-0.391305148601532,-0.2163708209991455,0.09099122881889343,0.21818973124027252,0.1041632890701294,-0.16597990691661835,-0.4456387162208557,-0.1371798813343048,0.2617678642272949,0.3343287706375122,0.14445094764232635,-0.1780914068222046,-0.31139376759529114,-0.0381556935608387,0.30300459265708923,0.444750040769577,0.2747705578804016,-0.1598663479089737,-0.46967023611068726,0.06728265434503555,-0.0663655623793602,-0.3502713441848755,0.056517865508794785,-0.2732319235801697,-0.4901912808418274,0.007675718981772661,-0.19021035730838776,-0.2782205045223236,0.20672376453876495,-0.3058781325817108,-0.2605137526988983,-0.22850729525089264,0.2165060043334961,0.3084576725959778,0.24591484665870667,0.2060830146074295,0.001313955639488995,-0.3385680913925171,-0.23277980089187622,-0.10600972175598145,0.1350647658109665,0.25156763195991516,-0.031154850497841835,0.19491088390350342,0.3293428122997284,0.04531311243772507,0.33970317244529724,0.2560000419616699,-0.027282005175948143,-0.11280754953622818,-0.2057037204504013,-0.16246652603149414,0.3529917895793915,0.10434939712285995,0.13762131333351135,-0.23479576408863068,-0.09800777584314346,-0.05930909141898155,0.296204537153244,0.2580918073654175,0.0696248710155487,-0.2465285360813141,-0.3201499581336975,-0.02151009440422058,0.3122338056564331,0.29172608256340027,-0.008948421105742455,0.22104839980602264,0.09633103758096695,0.019871285185217857,0.12043429911136627,0.2531821131706238,0.01571466214954853,0.20254136621952057,0.20806555449962616,0.19591984152793884,0.10260555148124695,0.10806076228618622,0.01751585677266121,-0.16855081915855408,-0.277258038520813,0.018536198884248734,-0.20876659452915192,-0.7272387742996216,1.1562803983688354,0.2515355944633484,0.7703376412391663,-1.1490485668182373,-0.27961036562919617,-0.7325100302696228,0.9973532557487488,-0.3586978614330292,-0.6390047073364258,0.9929956197738647,-0.29348692297935486,-0.615628719329834,1.163552165031433,0.2927478551864624,0.6379024982452393,-1.0252925157546997,-0.3897659480571747,-0.8032835125923157,1.0970757007598877,0.25966528058052063,0.7546627521514893,-0.9819919466972351,-0.26746445894241333,-0.6410679817199707,1.2006542682647705,0.19130875170230865,0.8280556797981262,-1.218671441078186,-0.34712567925453186,-0.717623770236969,1.1515121459960938,-0.17886210978031158,-0.8128004670143127,1.1186926364898682,-0.2070637196302414,-0.8924258351325989,1.2100844383239746,-0.39914947748184204,-0.7502275109291077,1.0869276523590088,-0.35727980732917786,-0.7372292876243591,1.2283604145050049,0.21958819031715393,0.6686639189720154,-1.1988375186920166,0.18221630156040192,0.012472030706703663,-0.6458675265312195,-0.4380086064338684,-0.07596547156572342,0.6428574919700623,0.4185428321361542,0.11831483989953995,-0.4992067515850067,0.2970616817474365,-0.033369217067956924,-0.509463369846344,0.4641213119029999,0.04172591120004654,-0.6199070811271667,-0.4267480671405792,-0.1620190292596817,0.5589538812637329,0.27147457003593445,-0.1471332162618637,-0.4350903630256653,-0.43602868914604187,-0.024041995406150818,0.5847789645195007,0.35734179615974426,-0.08748998492956161,-0.6549128890037537,-0.23098041117191315,0.020091678947210312,0.673430860042572,0.3061596751213074,0.061543334275484085,-0.5741561651229858,0.3443986773490906,-0.07902809977531433,-0.4998377561569214,0.3873937726020813,0.00006937814760021865,-0.5821223258972168,0.2528158724308014,0.10285882651805878,-0.6599245071411133,0.40437430143356323,-0.04654606059193611,-0.6205165386199951,-0.3062756359577179,-0.026754114776849747,0.6103249788284302,-0.04573371633887291,-0.4469239413738251,-0.08565151691436768,0.11676870286464691,0.35040539503097534,0.11941110342741013,-0.16580583155155182,-0.29450613260269165,-0.08341751992702484,-0.10141203552484512,-0.22257257997989655,-0.03969863802194595,-0.12508265674114227,-0.28076210618019104,-0.07090535014867783,0.043231554329395294,0.2675040066242218,0.12723827362060547,-0.16913925111293793,-0.30540093779563904,-0.016400309279561043,0.17840003967285156,0.36122360825538635,0.14807750284671783,0.01819681003689766,-0.35484200716018677,-0.2303306609392166,-0.07040531188249588,0.42765817046165466,0.21620313823223114,-0.13674157857894897,-0.20579543709754944,-0.008432289585471153,0.0949474647641182,-0.15716859698295593,-0.010844617150723934,-0.08422541618347168,-0.33310943841934204,-0.01669151708483696,0.0307009220123291,-0.36594370007514954,-0.0055589377880096436,0.01768217608332634,-0.20692114531993866,-0.21728521585464478,0.13242611289024353,0.31232786178588867,0.2225467562675476,-0.45666345953941345,-0.41722792387008667,0.070350781083107,0.4572524130344391,0.3639355003833771,0.011631791479885578,-0.48139843344688416,-0.3607589602470398,-0.0283493809401989,-0.5322111248970032,-0.5175504684448242,0.1755312830209732,-0.31636375188827515,-0.2748256027698517,0.1763576865196228,0.2583916485309601,0.3023170232772827,-0.08300416171550751,-0.5037323236465454,-0.33192312717437744,-0.05172714591026306,0.31803661584854126,0.26473528146743774,-0.14258453249931335,-0.28805291652679443,-0.30444666743278503,0.1631140410900116,0.5098690986633301,0.5408591032028198,-0.10044507682323456,-0.31674474477767944,-0.2707383632659912,0.11235834658145905,-0.25428837537765503,-0.3356323838233948,0.1501474231481552,-0.4405401051044464,-0.3358558714389801,0.07649615406990051,-0.4215240478515625,-0.47966983914375305,-0.015213358215987682,-0.504073441028595,-0.3160727918148041,0.16415411233901978,0.411530077457428,0.3846140503883362,0.061210084706544876,-0.09139420092105865,-0.5095025300979614,0.06418390572071075,0.281541109085083,0.5189358592033386,-0.210546612739563,-0.0003216464538127184,-0.32951974868774414,0.05291331559419632,-0.060922060161828995,-0.5267597436904907,0.07923676073551178,-0.024416020140051842,-0.4470297694206238,0.0027504495810717344,0.07995700091123581,0.38771194219589233,-0.14580324292182922,-0.136910542845726,-0.3385412395000458,0.1361090987920761,0.0528511218726635,0.4522106349468231,-0.034325938671827316,-0.07346047461032867,-0.5802672505378723,0.09832928329706192,0.04325075447559357,0.39325112104415894,-0.05771001800894737,-0.2351721078157425,-0.38272422552108765,0.2340272217988968,-0.13544605672359467,-0.5486863851547241,0.058096230030059814,-0.1145305335521698,-0.5608428120613098,0.1701754331588745,-0.2722683846950531,-0.5813660621643066,-0.03569354489445686,-0.1750251054763794,-0.3564443290233612,-0.029326491057872772,0.30014169216156006,0.4697883725166321,-0.07348711043596268,-0.11960215121507645,-0.22337007522583008,0.24161089956760406,0.1994166523218155,0.2428739219903946,-0.003127344651147723,-0.2181963473558426,0.023683588951826096,0.07740731537342072,-0.05097850412130356,-0.21105004847049713,0.030446618795394897,-0.2608630359172821,-0.15052339434623718,0.1108250543475151,-0.005402181763201952,0.1299675703048706,-0.00716120982542634,-0.08520332723855972,-0.190273255109787,-0.015355922281742096,0.07401733845472336,0.15840411186218262,0.06790399551391602,-0.025461368262767792,-0.1010613739490509,0.15081702172756195,-0.019259817898273468,-0.02883385494351387,-0.0155973294749856,-0.19678685069084167,-0.019315963611006737,-0.01973857916891575,-0.18695026636123657,-0.20998916029930115,0.1597793847322464,-0.13578356802463531,0.012135588563978672,0.15964166820049286,-0.04081973433494568,-0.09266011416912079,0.027019118890166283,-0.15020842850208282,-0.07665245234966278,0.14905698597431183,0.029826361685991287,0.23550032079219818,-0.12834784388542175,-0.34410279989242554,0.38578158617019653,-0.15258190035820007,0.33676403760910034,-0.5858958959579468,0.37382274866104126,-0.13748347759246826,0.5229781270027161,-0.15847009420394897,-0.2850895822048187,0.48861971497535706,-0.2186357080936432,-0.24642261862754822,0.4993710219860077,-0.3138344883918762,0.312146931886673,-0.46764037013053894,0.23492613434791565,-0.1789647340774536,0.4998567998409271,-0.35846561193466187,0.22002147138118744,-0.35735413432121277,0.26107802987098694,-0.17520926892757416,0.40692198276519775,-0.23444446921348572,0.10223555564880371,-0.5371369123458862,0.201033815741539,-0.08360036462545395,0.39112111926078796,-0.2857282757759094,-0.27603739500045776,0.5986968278884888,-0.13096553087234497,-0.31096962094306946,0.33047163486480713,-0.3802330493927002,-0.20621301233768463,0.4079759120941162,-0.36937811970710754,-0.2586842179298401,0.47421008348464966,-0.3496056795120239,0.24823880195617676,-0.5143893361091614,0.18330679833889008,-0.31081289052963257,0.4217447340488434,0.21821017563343048,0.308982253074646,-0.3188522458076477,-0.1834629476070404,-0.4358495771884918,0.1142464131116867,0.46185681223869324,-0.39372920989990234,0.2809753119945526,0.30716487765312195,-0.3364492952823639,0.2261919379234314,0.4104902744293213,0.33019229769706726,-0.37721940875053406,-0.381874680519104,-0.3874998390674591,0.36096057295799255,0.21547207236289978,0.43793395161628723,-0.28397056460380554,-0.3401400148868561,-0.2103499323129654,0.32573607563972473,0.4269685745239258,0.39122530817985535,-0.304439514875412,-0.4158802330493927,-0.32239243388175964,0.36579644680023193,0.25734636187553406,-0.45212531089782715,0.31871938705444336,0.4548168182373047,-0.34077581763267517,0.13765794038772583,0.18991121649742126,-0.26516473293304443,0.24568580090999603,0.2487659901380539,-0.276597797870636,0.3133470118045807,0.4318433105945587,0.43053314089775085,-0.3316393196582794,-0.46758681535720825,-0.15652340650558472,0.10214897245168686,-0.0004509652790147811,0.06345723569393158,-0.11238733679056168,0.15648451447486877,0.13851520419120789,0.11870265007019043,-0.14546547830104828,-0.05366099998354912,-0.11076286435127258,0.11518647521734238,-0.06463223695755005,-0.08235210925340652,0.04689069092273712,-0.049626424908638,-0.04148951172828674,0.03131941333413124,-0.02450384944677353,-0.13257698714733124,0.08529568463563919,-0.061830755323171616,0.06441407650709152,0.14983844757080078,0.05367806553840637,-0.011109472252428532,0.07670547068119049,0.0228238794952631,-0.04924022778868675,0.16821466386318207,0.025300895795226097,-0.16214966773986816,-0.08002293854951859,-0.10698921978473663,0.10375659167766571,-0.05804052576422691,-0.1307278573513031,-0.019299782812595367,0.07064685225486755,0.039655208587646484,0.03471379727125168,-0.00812996830791235,0.049405537545681,-0.05093873292207718,-0.08466346561908722,-0.09021743386983871,-0.05991639569401741,0.12032349407672882,-0.21072305738925934,0.4276215732097626,0.19263926148414612,0.16547848284244537,-0.43211105465888977,-0.010976221412420273,-0.24362052977085114,0.43798622488975525,0.02811160683631897,-0.19599145650863647,0.40019693970680237,0.08487090468406677,-0.03903074562549591,0.2299002707004547,0.021880123764276505,0.11373523622751236,-0.2797718942165375,0.00901248399168253,-0.2252105325460434,0.4024908244609833,0.1005491241812706,0.12898795306682587,-0.21515847742557526,-0.2518445551395416,-0.15374812483787537,0.461982399225235,0.1074964851140976,0.26969853043556213,-0.37659621238708496,-0.025653181597590446,-0.30839094519615173,0.2923571467399597,0.1050395742058754,-0.11864414811134338,0.3837644159793854,0.24789917469024658,-0.1789953112602234,0.32079726457595825,0.24425601959228516,-0.1985348016023636,0.4505968689918518,0.04977913573384285,-0.17397843301296234,0.32021787762641907,0.20325104892253876,0.2429506629705429,-0.4318917393684387,-0.26867204904556274,-0.13872383534908295,0.05009927228093147,0.06281903386116028,0.09270752966403961,0.07862994819879532,0.13751599192619324,-0.16546210646629333,-0.12506413459777832,0.10117115080356598,-0.284018337726593,0.04634289816021919,0.018938641995191574,-0.2447965294122696,0.06758399307727814,-0.12363337725400925,0.20178139209747314,-0.113543301820755,-0.02206345647573471,-0.17765261232852936,0.1503884196281433,-0.08064550906419754,0.26885443925857544,-0.031099455431103706,-0.06966648250818253,-0.30161237716674805,-0.10321526229381561,0.1448100209236145,0.1471194475889206,-0.010287811979651451,0.038162920624017715,-0.07705185562372208,0.13592302799224854,0.12226089835166931,-0.28866785764694214,-0.0013383100740611553,-0.08301809430122375,-0.2603399455547333,0.04612872004508972,0.13369853794574738,-0.29196247458457947,0.10256552696228027,-0.0748547613620758,-0.20753787457942963,0.13047859072685242,-0.029798239469528198,0.2165248990058899,-0.1304243803024292,0.11305101960897446,0.6937628984451294,0.6679182648658752,-0.5926479697227478,-0.7953903079032898,-0.8721116781234741,0.6278712153434753,0.7986941933631897,0.7115256190299988,-0.5491511821746826,0.8144972920417786,0.8527721166610718,-0.6917883157730103,0.6797618269920349,0.7153293490409851,-0.7318059802055359,-0.7012007236480713,-0.6603382229804993,0.7160305976867676,0.7328504920005798,0.8179164528846741,-0.6920340657234192,-0.5772525072097778,-0.8151645064353943,0.5095266103744507,0.7313107252120972,0.8631904721260071,-0.7445394396781921,-0.5691896080970764,-0.7156480550765991,0.5186553597450256,0.6622483134269714,0.8902594447135925,-0.7173575162887573,0.6641677021980286,0.8193871378898621,-0.7378324866294861,0.7660966515541077,0.8298439383506775,-0.5249260067939758,0.5964822769165039,0.8966500163078308,-0.7029755115509033,0.8365985751152039,0.6253882646560669,-0.7444702386856079,-0.6098051071166992,-0.7587910890579224,0.6377375721931458,-0.009336159564554691,-0.003014091867953539,-0.01652362383902073,-0.008756548166275024,0.06949207186698914,-0.03898608684539795,0.002717634430155158,0.0016240181867033243,-0.010079211555421352,0.004732314497232437,-0.006006577052175999,0.01804986223578453,-0.004939392674714327,-0.003322104224935174,0.0032226452603936195,-0.020030105486512184,0.4652261734008789,-0.504924476146698,1.1546052694320679,-0.8030555248260498,-1.1002501249313354,1.4490658044815063,1.133857250213623,-0.6427111625671387,0.08194582164287567,0.05353234335780144,-0.19616983830928802,-0.6691887378692627,0.28519323468208313,-0.8449954390525818,0.1681574583053589,1.0481361150741577,-0.06547956168651581,0.35623472929000854,-0.3692505657672882,0.23261956870555878,0.18944349884986877,-0.4158294200897217,-0.07004206627607346,0.22774703800678253,0.2295701801776886,-0.18144550919532776,-0.07389591634273529,0.2583930194377899,0.1991092562675476,0.24592651426792145,-0.4315216839313507,-0.2716723680496216,0.023724284023046494,-0.2895650565624237,-0.1170772910118103,-0.011048964224755764,0.0014330834383144975,0.006386543624103069,-0.27714601159095764,-0.17009149491786957,0.005450588651001453,0.658699095249176,-0.18972480297088623,0.04964116960763931,0.0007052706205286086,-0.0012220187345519662,-0.0077980635687708855,0.09865088015794754,0.42014721035957336,0.30958935618400574,0.015087475068867207,0.13498064875602722,0.0058738007210195065,0.002560398541390896,-0.01866910047829151,-0.09371243417263031,-0.053303301334381104,-0.3123500943183899,-0.043514594435691833,0.041644543409347534,0.7130747437477112,0.0667615532875061,-0.23602451384067535,0.0027748127467930317,0.24445226788520813,-0.015554361045360565,-0.04364747926592827,-0.19699877500534058,0.12857885658740997,-0.12621815502643585,0.05365951359272003,0.09053586423397064,-0.10265017300844193,-0.48686206340789795,0.12338465452194214,0.2723972797393799,0.23611873388290405,0.07894867658615112,0.16519545018672943,-0.16318966448307037,0.16747534275054932,-0.3314354121685028,-0.03484422340989113,0.20794609189033508,-0.08496329188346863,0.005465545225888491,-0.007351365871727467,-0.0010794353438541293,0.12340446561574936,0.18577298521995544,-0.0255128126591444,-0.018654409795999527,0.284585565328598,-0.012853235006332397,-0.03181595355272293,0.08865056931972504,-0.23931339383125305,0.03261227905750275,0.21647880971431732,-0.003901552641764283,-0.12541639804840088,0.19204886257648468,0.3179800808429718,0.006523511838167906,0.01168238464742899,-0.1492447853088379,0.07796003669500351,-0.18330560624599457,-0.18491661548614502,-0.1900145262479782,0.19119101762771606,0.08546261489391327,0.5563970804214478,-0.015884513035416603,-0.0008667901274748147,-0.12515829503536224,0.0695824921131134,-0.14389348030090332,0.211539164185524,0.12371273338794708,-0.008673991076648235,-0.460832417011261,-0.11611314862966537,0.20975270867347717,0.2853553593158722,-0.16871553659439087,0.07260902971029282,-0.08070492744445801,-0.07443150877952576,0.028772719204425812,0.13887588679790497,-0.07491306960582733,-0.36998963356018066,0.25469303131103516,0.2494862824678421,-0.043368782848119736,-0.12329864501953125,0.04007815569639206,0.0751507431268692,-0.2094804048538208,-0.1724638044834137,-0.12550151348114014,0.09558024257421494,0.25681981444358826,0.06028115749359131,-0.001434162026271224,-0.07297533005475998,-0.0637606754899025,0.1291205883026123,-0.06829779595136642,-0.2806529998779297,-0.09945191442966461,-0.33476242423057556,-0.4395461082458496,0.18304608762264252,0.11734175682067871,0.1771072894334793,0.23660029470920563,-0.01784391701221466,-0.10322915017604828,-0.6032261848449707,0.3917904496192932,-0.03573506325483322,-0.1444411426782608,-0.11215357482433319,0.06638918071985245,0.18799060583114624,0.05671820417046547,0.004867924842983484,0.13482442498207092,0.09351859986782074,0.0019865098875015974,-0.03276355192065239,0.08152348548173904,0.03656857833266258,0.10362236201763153,0.25213977694511414,0.28049033880233765,-0.0742601677775383,0.2383781522512436,-0.07978333532810211,0.005008596461266279,-0.09990530461072922,0.17534059286117554,0.06440161168575287,-0.14744475483894348,0.0956915020942688,-0.05902228131890297,0.5206690430641174,0.2633385956287384,-0.28588613867759705,0.0019804269541054964,0.270385205745697,-0.13705706596374512,0.00195526285097003,0.3547805845737457,0.3072216212749481,-0.08668635785579681,-0.12675639986991882,-0.06020085886120796,0.19635078310966492,-0.09166686236858368,-0.2915773391723633,-0.15979887545108795,0.46913737058639526,-0.11822454631328583,-0.121724434196949,-0.2646670639514923,0.07784608751535416,0.14703817665576935,-0.3143467307090759,0.14069150388240814,0.3809798061847687,-0.4256138503551483,0.0619206503033638,0.282332181930542,0.4062211811542511,-0.000015241713299474213,-0.38346052169799805,0.15438583493232727,0.20266351103782654,0.02824891172349453,-0.28413307666778564,-0.3491201102733612,0.2039956897497177,-0.34802788496017456,0.04973746836185455,0.012931864708662033,-0.2708078920841217,0.2746320962905884,0.1113625019788742,-0.19234894216060638,-0.008644677698612213,0.26245173811912537,-0.30186575651168823,-0.17364215850830078,0.13520179688930511,-0.22951829433441162,-0.46085524559020996,0.3374970853328705,0.0053321304731070995,0.16456907987594604,-0.003838613163679838,-0.11375748366117477,-0.011792228557169437,0.04718393087387085,-0.03530275076627731,0.04730478674173355,-0.16051016747951508,-0.2641834616661072,0.19259855151176453,-0.03111562319099903,0.4885530471801758,0.1710752695798874,-0.16834913194179535,-0.08609461039304733,0.21405677497386932,0.07533945143222809,0.15889017283916473,-0.10406547784805298,-0.1578332781791687,0.14132146537303925,0.2970399558544159,0.020041966810822487,0.003257050411775708,0.10049020498991013,0.12617306411266327,-0.14500544965267181,-0.15634925663471222,-0.08120281994342804,-0.05663011223077774,0.1614852249622345,0.09013274312019348,0.043488360941410065,0.04767974093556404,-0.017984576523303986,0.015010758303105831,-0.0689716711640358,0.10579153150320053,-0.13425399363040924,0.1569545418024063,0.003429062431678176,0.10864991694688797,0.0030904936138540506,-0.023024657741189003,0.08640149235725403,0.04890179634094238,-0.06851854175329208,-0.10647643357515335,0.27622437477111816,0.016265150159597397,-0.09848544746637344,0.2012033462524414,0.4068109691143036,-0.23798204958438873,0.14573349058628082,0.034517817199230194,0.2135273963212967,0.2365615963935852,-0.21004322171211243,-0.32996872067451477,-0.28834637999534607,0.13265658915042877,0.22315748035907745,-0.41494980454444885,0.05354257673025131,0.13818040490150452,-0.252722829580307,-0.26419001817703247,0.07999403774738312,-0.41066282987594604,-0.22146037220954895,-0.2440439760684967,0.3001154959201813,-0.10785409063100815,0.013130721636116505,-0.057438287883996964,-0.10686253011226654,-0.22645694017410278,0.29980283975601196,0.08240631967782974,0.18381157517433167,0.21162965893745422,-0.11110074818134308,0.17424847185611725,0.05700322985649109,-0.2206697314977646,-0.33557283878326416,-0.9274231791496277,-0.3162373900413513,-0.2508164346218109,0.22473585605621338,0.031870290637016296,0.36363181471824646,-0.3653418719768524,-0.2415793389081955,0.037548720836639404,-0.09181419014930725,0.09884491562843323,0.31107839941978455,0.08142447471618652,0.8272587060928345,0.08874492347240448,-0.24356675148010254,0.0709988996386528,0.12894804775714874,0.1985567957162857,-0.1683851182460785,-0.17399106919765472,-0.10096416622400284,0.42393332719802856,-0.2516626715660095,0.039873018860816956,-0.03839747980237007,0.09122300148010254,-0.039854343980550766,-0.10869806259870529,0.07363930344581604,0.13929297029972076,0.03506173565983772,-0.08679308742284775,-0.2561463415622711,-0.07341638207435608,-0.056855037808418274,-0.31779158115386963,-0.4088347256183624,0.06966430693864822,-0.12913085520267487,-0.01708584651350975,-0.011662892997264862,0.07614821195602417,-0.452168345451355,-0.11489266902208328,0.06502261012792587,0.005066979676485062,0.06570134311914444,-0.18421126902103424,0.19091986119747162,0.03451774641871452,-0.2526682913303375,-0.23531551659107208,-0.1566568911075592,0.23064114153385162,-0.1594211459159851,0.36955907940864563,-0.4101807177066803,-0.19537584483623505,0.4318421483039856,0.5187799334526062,-0.3855416476726532,0.3256275951862335,0.1364162415266037,-0.12417708337306976,-0.18999698758125305,-0.023446017876267433,0.11368854343891144,0.03135952726006508,0.04766431823372841,-0.47763001918792725,-0.3627309501171112,0.14310221374034882,0.3068412244319916,-0.16009077429771423,-0.254362553358078,0.24793988466262817,-0.4376523494720459,0.13417167961597443,0.32579413056373596,0.28386878967285156,-0.1421121209859848,-0.2515156865119934,-0.5365058779716492,0.12119975686073303,0.08179410547018051,0.21623772382736206,-0.2586243748664856,-0.12565752863883972,1.7389087677001953,-0.3382641673088074,-0.4674715995788574,0.18046285212039948,-0.643362820148468,-0.00997225008904934,-0.29642748832702637,0.8344327807426453,-0.4115440249443054,0.25763434171676636,0.0328853540122509,-0.1464444398880005,-0.5416160225868225,0.287813663482666,0.4767893850803375,-0.13647252321243286,-0.20652656257152557,0.16423028707504272,-0.23494093120098114,-0.2512223422527313,0.14795073866844177,-0.19387370347976685,-0.16114671528339386,-0.393759548664093,0.08645263314247131,-0.11121141910552979,-0.13691842555999756,0.7398287057876587,-0.8321269154548645,0.2574889063835144,0.2767528295516968,0.4449256658554077,-0.0797562524676323,0.1772330105304718,0.19714556634426117,0.009219571948051453,-0.1799064576625824,0.2060747593641281,-0.220838725566864,-0.016327738761901855,-0.2820947468280792,0.11079190671443939,0.10185844451189041,-0.15897908806800842,0.057444192469120026,-0.3023284375667572,-0.3531213104724884,-0.06490563601255417,0.1481555700302124,0.5055873990058899,0.3422372043132782,0.2322007566690445,0.061463192105293274,0.2915443181991577,0.3885363042354584,-0.15030494332313538,-0.165443554520607,-0.1776900589466095,-0.09738270938396454,0.2516283094882965,-0.05858314037322998,0.2468329668045044,-0.03813258185982704,0.22080761194229126,-0.1253432184457779,-0.027643484994769096,0.2455487698316574,0.005818662699311972,-0.4661952555179596,0.3502298891544342,0.11602066457271576,-0.3498395085334778,-0.01784493401646614,0.2837802469730377,-0.06462150812149048,-0.09448355436325073,-0.3281516134738922,-0.44898951053619385,-0.45684096217155457,0.12057975679636002,0.1744634062051773,-0.1318242996931076,-0.08404174447059631,0.44291213154792786,-0.28317809104919434,0.12500470876693726,0.26400741934776306,0.40286481380462646,0.09999935328960419,-0.38428640365600586,-0.34065672755241394,-0.01836695708334446,0.010042229667305946,0.4269710183143616,-0.13900941610336304,-0.28014442324638367,-0.3417496681213379,-0.6259951591491699,0.8635513782501221,-0.4073024094104767,-0.5168936848640442,0.8659407496452332,-0.06519833207130432,-0.02433905005455017,0.312570720911026,0.3110352158546448,-0.07558487355709076,-0.37689849734306335,-0.24303624033927917,0.1056748628616333,0.1918545812368393,-0.28951647877693176,0.14725515246391296,-0.09073429554700851,0.00007664579607080668,0.019995907321572304,0.3303658962249756,-0.2343023121356964,0.025098448619246483,0.04893722012639046,0.3736794590950012,0.5983468294143677,-0.5615509152412415,-0.373199999332428,-0.3025282025337219,0.01836848072707653,0.2759990990161896,-0.2239370197057724,-0.03468699008226395,0.18019799888134003,-0.1418241262435913,-0.22958162426948547,0.30161407589912415,-0.34900549054145813,0.15924480557441711,-0.0014043605187907815,0.2905215620994568,-0.03292024880647659,0.3687278926372528,-0.15036912262439728,-0.024879498407244682,-0.09241191297769547,0.2455727905035019,0.11892285197973251,-0.8543382883071899,0.30665215849876404,0.7282307744026184,-0.19926421344280243,0.4039856791496277,0.08975406736135483,-0.15321114659309387,-0.9924888014793396,0.08099810034036636,-0.23859451711177826,0.2929588854312897,-0.12508012354373932,0.2148631066083908,-0.23698586225509644,-0.04043950140476227,0.2176317721605301,-0.1913488209247589,0.07426385581493378,0.12872625887393951,0.35057565569877625,-0.18272636830806732,-0.047892890870571136,0.07389113306999207,0.006593215279281139,0.6357665061950684,0.20622208714485168,0.28680121898651123,-0.24171502888202667,0.3173014521598816,0.17407353222370148,-0.04990745708346367,0.05735768377780914,0.09520355612039566,0.1791684776544571,-0.099479079246521,0.2027060091495514,-0.23219293355941772,0.1975795030593872,-0.12605205178260803,0.04024382680654526,-0.06162245199084282,-0.21107511222362518,0.022039156407117844,0.14933925867080688,-0.06541390717029572,0.1531926989555359,-0.07046198844909668,0.04083649441599846,-0.2271251231431961,-0.7664254307746887,0.028137370944023132,0.7664884328842163,-0.7729778289794922,0.812116265296936,-0.8724154829978943,0.2138749212026596,-0.308694064617157,-0.15414059162139893,-0.013934312388300896,-0.07907801121473312,-0.1815374344587326,0.027078870683908463,-0.004805331118404865,-0.19172565639019012,-0.12277884036302567,0.366767019033432,-0.11895012110471725,0.025253789499402046,0.16827653348445892,-0.20512135326862335,-0.12015211582183838,0.29434269666671753,0.16112568974494934,0.12665507197380066,0.05611051991581917,0.4378342926502228,-0.5131973624229431,-0.28893524408340454,0.17498162388801575,0.04699544981122017,-0.3208794593811035,0.026141691952943802,0.07869399338960648,-0.16819867491722107,0.0297489482909441,0.01650243066251278,-0.38278383016586304,-0.10132258385419846,-0.283352792263031,0.3858548700809479,0.14074760675430298,0.13371935486793518,-0.2904321551322937,-0.09261095523834229,-0.4234762489795685,0.12285100668668747,0.257954478263855,-0.23079068958759308,0.43185004591941833,0.05599217116832733,-0.08629590272903442,-0.0489930734038353,-0.35064896941185,-0.007204829715192318,-0.46111273765563965,-0.11111248284578323,-0.19491545855998993,0.2888490855693817,-0.03613785281777382,0.12796950340270996,-0.25567346811294556,0.17675986886024475,0.15547841787338257,-0.24538429081439972,-0.1269465982913971,-0.3740619719028473,-0.11901446431875229,0.06111203506588936,0.11600175499916077,0.20903973281383514,-0.24360254406929016,0.06969781219959259,-0.11676246672868729,-0.20638540387153625,-0.14436720311641693,-0.22879666090011597,-0.03474469482898712,0.03826314955949783,0.12397709488868713,0.06619113683700562,0.046186987310647964,-0.10016750544309616,-0.1384570598602295,-0.06983606517314911,0.19386188685894012,0.060845740139484406,-0.09632423520088196,0.16029159724712372,0.18110020458698273,0.30308103561401367,-0.1332208812236786,0.08899451047182083,0.044727180153131485,-0.198600634932518,-0.39603671431541443,-0.3122110068798065,0.42774727940559387,-0.17302198708057404,0.27098068594932556,-0.314886212348938,-0.19773711264133453,0.09097404032945633,-0.027269555255770683,0.014420108869671822,-0.04116657376289368,-0.01676352135837078,-0.0036906679160892963,-0.06421105563640594,-0.050030022859573364,0.28470468521118164,0.0022837871219962835,0.1623871624469757,0.23262086510658264,0.18748503923416138,0.07957416772842407,-0.15584956109523773,-0.20460014045238495,-0.05793425440788269,0.2165389209985733,0.16939610242843628,0.19537313282489777,-0.2834325432777405,0.02612946555018425,-0.23228256404399872,-0.23652079701423645,0.07045402377843857,-0.060751721262931824,0.10166072845458984,0.24975118041038513,0.21888503432273865,-0.31348690390586853,0.025209438055753708,-0.05037950724363327,0.05667220801115036,0.02503553405404091,0.12108755856752396,-0.03691042214632034,0.08283083140850067,0.025635991245508194,-0.170566126704216,-0.2790488600730896,0.15018126368522644,0.3535127341747284,-0.04642743989825249,0.30537790060043335,0.19581831991672516,0.44564804434776306,0.27397873997688293,-0.39126524329185486,0.23897458612918854,-0.3541697561740875,-0.057211652398109436,-0.297567754983902,0.23198631405830383,-0.14784090220928192,0.05581682175397873,-0.13861151039600372,-0.08544044196605682,-0.08567193895578384,-0.18720294535160065,-0.20860931277275085,-0.325544536113739,-0.07740563899278641,-0.027425674721598625,0.2474142163991928,0.07090681791305542,-0.5272986888885498,0.2668797969818115,-0.014454185031354427,-0.2656474709510803,-0.11101903766393661,-0.1231018528342247,0.06300003826618195,-0.0961286649107933,0.05048647150397301,-0.06489481031894684,0.03929630666971207,0.28853437304496765,0.12063996493816376,0.1432049572467804,0.2426450401544571,-0.04095378890633583,0.1354081779718399,0.07493481040000916,0.09965598583221436,-0.14009806513786316,0.02919710800051689,0.19670261442661285,0.17148970067501068,0.0867561548948288,0.7078809142112732,-0.037371084094047546,-0.3223675787448883,0.18307924270629883,-0.4719245135784149,0.07404650747776031,0.2679247260093689,-0.00120812957175076,0.12252089381217957,0.12777507305145264,0.17886175215244293,-0.0739903673529625,0.0909067913889885,-0.13071590662002563,0.12191751599311829,0.3618813455104828,-0.03921214118599892,-0.5317795276641846,0.34243980050086975,0.2609627842903137,-0.6505287885665894,0.13385343551635742,0.2881545126438141,-0.07803888618946075,-0.22016824781894684,-0.2012004405260086,0.19545131921768188,0.10241609811782837,-0.022054806351661682,-0.23158399760723114,-0.35750606656074524,-0.10649380087852478,0.2560727596282959,-0.18991471827030182,-0.2303961217403412,0.29907286167144775,-0.12071815878152847,0.0704268366098404,0.3432721197605133,0.3422127068042755,-0.01987047679722309,-0.4179587662220001,-0.16605161130428314,-0.01487933099269867,0.15402913093566895,0.2571589946746826,0.27400991320610046,-0.29890310764312744,-0.2905079424381256,0.8852903842926025,0.8975130319595337,0.26246920228004456,-0.4853113293647766,-0.05087583512067795,0.42478832602500916,-0.09034143388271332,-0.11720190197229385,0.29692956805229187,0.17305484414100647,-0.32965022325515747,-0.3164368271827698,0.027293626219034195,0.478248655796051,-0.04176490008831024,0.14218489825725555,-0.0246070958673954,-0.35789093375205994,0.0008179766591638327,-0.17060790956020355,-0.1666109263896942,0.11177339404821396,-0.10054797679185867,0.011601878330111504,0.09452686458826065,-0.24393883347511292,-0.19666075706481934,0.04327310249209404,0.10828052461147308,0.1574508100748062,-0.16218748688697815,0.11684057861566544,0.10302412509918213,-0.2597498893737793,-0.17805466055870056,0.0728880912065506,-0.11258476972579956,0.07465028762817383,-0.24137155711650848,0.17770101130008698,0.15932440757751465,0.2972260117530823,0.007138166576623917,-0.08757860213518143,-0.016889091581106186,0.18939442932605743,0.035339854657649994,0.05870163440704346,0.022417157888412476,-0.12711748480796814,0.2394046187400818,-0.2525261640548706,-0.26311028003692627,-0.07523690164089203,-0.06443628668785095,-0.01776074804365635,-0.007382853422313929,-0.03731099143624306,-0.024705316871404648,0.19419361650943756,-0.0333089716732502,-0.09170956164598465,-0.023551760241389275,0.06600974500179291,0.15985526144504547,0.9407505393028259,1.307845950126648,1.1688401699066162,0.1258174479007721,0.24234096705913544,0.33436283469200134,-0.45435988903045654,-0.9443690776824951,-0.3206828832626343,-0.31456059217453003,0.4679001569747925,0.16149304807186127,-0.30424726009368896,-0.37375640869140625,-0.4612385630607605,0.35883277654647827,0.17803488671779633,0.4294608235359192,-0.2554778754711151,-0.6843891739845276,-0.35320407152175903,0.35182899236679077,0.30067381262779236,0.4532800614833832,-0.09136553108692169,-0.3426443636417389,-0.30749309062957764,0.23455122113227844,0.4667753577232361,0.2500373125076294,-0.05123899132013321,-0.056549739092588425,0.2345043271780014,-0.09851163625717163,-0.35877951979637146,-0.2618417739868164,0.4118305444717407,0.36812132596969604,0.25005510449409485,0.37740084528923035,0.28459909558296204,0.29661139845848083,-0.2390592396259308,-0.39068838953971863,-0.022062912583351135,-0.011843050830066204,-0.24451974034309387,-0.12064525485038757,0.032243430614471436,0.8514037132263184,0.07332496345043182,0.04518556967377663,0.08800874650478363,0.08947236835956573,-0.1675635278224945,-0.1571536809206009,0.02664153091609478,0.27506107091903687,-0.06358041614294052,-0.10726083070039749,0.09010548144578934,0.07804317772388458,-0.036827776581048965,-0.05081980675458908,0.11590790003538132,0.002127428539097309,0.07926180213689804,0.17473725974559784,-0.05223933607339859,-0.06813327968120575,-0.27686142921447754,0.033844709396362305,-0.32763856649398804,-0.051663272082805634,0.22343172132968903,0.09298025816679001,0.008646227419376373,0.3628767132759094,0.5560898184776306,0.5936304330825806,-0.5803281664848328,-0.018840143457055092,0.05234827473759651,0.02321230061352253,-0.07307042181491852,0.45334145426750183,-0.002867364091798663,-0.16935059428215027,-0.015909064561128616,0.06891462206840515,0.14252927899360657,0.04739737883210182,-0.006286487448960543,-0.45702263712882996,0.1528543084859848,0.24263907968997955,-0.39135727286338806,-0.21378202736377716,0.3413065969944,-0.10081864148378372,-0.1498253494501114,0.23775947093963623,0.16450636088848114,0.1407308429479599,-0.13580091297626495,-0.039136674255132675,-0.4472558796405792,0.32021209597587585,0.20863233506679535,0.006139084696769714,-0.2812683582305908,0.10632803291082382,0.38700586557388306,-0.38097724318504333,0.3341253101825714,-0.14140017330646515,-0.4307210445404053,-0.2828772962093353,-0.12093894928693771,0.3043602705001831,0.037521496415138245,-0.06389916688203812,-0.10247302800416946,-0.2849564254283905,-0.03375976160168648,0.0662461370229721,-0.8906106352806091,0.17511509358882904,0.2645273506641388,-0.5840117931365967,0.34316492080688477,0.21640755236148834,0.08890394866466522,-0.16121259331703186,0.22715717554092407,-0.17521153390407562,-0.2608318328857422,0.2679387629032135,0.3161523640155792,0.12822268903255463,-0.3059038519859314,0.01488723699003458,0.06498351693153381,0.026206109672784805,0.17436181008815765,0.013711364008486271,0.08047229051589966,0.054751086980104446,0.04359947890043259,0.01660206727683544,-0.06413937360048294,-0.04053216055035591,0.04059195891022682,0.04359995946288109,0.8852965235710144,-0.004095884505659342,0.04944786801934242,-0.48098284006118774,0.22468321025371552,0.5494685769081116,-0.9246724247932434,0.1919102519750595,-0.7493841052055359,-0.3674207925796509,-0.503868579864502,0.9520115256309509,-0.2372717261314392,-0.560419499874115,-0.4480047821998596,0.06194273382425308,0.22332094609737396,0.020442252978682518,-1.117856502532959,-0.2009442150592804,0.05627071112394333,0.18267038464546204,0.34548988938331604,0.1689998209476471,-0.06665799766778946,-0.09954092651605606,-0.13766264915466309,0.0991426557302475,-0.25002118945121765,0.2415211945772171,0.37567469477653503,-0.10895510762929916,0.008822414092719555,-0.13060258328914642,-0.15327224135398865,0.11025317758321762,-0.4768257141113281,-0.11479325592517853,0.07138870656490326,-0.14921879768371582,0.08017987757921219,-0.057033248245716095,-0.22879578173160553,0.20535854995250702,-0.01810770481824875,0.05492503196001053,-0.017129594460129738,0.18739819526672363,-0.1653013527393341,0.023834669962525368,0.10966765880584717,-0.02603112906217575,-0.06963510066270828,-0.1980162113904953,0.1000823825597763,-0.11351790279150009,0.13660722970962524,-0.09551175683736801,0.15586917102336884,0.08593466132879257,0.07617577910423279,-0.11590859293937683,-0.26114898920059204,0.2401238977909088,0.17682310938835144,0.11418493837118149,0.20445288717746735,0.02942960523068905,0.41653677821159363,-0.22093750536441803,-0.10361398756504059,-0.0784168615937233,0.17083238065242767,-0.195672407746315,-0.39444422721862793,0.02732149139046669,-0.15571969747543335,-0.13687776029109955,-0.13476230204105377,-0.018718738108873367,-0.18868233263492584,-0.09594633430242538,0.20332656800746918,0.034452248364686966,-0.09213148802518845,-0.06369420886039734,-0.07066261768341064,0.11826577037572861,0.09873343259096146,-0.10583201795816422,-0.08502574265003204,0.08605486899614334,0.020449692383408546,-0.012134408578276634,0.1226874515414238,-0.2889845073223114,-0.05992458760738373,-0.20947787165641785,0.057144422084093094,-0.06729193031787872,0.050074439495801926,-0.021640434861183167,0.050043463706970215,0.05487605929374695,-0.0060564735904335976,0.08450677990913391,0.15536604821681976,0.003979867789894342,0.14012788236141205,-0.04743192717432976,0.06308440864086151,-0.2041528820991516,-0.03253648802638054,0.05629764124751091,0.0207520704716444,0.23396535217761993,0.21554778516292572,-0.11976219713687897,-0.2916141748428345,-0.0698525682091713,0.20528382062911987,-0.20382767915725708,-0.583892285823822,0.18505167961120605,-0.19959188997745514,-0.12926509976387024,0.13006390631198883,0.29430827498435974,-0.13945220410823822,-0.27727624773979187,0.0786929503083229,-0.038411371409893036,0.13144920766353607,0.06198650598526001,0.07981547713279724,0.32190871238708496,0.13168470561504364,-0.016882017254829407,-0.0008710732217878103,0.2949671745300293,0.33494827151298523,-0.6435954570770264,0.5099186301231384,-0.5707331299781799,0.17777951061725616,-0.21419864892959595,-0.029128367081284523,0.0253787599503994,0.4765473008155823,0.05313628539443016,-0.217808336019516,-0.01711198315024376,-0.008634447120130062,0.06960010528564453,0.023595072329044342,0.010472118854522705,0.09644105285406113,-0.31093543767929077,-0.07186014950275421,0.12422855198383331,-0.11157261580228806,-0.0967664122581482,-0.013793370686471462,-0.17666378617286682,-0.14760945737361908,0.2649877667427063,0.07198696583509445,0.0951273962855339,-0.18769368529319763,0.11549723148345947,-0.007628677878528833,-0.06243652477860451,0.06971640139818192,-0.026888171210885048,0.24604129791259766,-0.06857991963624954,-0.15019118785858154,0.00888095423579216,-0.23567970097064972,-0.1982092261314392,-0.1437882035970688,0.18773488700389862,0.21493802964687347,0.2803672254085541,-0.2125934362411499,0.21593545377254486,0.3682717978954315,0.1505136489868164,0.26504209637641907,-0.2501729428768158,-0.07596655935049057,-0.01244862750172615,-0.30506646633148193,-0.2321537882089615,-0.08376913517713547,0.19463187456130981,0.4000176191329956,-0.2971363961696625,-0.16720779240131378,-0.156419038772583,0.1481451839208603,-0.15702620148658752,0.2664211690425873,-0.24605126678943634,-0.06721767038106918,0.42805665731430054,-0.29809167981147766,-0.05534696206450462,-0.06497937440872192,0.30458420515060425,0.29328805208206177,0.17341876029968262,0.13667415082454681,0.052623528987169266,0.002735265763476491,0.048990316689014435,0.11464215815067291,-0.0837949886918068,0.02160375379025936,-0.08607986569404602,-0.1834462285041809,0.21499258279800415,0.1992751657962799,0.6628252863883972,-0.1891503781080246,-0.17971406877040863,-0.033899158239364624,0.21259069442749023,-0.40506041049957275,-0.3102852404117584,0.1318836361169815,-0.09933982044458389,0.3827223777770996,-0.3167775571346283,0.11298495531082153,0.06477325409650803,0.16475437581539154,-0.22562545537948608,0.13126133382320404,0.02107560634613037,0.13151714205741882,0.010104818269610405,0.2158527970314026,-0.02849704399704933,0.4164612591266632,-0.15659382939338684,0.21524183452129364,0.038381338119506836,0.10437364131212234,-0.05869215726852417,0.28742098808288574,-0.2174079716205597,0.07409939169883728,-0.26194706559181213,-0.24510814249515533,-0.41576775908470154,-0.12664836645126343,0.042433738708496094,0.12439652532339096,0.24448081851005554,-0.28336989879608154,0.01578550599515438,-0.17505741119384766,0.10031012445688248,0.08647549152374268,0.08158484846353531,0.14342042803764343,-0.011337057687342167,-0.017795590683817863,0.0032431436702609062,-0.03557867184281349,-0.07023104280233383,0.22878631949424744,-0.6815285682678223,-0.031829651445150375,-0.07195287942886353,0.11561600118875504,-0.18595550954341888,0.1678006947040558,0.024588311091065407,0.071446493268013,0.02197631634771824,-0.09550191462039948,0.010807705111801624,0.08363095670938492,0.09207817167043686,0.03456415981054306,0.18502259254455566,-0.2770158350467682,-0.026070019230246544,-0.1782977133989334,0.03955528140068054,-0.017375407740473747,-0.0733099952340126,-0.13513001799583435,-0.05815373733639717,-0.019254913553595543,0.08877391368150711,-0.02277263067662716,0.2557624578475952,0.0579671673476696,-0.06457417458295822,0.1484948843717575,0.22740289568901062,-0.08602931350469589,-0.2432767003774643,-0.06433086842298508,0.15726801753044128,-0.04397791996598244,-0.19748306274414062,-0.30693379044532776,0.19756445288658142,0.11505287140607834,-0.008566544391214848,-0.9105613827705383,0.031297869980335236,0.1372385025024414,0.04851663485169411,0.11136553436517715,0.27623119950294495,0.002974874572828412,-0.11752595752477646,0.33052510023117065,-0.12194498628377914,-0.15518048405647278,0.2018480747938156,-0.06241963431239128,0.1557997614145279,0.006875649560242891,0.0013846924994140863,0.06923992186784744,0.12049244344234467,0.2856157720088959,0.14764048159122467,0.20691075921058655,-0.18901468813419342,0.05703776329755783,-0.22537446022033691,0.0361023023724556,0.08845721930265427,-0.29896172881126404,0.0028926474042236805,0.14429813623428345,0.04104847088456154,-0.312528133392334,0.19309471547603607,0.0849718227982521,0.07251698523759842,0.05867154896259308,-0.15829753875732422,-0.40991899371147156,0.26854416728019714,-0.41499125957489014,-0.09316327422857285,-0.09770941734313965,-0.07287123054265976,-0.10547494888305664,0.055208731442689896,-0.5404942035675049,-0.03326481208205223,-0.24194131791591644,-0.6288672089576721,-0.393441766500473,0.1270616501569748,-0.17003537714481354,-0.20166803896427155,0.005267074331641197,0.20503786206245422,0.15050342679023743,0.4126201272010803,-0.21486862003803253,-0.00939873792231083,-0.23473110795021057,0.045222796499729156,-0.26097866892814636,-0.30369871854782104,-0.46415776014328003,-0.16237662732601166,0.13216981291770935,-0.40550369024276733,-0.13525716960430145,-0.08529525250196457,0.11318523436784744,-0.002824813360348344,0.27093809843063354,-0.11612843722105026,0.09494238346815109,-0.3017013967037201,-0.0359937958419323,-0.0665934830904007,-0.30307841300964355,0.06368427723646164,-0.058368980884552,0.024762475863099098,0.049522656947374344,0.2718885838985443,0.07202546298503876,0.011025717481970787,0.021310312673449516,-0.13708297908306122,-0.06644847989082336,-0.13726720213890076,0.24828799068927765,-0.37077078223228455,-0.26724570989608765,-0.17097191512584686,-0.02765112742781639,-0.1414874792098999,0.20118750631809235,-0.028783928602933884,0.047955144196748734,-0.20043659210205078,0.07028771191835403,0.03612605109810829,-0.007481022737920284,0.06081883981823921,0.11694391071796417,-0.45183065533638,0.16880932450294495,-0.09850034862756729,-0.0093320207670331,-0.003731402335688472,0.07702235132455826,0.2552458941936493,-0.15441809594631195,0.3448406755924225,-0.19594475626945496,0.06023654714226723,0.18515069782733917,0.1849314272403717,0.0035840789787471294,-0.016266722232103348,-0.18027441203594208,-0.14137162268161774,0.1655695140361786,-0.05071398243308067,-0.4757058620452881,0.704185962677002,0.015199738554656506,0.3442802429199219,-0.19337107241153717,0.19079995155334473,0.23310412466526031,-0.6115848422050476,-0.014448339119553566,0.3990512788295746,-0.42934539914131165,-0.044645726680755615,0.03125661239027977,-0.22384344041347504,-0.24093450605869293,-0.08403155952692032,0.46890175342559814,0.02064814791083336,0.5282965898513794,-0.22902455925941467,0.09253912419080734,-0.26509085297584534,0.37473782896995544,-0.008074169047176838,0.2942761182785034,-0.2702607810497284,-0.11270385980606079,-0.28950563073158264,0.30275025963783264,0.2741616368293762,0.21489715576171875,-0.041593682020902634,0.1503249853849411,-0.06797163188457489,-0.7157500982284546,-0.1393543928861618,0.5543975234031677,0.17925164103507996,0.21592700481414795,0.11434662342071533,-0.3175985515117645,0.10662226378917694,0.061182692646980286,-0.31773272156715393,-0.30196768045425415,0.4565930664539337,-0.20795616507530212,0.42158642411231995,0.3727378249168396,0.30027857422828674,0.412618488073349,0.16612984240055084,0.0530770979821682,0.08191020786762238,0.403227299451828,-0.03180088475346565,0.04214279353618622,0.17165297269821167,-0.06554713845252991,-0.29387909173965454,0.026770351454615593,-0.10139031708240509,0.17137740552425385,-0.08809635788202286,0.09960734099149704,-0.11359571665525436,-0.0904049426317215,-0.22658008337020874,-0.07851343601942062,-0.11184503883123398,-0.021981794387102127,-0.09659921377897263,0.06756208837032318,-0.08071242272853851,0.17636381089687347,-0.003363262629136443,0.0817488431930542,0.24574032425880432,0.3361435532569885,0.0908862054347992,-0.07542827725410461,-0.4216821491718292,-0.13840731978416443,-0.09954480826854706,-0.0446246974170208,-0.34005123376846313,0.02666807733476162,0.23322336375713348,0.10382288694381714,0.04461141303181648,0.031330935657024384,0.29121851921081543,0.09851944446563721,0.27358943223953247,0.22083371877670288,0.014144424349069595,-0.6143864989280701,-0.37690213322639465,-0.0010168959852308035,0.07255595922470093,-0.5502750277519226,-0.14666055142879486,-0.11531300842761993,-0.3233938217163086,-0.0182049423456192,-0.1966632455587387,-0.398130863904953,0.08138903975486755,-0.18112392723560333,-0.023916006088256836,-0.19660654664039612,-0.07602430135011673,-0.0786178857088089,-0.003940832335501909,0.37283599376678467,-0.1911490261554718,0.06510775536298752,-0.3210914433002472,-0.16542556881904602,0.05452930927276611,-0.020823534578084946,-0.2408463954925537,-0.04763740301132202,0.08551806956529617,0.3069665729999542,-0.07635313272476196,-0.12976275384426117,0.34559163451194763,0.005106694996356964,-0.08871078491210938,-0.17166678607463837,0.00039157329592853785,-0.35184526443481445,0.7225621938705444,-0.15581700205802917,-0.12348160147666931,-0.3675481081008911,-0.0643618181347847,-0.2705270051956177,-0.3261304199695587,0.22443020343780518,0.28782352805137634,0.22622407972812653,-0.2541366219520569,-0.15317009389400482,0.23260018229484558,0.07689566910266876,-0.05782437324523926,-0.2000369280576706,-0.07463643699884415,-0.2098444551229477,0.056247610598802567,0.08306412398815155,0.020574185997247696,-0.03907505050301552,-0.06537401676177979,-0.15507075190544128,0.07770354300737381,0.04470972344279289,0.2093716710805893,-0.25421038269996643,-0.012306277640163898,0.3074917495250702,0.305820494890213,0.10856404155492783,0.06722016632556915,-0.04779496788978577,-0.21846303343772888,-0.07220194488763809,0.4288836121559143,0.19456234574317932,0.1426144540309906,0.022784925997257233,0.001008654828183353,0.15932197868824005,-0.0004148277803324163,-0.08028822392225266,0.1860702633857727,-0.226162850856781,0.2902524769306183,0.005691842641681433,0.03095749206840992,-0.07518401741981506,-0.057944752275943756,-0.07405052334070206,0.17038632929325104,0.16782809793949127,-0.09452534466981888,-0.11920564621686935,-0.09879341721534729,-0.056239835917949677,0.48151323199272156,0.2806375324726105,-0.08713963627815247,-0.39198946952819824,0.036972884088754654,-0.4062005579471588,-0.20125845074653625,0.22023381292819977,0.10274913161993027,0.01906728744506836,0.021107148379087448,0.009006699547171593,-0.014535895548760891,0.18005581200122833,-0.18004895746707916,0.052172545343637466,-0.20960503816604614,-0.15488851070404053,0.336068719625473,-0.0642305463552475,0.03311421722173691,0.2046077400445938,-0.29899758100509644,-0.02978634275496006,-0.11064882576465607,-0.045391976833343506,-0.055014707148075104,-0.15255874395370483,-0.049075134098529816,-0.23313423991203308,-0.5528727769851685,-0.47322049736976624,-0.46272802352905273,-0.1411270648241043,-0.0043684677220880985,0.05516600236296654,-0.4529728293418884,-0.1501680612564087,0.042787104845047,-0.4927862882614136,0.1017693281173706,-0.1699509173631668,-0.15675005316734314,-0.2285093069076538,-0.13624589145183563,-0.10774373263120651,0.4876818060874939,0.2575511336326599,-0.22619743645191193,0.24937979876995087,-0.06808295845985413,0.19199444353580475,0.39555835723876953,-0.3707030713558197,0.33359628915786743,-0.14885447919368744,-0.06041930615901947,-0.0574641115963459,0.0017250641249120235,-0.15095829963684082,0.3152848184108734,0.5072095394134521,0.08161585032939911,-0.7169733047485352,-0.3554251194000244,-0.09785181283950806,-0.21251223981380463,-0.28110599517822266,-0.03700115531682968,-0.10325276851654053,-0.019792769104242325,-0.1130986362695694,0.6227049231529236,0.1216762438416481,0.2513469457626343,-0.08520171791315079,0.23838424682617188,0.19965995848178864,0.46671977639198303,0.09951327741146088,0.38334038853645325,-0.19628667831420898,-0.0461910180747509,0.2051345258951187,0.341318279504776,-0.048209577798843384,-0.03606478124856949,0.24496257305145264,0.22499555349349976,0.2739240229129791,0.09534262120723724,-0.23816171288490295,-0.08041248470544815,0.14561821520328522,0.08544445782899857,0.013702585361897945,-0.1866014152765274,0.23208150267601013,-0.6917028427124023,0.04488802328705788,0.19354237616062164,0.5178669095039368,-0.011762471869587898,0.10485606640577316,0.3553490936756134,0.06416549533605576,-0.1969360113143921,-0.18723928928375244,0.056366901844739914,-0.05282355472445488,-0.01625118777155876,0.11871062219142914,-0.09769798070192337,-0.19836720824241638,0.1248335987329483,-0.5914859771728516,-0.28585949540138245,0.2404232621192932,-0.25453096628189087,-0.7263752818107605,-0.04038887098431587,-0.1995135247707367,0.20300978422164917,0.06799757480621338,-0.046705931425094604,-0.18312391638755798,-0.10335858166217804,0.8861739039421082,0.54335618019104,-0.1470932960510254,0.20894239842891693,0.2665855288505554,0.018643513321876526,0.10567963868379593,0.07166029512882233,0.039302077144384384,0.018208429217338562,0.21021446585655212,-0.12250366806983948,0.4974279999732971,0.008821086026728153,0.1529453843832016,-0.49350306391716003,-0.09347272664308548,-1.2026563882827759,1.4770960807800293,-0.732438862323761,0.18214543163776398,-0.40457504987716675,-0.1124400794506073,0.08001133799552917,-0.4514060616493225,0.07971062511205673,-0.21063442528247833,-0.22699862718582153,0.2406928837299347,0.19139055907726288,-0.047884732484817505,0.019242670387029648,0.02542293071746826,0.019961344078183174,0.34277117252349854,0.22536496818065643,0.3382226824760437,0.1995619237422943,-0.11596433818340302,1.270041584968567,0.3894945979118347,0.1658325493335724,-0.12335149943828583,-0.2145422101020813,0.0069023314863443375,0.32129141688346863,0.02287328988313675,0.6901156902313232,0.09620293229818344,-0.11410283297300339,-0.42130693793296814,-0.7423686385154724,0.17018938064575195,-0.47466227412223816,-0.11657232791185379,0.05311639979481697,0.40060824155807495,-0.5206588506698608,-0.01692219264805317,-0.6248018145561218,-0.6350913047790527,0.1336795687675476,0.3229064643383026,-0.3569939434528351,0.014451630413532257,-0.09699880331754684,0.05338199809193611,-0.027529839426279068,0.024426745250821114,0.16437333822250366,-0.015600931830704212,0.01701274886727333,-0.227827787399292,0.11326459795236588,-0.15153199434280396,0.024678213521838188,0.15791386365890503,-0.18287387490272522,-0.12856079638004303,-0.029572967439889908,0.08811072260141373,-0.10982269793748856,0.11530381441116333,-0.15066646039485931,0.10809697210788727,0.4841325879096985,0.1351006180047989,-0.2159929722547531,-0.07819836586713791,-0.2994190454483032,-0.18928013741970062,-0.19660526514053345,0.054206639528274536,0.16434063017368317,-0.12740910053253174,-0.12922294437885284,-0.48366308212280273,0.1277795135974884,0.15902139246463776,0.037510793656110764,-0.022802095860242844,0.1191415786743164,-0.24430491030216217,0.003977910149842501,-0.03922909498214722,-0.24829886853694916,0.1971285194158554,-0.012260760180652142,-0.06054287031292915,-0.06279195845127106,-0.27335673570632935,-0.46625763177871704,0.11645517498254776,0.41611286997795105,0.028340961784124374,0.003957418259233236,0.13633127510547638,0.3839387595653534,-0.22910568118095398,-0.24858367443084717,-0.030072061344981194,-0.1881290227174759,-0.15808957815170288,0.11306317895650864,-0.02868901565670967,0.5099431872367859,0.1006927639245987,-0.002612834796309471,-0.17298530042171478,0.15669475495815277,0.22358882427215576,-0.07672414928674698,-0.05683518946170807,-0.1753966212272644,0.06472556293010712,0.07360388338565826,-0.00012556006549857557,0.2915100157260895,0.02416703663766384,0.11052659898996353,-0.2522333264350891,-0.11371546983718872,0.06385538727045059,0.08345633000135422,0.23524950444698334,0.26723140478134155,0.1347440630197525,-0.14024445414543152,0.6698892116546631,-0.25146326422691345,0.04353099688887596,0.09171772748231888,0.005102500319480896,0.10462424159049988,-0.08625320345163345,-0.49757489562034607,0.04782995954155922,-0.055080365389585495,0.10260328650474548,0.00432397797703743,0.09589774906635284,0.10050847381353378,0.42183244228363037,-0.425851047039032,-0.016038930043578148,-0.34106874465942383,-0.0713660717010498,-0.07553479820489883,-0.17100609838962555,-0.173936128616333,-0.14043952524662018,-0.25167718529701233,0.04545855149626732,0.3610216975212097,0.2877892851829529,-0.0445103794336319,-0.07413414120674133,0.20157039165496826,0.023838071152567863,0.4207797646522522,-0.35959166288375854,-0.04785815626382828,0.3404648005962372,0.37869173288345337,-0.18266795575618744,0.08783289045095444,-0.2430759072303772,-0.08788260072469711,-0.06880824267864227,-0.0674760714173317,0.20695224404335022,0.05904967710375786,-0.06709644943475723,-0.03199765831232071,-0.026930896565318108,0.1932421624660492,0.28473612666130066,-0.003589808940887451,0.008791491389274597,0.12912923097610474,0.019976051524281502,-0.03171253949403763,-0.14061422646045685,-0.6427544951438904,0.08618815243244171,0.14560209214687347,0.49468061327934265,0.0568363256752491,-0.2670172154903412,0.08504638075828552,0.1750980019569397,0.0420929491519928,-0.17288994789123535,0.18503408133983612,0.1310746818780899,0.05641252547502518,-0.054565709084272385,0.23924598097801208,-0.10407576709985733,-0.1537550985813141,0.24841082096099854,-0.18166621029376984,-0.42701688408851624,-0.25080791115760803,0.006058163940906525,-0.08894294500350952,-0.2951350808143616,-0.25578245520591736,0.13832837343215942,0.11816557496786118,-0.14374426007270813,-0.48293542861938477,-0.1774112582206726,0.05261475220322609,-0.15003806352615356,-0.0967516228556633,0.23624473810195923,0.15037082135677338,-0.04171915724873543,0.05831762030720711,-0.32757723331451416,-0.0016746153123676777,0.05041017755866051,0.015565664507448673,-0.22153209149837494,0.2885027527809143,0.3259091377258301,-0.6537460088729858,-0.06193384528160095,0.07262325286865234,0.1183253824710846,0.266183465719223,-0.1883201003074646,0.10637670010328293,0.18523207306861877,0.031955547630786896,0.03859425336122513,-0.04046626389026642,0.5325652360916138,-0.15189339220523834,-0.17097049951553345,0.3268372118473053,0.7900540828704834,-0.18569457530975342,0.08469809591770172,0.5155400037765503,-0.012887579388916492,0.005386869888752699,0.3902863562107086,-0.12136015295982361,0.04824404418468475,0.09524822235107422,0.31060877442359924,-0.13735036551952362,-0.30616381764411926,0.2269679754972458,-0.03142784908413887,-0.032650068402290344,0.09154775738716125,-0.08805666118860245,-0.3315238058567047,-0.18005694448947906,-0.055342771112918854,0.28388261795043945,-0.07046031206846237,-0.029784653335809708,-0.39966532588005066,-0.8164725303649902,-0.12567199766635895,0.3466044068336487,0.009179395623505116,0.11275831609964371,0.5655444860458374,-0.10027818381786346,0.6770779490470886,0.06083211675286293,0.09765151888132095,0.19997349381446838,0.4855598509311676,-0.19577279686927795,-0.13598479330539703,0.42387428879737854,-0.26861926913261414,-0.07615159451961517,0.04266471415758133,0.008416521362960339,-0.10557573288679123,0.006711595691740513,0.012118222191929817,0.07681737840175629,-0.06866535544395447,0.04807426035404205,-0.25598573684692383,0.03833909332752228,0.13494352996349335,0.0502263642847538,-0.020580928772687912,0.01867963932454586,0.025144565850496292,-0.045809801667928696,-0.0329679436981678,-0.15872341394424438,-0.09823167324066162,0.31288942694664,0.10251996666193008,-0.5968594551086426,0.30990898609161377,-0.18886269629001617,-0.03706740587949753,1.1458371877670288,-0.5527799129486084,1.1492496728897095,0.5685141682624817,0.4467048943042755,0.25175830721855164,0.22672328352928162,-1.0008506774902344,0.350311279296875,0.08526039868593216,-0.05167797580361366,-0.13240063190460205,-0.2089059054851532,-0.1221824362874031,-0.17857252061367035,0.2342829406261444,0.04796290025115013,0.32435640692710876,0.22346585988998413,0.39396053552627563,-0.15910564363002777,0.3595585227012634,0.4951140284538269,0.09458900988101959,0.00865180790424347,0.0003539850586093962,-0.1825219839811325,0.1882595419883728,0.18797926604747772,0.05501231551170349,0.49177753925323486,0.20352604985237122,-0.30287036299705505,0.06795036047697067,-0.12561923265457153,0.20646971464157104,0.15876492857933044,0.08379605412483215,-0.13457128405570984,0.018743662163615227,-0.37051859498023987,-0.2196120023727417,-0.38968902826309204,-0.06521286070346832,-0.11314292997121811,-0.06470005214214325,0.00994347408413887,0.10465370118618011,-0.13986529409885406,-0.2307056039571762,-0.2395244538784027,0.25433415174484253,0.07465899735689163,-0.14533446729183197,-0.13759246468544006,0.11827567219734192,-0.19642803072929382,-0.14294643700122833,-0.45625507831573486,0.011351638473570347,-0.318417489528656,-0.06469282507896423,-0.5061591863632202,0.29071736335754395,0.20667745172977448,-0.21728454530239105,0.11170314997434616,0.5489974021911621,0.18446728587150574,-0.262259304523468,0.1981709897518158,0.018410012125968933,0.25056886672973633,-0.05220038816332817,0.11291908472776413,-0.09516474604606628,-0.19932805001735687,-0.17520909011363983,-0.062031131237745285,0.08006550371646881,0.23091617226600647,-0.031116262078285217,0.06597819924354553,0.2419121414422989,0.011525225825607777,-0.17998220026493073,0.17672742903232574,0.06355604529380798,-0.005925539880990982,0.007146152667701244,0.01906871236860752,-0.09911428391933441,-0.07346102595329285,-0.027322426438331604,0.31597304344177246,0.12531234323978424,-0.04348389431834221,-0.12764927744865417,0.03607771918177605,0.12681514024734497,-0.09896399080753326,-0.08273676037788391,0.018323073163628578,0.13120584189891815,-0.13672810792922974,-0.1151217669248581,0.05349380150437355,-0.12487781047821045,0.02652144990861416,-0.08296575397253036,-0.14113104343414307,0.15769921243190765,-0.12368635088205338,-0.031412795186042786,-0.0070579941384494305,0.11487976461648941,0.3825317323207855,-0.00017925525025930256,0.07321415096521378,0.11188323050737381,0.5136699676513672,0.521373450756073,-0.18482086062431335,-0.11695299297571182,-0.3609618842601776,0.0533403679728508,0.25063982605934143,-0.30290940403938293,-0.028813587501645088,0.11194544285535812,0.08752351999282837,-0.013594922609627247,0.30622661113739014,0.08025233447551727,0.050249285995960236,0.03339206054806709,-0.2090655416250229,0.16107185184955597,0.2975354492664337,0.15177838504314423,0.2705739736557007,-0.008606698364019394,-0.23188775777816772,-0.04715624079108238,-0.1997237652540207,-0.11901067197322845,0.2219623625278473,0.3365267813205719,-0.2741931974887848,-0.08096342533826828,0.14891478419303894,-0.14140821993350983,0.37819167971611023,0.17317084968090057,-0.26988574862480164,0.049294862896203995,0.04134432226419449,0.007826680317521095,-0.4459426999092102,-0.2404063194990158,-0.11557314544916153,0.21865622699260712,0.02282203547656536,-0.4292777180671692,0.1851114183664322,0.15204347670078278,0.04378291219472885,-0.03974677622318268,0.23609118163585663,-0.32875415682792664,-0.1777568906545639,-0.14832951128482819,0.14738883078098297,-0.334547221660614,0.11442553251981735,0.13043634593486786,-0.004637015052139759,0.10783148556947708,-0.2189914733171463,0.18550331890583038,-0.12908390164375305,-0.17323003709316254,0.3796564042568207,0.21040628850460052,-0.2753300070762634,-0.036782100796699524,-0.3024953007698059,0.1044258326292038,0.09373302757740021,0.28089308738708496,0.3260028660297394,-0.12445194274187088,-0.021695271134376526,-0.32465869188308716,-0.16090485453605652,0.12784726917743683,-0.6599887609481812,-0.2865222990512848,-0.0783434808254242,-0.08704035729169846,-0.30339860916137695,-0.23446626961231232,-0.7540655732154846,0.06645679473876953,0.3953636884689331,-0.06882929056882858,-0.6660966277122498,-0.12964242696762085,-0.07536346465349197,-0.19362567365169525,-0.04718542844057083,0.050283633172512054,-0.2745201289653778,-0.27615979313850403,0.2129628211259842,0.06584423780441284,-0.21734565496444702,-0.0026393444277346134,-0.29127737879753113,-0.10704231262207031,-0.045097459107637405,-0.060696955770254135,0.6295652985572815,-0.1668521910905838,-0.11250385642051697,-0.07363311201334,0.08703871071338654,-0.26766538619995117,0.1275627464056015,0.41960635781288147,-0.3071082830429077,0.09246869385242462,-0.03928825631737709,0.03196309506893158,-0.34677940607070923,-0.06496015191078186,-0.42201313376426697,-0.030417930334806442,-0.038146305829286575,-0.32917121052742004,0.3653354346752167,-0.017162112519145012,0.3770429790019989,0.21105429530143738,-0.31517213582992554,0.039942871779203415,-0.09804290533065796,-0.13986191153526306,0.12937535345554352,0.019638268277049065,0.009069313295185566,-0.37883472442626953,-0.20463266968727112,-0.18897207081317902,0.12647034227848053,-0.10629691928625107,0.03588632494211197,0.18902982771396637,0.17894959449768066,0.27689865231513977,-0.2250221222639084,-0.05513235554099083,-0.06999985128641129,0.22145888209342957,0.09770747274160385,0.10116244107484818,0.019837090745568275,-0.027098363265395164,-0.04197482019662857,0.21023589372634888,0.07270689308643341,-0.06688512861728668,-0.0375862680375576,-0.37165170907974243,0.024713901802897453,0.059014417231082916,0.04419543221592903,-0.010256169363856316,-0.007806886453181505,-0.02068048156797886,-0.07523807883262634,-0.4639557898044586,-0.11245676875114441,-0.02464698627591133,-0.39732587337493896,-0.03405667096376419,0.14840273559093475,0.12614251673221588,-0.0698610469698906,-0.18844656646251678,0.05729489028453827,0.16650553047657013,-0.07246942818164825,-0.33980998396873474,-0.029258251190185547,-0.08041935414075851,-0.1986532062292099,-0.03742454573512077,0.06497430056333542,0.00325111486017704,-0.13324053585529327,-0.0003486228233668953,-0.1776273101568222,0.18535879254341125,-0.05142691731452942,-0.8573278188705444,-0.19796624779701233,-0.07194168865680695,0.02470979653298855,-0.014102760702371597,-0.18776322901248932,-0.42498400807380676,0.06629432737827301,-0.0806390643119812,-0.28698357939720154,-0.08156795054674149,0.11443909257650375,-0.01120154932141304,0.033759042620658875,-0.03081035055220127,-0.1116475909948349,-0.18547387421131134,0.12129519134759903,0.11772690713405609,0.29840508103370667,0.10942088067531586,-0.26282086968421936,0.07292377203702927,-0.016699524596333504,1.0365432500839233,-0.4837828278541565,0.24569404125213623,-0.12647350132465363,-0.1530722826719284,0.028229856863617897,-0.14192365109920502,0.15477672219276428,-0.35444292426109314,-0.0403740368783474,0.1906750351190567,0.06698393076658249,0.3128444254398346,0.22992388904094696,0.16690844297409058,-0.23189952969551086,-0.02923145331442356,-0.20331257581710815,-0.0038823725190013647,0.24334503710269928,-0.04214416444301605,0.11619262397289276,-0.462070494890213,0.47695302963256836,0.6943797469139099,-0.29043540358543396,-0.12803791463375092,-0.2191006988286972,0.024624930694699287,0.0774095430970192,0.4172370731830597,0.30533939599990845,0.13763567805290222,-0.28389254212379456,-0.12187547981739044,-0.07088975608348846,-0.026637334376573563,0.09786669164896011,0.4583716094493866,0.01564251072704792,-0.22026564180850983,0.1589229702949524,0.20540742576122284,-0.5066016316413879,-0.15758703649044037,0.2881019711494446,-0.33826765418052673,0.07074261456727982,0.26177942752838135,-0.15934482216835022,0.08863276243209839,0.034082457423210144,-0.24832783639431,-0.2341289073228836,-0.05041765049099922,-0.10287167131900787,0.06707118451595306,0.07435160130262375,0.45798739790916443,0.2823173403739929,0.01806400716304779,0.13000698387622833,-0.07480072975158691,-0.09280956536531448,0.016332028433680534,0.17373493313789368,0.06734472513198853,0.05674588680267334,-0.07355140894651413,-0.11576838046312332,0.39368879795074463,0.19507622718811035,0.4502452313899994,0.04743817076086998,0.08937281370162964,-0.038484279066324234,0.17290036380290985,0.08050689101219177,0.05837845802307129,-0.04406965151429176,0.22925759851932526,0.014574979431927204,-0.16079357266426086,-0.0809439867734909,0.02092033438384533,-0.015505184419453144,0.036292336881160736,0.08040888607501984,-0.26022788882255554,-0.009073575958609581,-0.3111683428287506,0.03697897866368294,-0.13734279572963715,0.19937728345394135,-0.20538152754306793,0.16104386746883392,-0.24972853064537048,-0.12904609739780426,-0.1459408402442932,0.05045706778764725,0.13817642629146576,0.14593937993049622,-0.0609348900616169,-0.04711022228002548,0.04624411463737488,0.32141122221946716,0.09533201158046722,0.04653163626790047,-0.17267270386219025,-0.1546189934015274,0.02503061667084694,-0.14286436140537262,0.14010383188724518,-0.06385787576436996,-0.24710476398468018,0.19742199778556824,0.11997443437576294,-0.17787209153175354,0.0007053859299048781,-0.1537320464849472,0.22108978033065796,0.2306167632341385,-0.2722248136997223,0.15766434371471405,0.1043473407626152,0.25090107321739197,-0.024232905358076096,0.08405625820159912,0.12413501739501953,0.2611735761165619,0.11078382283449173,0.2929108738899231,0.6671522259712219,-0.3342914581298828,0.09524599462747574,0.04104908928275108,0.013472498394548893,0.004912987817078829,0.4298088252544403,-0.20976804196834564,-0.20953863859176636,-0.7365947961807251,-0.102353535592556,0.39074239134788513,0.007432006765156984,-0.21720418334007263,0.39720386266708374,-0.2938789427280426,-0.002202691277489066,0.18910959362983704,0.28268951177597046,-0.031132081523537636,-0.6018301248550415,-1.4467251300811768,-0.2921106219291687,-0.21668271720409393,-0.7695658206939697,-0.03413182869553566,0.2334269881248474,-0.06605089455842972,-0.05329524353146553,-0.4301028251647949,-0.09465747326612473,0.23491226136684418,0.3115755617618561,-0.07292675971984863,0.08158177882432938,0.2142450511455536,1.1935451030731201,-0.21936768293380737,-0.7072986364364624,-1.1050323247909546,-0.4936276376247406,0.242928609251976,-0.8205582499504089,0.005831239745020866,0.24303767085075378,-0.4961881935596466,-0.3997436463832855,0.33110979199409485,0.44895148277282715,0.0574917197227478,0.2782391607761383,0.5462012887001038,-0.21432393789291382,0.2721083462238312,-0.4567342698574066,0.420572966337204,-0.05723990499973297,-0.12166264653205872,-0.24076738953590393,-0.17128118872642517,-0.0871947631239891,0.1918174922466278,-0.037612657994031906,0.04943878948688507,0.021430913358926773,0.08845779299736023,0.018425440415740013,0.13373751938343048,0.0466320626437664,-0.07886144518852234,-0.43260279297828674,0.1106787770986557,0.10626625269651413,-0.2504175901412964,-0.2959587275981903,-0.2739211916923523,0.43483445048332214,0.1347070187330246,0.19181983172893524,-0.1711513102054596,0.07804019004106522,0.030806822702288628,0.05866160988807678,-0.05206042155623436,0.10079346597194672,0.05490813031792641,0.042968373745679855,0.16116386651992798,0.0040902323089540005,0.05474521964788437,0.06997792422771454,-0.09969885647296906,-0.16357630491256714,-0.0941133201122284,0.3471614420413971,0.06628919392824173,0.09951553493738174,-0.10753880441188812,-0.019161827862262726,0.039783816784620285,-0.044149141758680344,0.03269776329398155,0.049227554351091385,0.12901581823825836,-0.09927894920110703,0.014563792385160923,0.27579277753829956,0.365906298160553,0.26532843708992004,-0.02774597890675068,-0.11343293637037277,-0.048306938260793686,0.4154411554336548,-0.04876912012696266,0.33361172676086426,0.014870178885757923,0.24813587963581085,0.2882692217826843,-0.2893519103527069,-0.2652379274368286,0.07431410998106003,-0.032650209963321686,-0.11213928461074829,0.006403611972928047,0.14740338921546936,-0.10064446181058884,-0.025824502110481262,0.031437765806913376,0.30653008818626404,-0.1670745611190796,-0.2627274692058563,-0.19439420104026794,-0.35169968008995056,0.1509929597377777,0.1763850748538971,-0.34105661511421204,-0.0018787870649248362,-0.23164227604866028,0.30786797404289246,-0.06408713012933731,-0.4744429588317871,-0.13265462219715118,0.1841399073600769,-0.10886285454034805,-0.217557892203331,-0.37641778588294983,-0.13628213107585907,0.16266025602817535,-0.0034548842813819647,0.15853682160377502,0.1880376935005188,-0.060498327016830444,0.3093699812889099,0.14443136751651764,0.20828168094158173,-0.05688376724720001,-0.38233351707458496,-0.14446403086185455,0.3911207616329193,-0.4029841125011444,0.22592061758041382,0.06396784633398056,-0.05273652449250221,-0.006524045951664448,-0.7383597493171692,0.13173054158687592,0.1290188729763031,0.11395950615406036,0.3610394299030304,-0.2477979063987732,-0.23262107372283936,-0.2122608870267868,-0.05884552747011185,0.01269446313381195,-0.035405151546001434,0.10212177783250809,0.011566782370209694,0.07719511538743973,0.14431536197662354,0.9422623515129089,0.17163601517677307,-0.22084380686283112,-0.21327871084213257,-0.21860824525356293,0.08778020739555359,0.25046786665916443,-0.06587497144937515,-0.16359621286392212,0.29752710461616516,-0.15468202531337738,-0.37783142924308777,0.5779311656951904,0.6108899116516113,0.6481687426567078,0.3357018232345581,-0.3601139485836029,0.2866150438785553,0.15414954721927643,-0.19815507531166077,0.019651031121611595,0.25263065099716187,0.3778912425041199,0.04748471826314926,0.05576521158218384,0.057508684694767,0.07723832130432129,0.045150529593229294,-0.22750994563102722,0.10808900743722916,-0.008011438883841038,-0.39237505197525024,0.21808215975761414,-0.14445503056049347,0.17824947834014893,0.22380711138248444,-0.02402993105351925,-0.07207987457513809,-0.14440035820007324,0.020335156470537186,0.06275962293148041,-0.0673396959900856,-0.07508891075849533,-0.2798033058643341,-0.16640058159828186,0.4119386374950409,0.08410435169935226,-0.1317402869462967,-0.1531793475151062,0.08247409015893936,-0.1843332201242447,-0.057162608951330185,0.3507593274116516,-0.03300623223185539,0.10084172338247299,-0.5986741781234741,0.017024166882038116,0.021123182028532028,0.273785263299942,0.03678986802697182,0.34762638807296753,0.24942870438098907,0.03769327700138092,-0.1239723339676857,-0.4266149699687958,0.06855171173810959,0.10899728536605835,0.2032317817211151,-0.3459779620170593,-0.21533258259296417,-0.1529114693403244,0.1103045791387558,0.10048510134220123,0.19550183415412903,-0.0012832734500989318,0.1508961170911789,-0.023622319102287292,0.11386952549219131,-0.03620776906609535,-0.7002301812171936,-0.10828839987516403,-0.08716123551130295,-0.19231154024600983,0.11889836937189102,-0.048932142555713654,-0.15934596955776215,0.1334981471300125,0.14927837252616882,0.08422969281673431,-0.24756495654582977,-0.1325893998146057,0.03586788475513458,-0.006844446994364262,0.09425341337919235,0.2707412838935852,-0.3653578460216522,0.037128448486328125,-0.09652557969093323,-0.019197646528482437,0.12647132575511932,0.34475523233413696,0.0327652283012867,-0.20448487997055054,-0.2526191771030426,0.11068053543567657,0.0038119954988360405,0.3186210095882416,-0.01625438593327999,0.13988038897514343,0.010361986234784126,-0.08644959330558777,0.08362849056720734,-0.10402451455593109,-0.19209177792072296,-0.06706298142671585,0.5041991472244263,-0.13033196330070496,0.04400882124900818,-0.20149603486061096,-0.13134075701236725,-0.01846208982169628,-0.6491011381149292,-0.108252614736557,0.16934719681739807,0.3641919195652008,0.1367231160402298,0.19117628037929535,0.3856094777584076,0.16685159504413605,0.12210508435964584,-0.449521005153656,0.03849337249994278,-0.18154458701610565,0.30444830656051636,0.041873056441545486,0.028663700446486473,-0.39048659801483154,0.121334508061409,-0.07580632716417313,0.3266054391860962,0.004689095076173544,0.09921368956565857,-0.0422111451625824,0.45412054657936096,0.06369485706090927,0.270541250705719,0.17864368855953217,-0.10805655270814896,-0.02711760438978672,0.15061601996421814,0.14725948870182037,0.37088513374328613,-0.0033063492737710476,0.017074255272746086,0.4878247380256653,-0.06919024139642715,0.20998866856098175,-0.12242861092090607,0.030884698033332825,0.04929647967219353,-0.19905181229114532,-0.2656915783882141,-0.1264384537935257,-1.4025859832763672,0.058448899537324905,0.3367578685283661,-0.2404167354106903,0.1922459453344345,0.13356426358222961,-0.002412955742329359,0.0401909276843071,0.22115322947502136,0.21955375373363495,0.07003597170114517,-0.12233094125986099,-0.02567620761692524,0.17167727649211884,-0.18988192081451416,-0.2593482434749603,0.17458315193653107,-0.2121892124414444,-0.04905550926923752,-0.1169787347316742,0.043931324034929276,-0.19076108932495117,-0.18697698414325714,-0.07803519070148468,-0.007347784470766783,0.016716010868549347,-0.005120708141475916,0.07094721496105194,0.024776669219136238,-0.02782454341650009,0.4763123691082001,0.13498803973197937,-0.2745097279548645,0.21640516817569733,0.29801300168037415,0.1327107697725296,-0.5506546497344971,0.019210563972592354,0.28263530135154724,-0.18692204356193542,-0.24729681015014648,-0.03984728828072548,-0.26429373025894165,-0.10931729525327682,0.27361294627189636,0.03854629024863243,0.050934214144945145,0.14703401923179626,-0.26445215940475464,-0.10658286511898041,0.1345227062702179,-0.48389866948127747,-0.1261250078678131,-0.0063106827437877655,0.711995542049408,-0.18185943365097046,0.1420336663722992,-0.08881460130214691,-0.15613508224487305,0.06806644052267075,-0.09414012730121613,-0.12739650905132294,-0.10211088508367538,-0.16107091307640076,0.06613446027040482,0.02111409604549408,0.3090590536594391,0.16480207443237305,-0.02394864521920681,-0.07043846696615219,-0.03212170675396919,-0.16985851526260376,0.1709192395210266,-0.042689207941293716,-0.05083627626299858,0.4043348431587219,-0.22373612225055695,-0.01696796342730522,-0.3746100664138794,-0.4475858211517334,-0.04812338575720787,0.02976229414343834,-0.16148976981639862,-0.08252114802598953,0.17110377550125122,-0.2851584851741791,0.034304287284612656,-0.08010869473218918,-0.030723964795470238,0.04247013106942177,-0.5646277070045471,-0.2584851384162903,0.0855940654873848,-0.10146061331033707,0.18198764324188232,0.050767090171575546,0.09841140359640121,-0.07162245362997055,0.048255015164613724,0.4128822088241577,-0.0023447894491255283,0.0919434055685997,0.15194110572338104,0.18801744282245636,0.08186759799718857,-0.012038489803671837,-0.5922141075134277,-0.18921835720539093,-0.12672977149486542,0.3617222011089325,0.02297155000269413,-0.2621501088142395,-0.0795254111289978,-0.09306903183460236,-0.08510112762451172,0.05385759845376015,0.32483649253845215,-0.1082419827580452,0.06616562604904175,-0.35477256774902344,0.15059487521648407,0.3016751706600189,-0.05419743433594704,-0.4128248989582062,-0.12023859471082687,-0.08322802931070328,-0.11068526655435562,0.05104932188987732,-0.12043462693691254,0.17616744339466095,0.20176802575588226,0.0053812419064342976,0.22897273302078247,-0.11019761860370636,0.18580736219882965,-0.1799624264240265,0.047433119267225266,-0.06419436633586884,-0.18260249495506287,-0.1675039529800415,0.02661760523915291,0.242306649684906,0.33149778842926025,0.03257858753204346,0.2767811715602875,-0.2025708556175232,-0.016729027032852173,-0.0027852738276124,-0.044434770941734314,0.17701967060565948,0.017794987186789513,0.3019607365131378,0.07054001837968826,-0.16078947484493256,0.008685948327183723,-0.33784547448158264,0.1221047192811966,0.37719541788101196,-0.14207856357097626,0.1423400342464447,-0.13945791125297546,-0.21306665241718292,0.18544310331344604,0.007736239116638899,0.26928868889808655,-0.12339043617248535,-0.025060385465621948,0.09515095502138138,-0.34037086367607117,0.02222478576004505,0.1816772222518921,0.05015953630208969,-0.14497055113315582,0.05879217013716698,0.40202245116233826,-0.039068251848220825,-0.13358110189437866,-0.11941893398761749,-0.1074189841747284,-0.1418338268995285,0.10065415501594543,0.30595919489860535,0.2597474455833435,-0.014821970835328102,-0.2990148067474365,-0.2307460606098175,0.1377779096364975,0.022662652656435966,0.1798401027917862,-0.022674566134810448,0.16147150099277496,-0.2557823956012726,0.07740209996700287,-0.5376909375190735,-0.22110193967819214,0.1417074203491211,0.44024258852005005,-1.626168131828308,1.1671632528305054,0.10711729526519775,-0.06639504432678223,0.0920550599694252,0.2170581817626953,-0.4630621671676636,-0.0870259553194046,0.5045527815818787,-0.04787353426218033,0.48159101605415344,-0.1816083937883377,-0.038941942155361176,-0.05670158192515373,-0.2229996770620346,-0.3957885503768921,0.07817616313695908,0.1781889945268631,-0.2950717806816101,0.13644416630268097,0.33502396941185,0.4018901586532593,0.9349274039268494,0.07348740100860596,0.041909851133823395,-0.03193870559334755,-0.0749867632985115,0.22700822353363037,-0.07392015308141708,0.006615046877413988,-1.2085100412368774,-0.0750695988535881,0.2561599612236023,0.9866433143615723,-0.8777811527252197,-0.14289365708827972,0.47272905707359314,0.04849443584680557,0.8323497176170349,-0.4900834858417511,0.47593221068382263,0.4033670723438263,0.385818213224411,0.02995135448873043,-0.974602460861206,-0.7979761958122253,0.8944266438484192,-0.050906307995319366,0.16230250895023346,-0.18646888434886932,0.12793979048728943,-0.023812519386410713,1.5914162397384644,0.12434690445661545,-0.07814333587884903,0.005623138044029474,0.083522267639637,0.16898620128631592,-0.08988894522190094,0.017371268942952156,0.02191135101020336,0.03374648466706276,-0.2552546262741089,0.13578209280967712,0.09327397495508194,-0.25408560037612915,0.40612855553627014,-0.7355695366859436,0.15123708546161652,0.04742998629808426,0.3889506757259369,0.053605932742357254,0.24962565302848816,0.6812644004821777,-0.3121042847633362,0.033080436289310455,0.2992773652076721,0.15284594893455505,-0.37637388706207275,-0.20101942121982574,-0.43515655398368835,-0.10178381949663162,0.5226390361785889,-0.04313596710562706,0.2695032060146332,0.11520815640687943,0.1528303623199463,-0.09567322582006454,0.07030892372131348,0.045354027301073074,-0.03628621995449066,-0.19244517385959625,0.0649932250380516,-0.29281455278396606,-0.04094620794057846,-0.05759552866220474,0.0029085746500641108,0.029399121180176735,0.1501954048871994,-0.23693305253982544,0.11041872203350067,0.2645384669303894,0.06707117706537247,-0.09059066325426102,-0.0655355453491211,-0.16904565691947937,0.0775974914431572,-0.3165346086025238,0.08080564439296722,0.0667390376329422,0.1159462109208107,0.09116065502166748,-0.18496321141719818,0.13967622816562653,0.23700502514839172,-0.0622088685631752,0.45339587330818176,-0.3167760670185089,0.10121622681617737,0.052854303270578384,-0.06374427676200867,-0.1610911339521408,-0.07710899412631989,-0.19511818885803223,0.1637883186340332,-0.21206502616405487,-0.25673624873161316,0.051997844129800797,-0.17171278595924377,0.0667707771062851,-0.1782636195421219,0.06822288781404495,0.27022963762283325,0.6077791452407837,0.16154031455516815,0.11139770597219467,-0.11442579329013824,-0.19000978767871857,0.17601116001605988,-0.2602095603942871,0.051650047302246094,-0.012871528044342995,0.1482013612985611,-0.007143574301153421,0.36679354310035706,0.05667535960674286,-0.17852525413036346,0.18135525286197662,-0.10385402292013168,0.15761031210422516,-0.11243027448654175,-0.25356316566467285,0.17934377491474152,0.11362190544605255,0.10372544080018997,0.39084532856941223,-0.2828638255596161,-0.050698429346084595,-0.012604350224137306,-0.06950296461582184,-0.23930315673351288,-0.019834455102682114,0.07795516401529312,0.1987183690071106,-0.3030731976032257,-0.2853824496269226,-0.066876120865345,-0.07038450986146927,0.19582082331180573,0.08030417561531067,-0.06444364041090012,0.11755435168743134,-0.15245264768600464,-0.1173650473356247,-0.2574085295200348,-0.06085454300045967,-0.3534558117389679,0.066898413002491,0.10434108227491379,-0.034307729452848434,-0.022359732538461685,0.7020447850227356,0.1326276808977127,0.0008943802677094936,0.009139605797827244,-0.015147106721997261,0.028166264295578003,-0.2073548287153244,-0.16899649798870087,-0.3579828441143036,0.16587188839912415,-0.01063500251621008,-0.052090201526880264,0.24367700517177582,-0.3584788143634796,0.10989745706319809,0.31388118863105774,-0.16668258607387543,-0.2324730008840561,-0.28908398747444153,0.15223169326782227,0.0034983062651008368,0.31543564796447754,0.12785479426383972,-0.1632746309041977,-0.34327685832977295,0.12428659200668335,-0.21444013714790344,-0.26244473457336426,0.08161139488220215,0.22004327178001404,-0.024404676631093025,0.1564260572195053,-0.03231944143772125,0.005242626182734966,-0.09670308977365494,0.07896978408098221,-0.06548779457807541,-0.004436587914824486,-0.21028098464012146,0.20361270010471344,0.17717695236206055,-0.12556947767734528,0.06180162355303764,-0.2005457580089569,0.04849940538406372,-0.12939290702342987,-0.10531801730394363,0.298488050699234,-0.06106032803654671,0.04805963858962059,0.12081743776798248,-0.24636304378509521,-0.155731663107872,-0.035912442952394485,-0.22668088972568512,0.14802870154380798,-0.034492574632167816,0.07252351939678192,-0.014832952991127968,0.12744945287704468,-0.0035714474506676197,-0.1408224105834961,0.16655270755290985,-0.18009839951992035,-0.2813490331172943,-0.19481921195983887,-0.15613968670368195,0.1689102053642273,0.10754603892564774,-0.09809701144695282,0.16359737515449524,0.13482020795345306,0.36975356936454773,-0.5080733895301819,-0.05089108273386955,0.36659660935401917,0.11706562340259552,-0.17722435295581818,0.1190250962972641,0.11531644314527512,0.04541414976119995,-0.01690053939819336,-0.035167790949344635,0.1470392644405365,0.021573835983872414,0.30616217851638794,0.19932150840759277,0.021562539041042328,0.4016000032424927,0.20279575884342194,-0.03544437512755394,0.08612662553787231,0.08035311102867126,-0.08027303963899612,0.13669514656066895,0.31170177459716797,0.7842852473258972,-0.002568520838394761,-0.1918065994977951,0.18728730082511902,0.05375806987285614,0.1303522288799286,0.12034876644611359,0.24972625076770782,0.33899274468421936,-0.14388924837112427,-0.03680584952235222,-0.41170650720596313,0.3805464506149292,0.23942217230796814,0.016390377655625343,0.23065505921840668,-0.12405374646186829,-0.003617798211053014,-0.2582092881202698,0.04158506542444229,-0.01873595081269741,0.07418123632669449,0.1715204119682312,-0.030335694551467896,-0.7404396533966064,-0.256637305021286,-0.06432272493839264,-0.05720736086368561,-0.07323691248893738,0.01892646588385105,0.010467435233294964,0.025607462972402573,-0.2933346629142761,0.05507019907236099,0.1879931390285492,-0.17450588941574097,-0.05979238450527191,-0.19978833198547363,0.08893845975399017,0.16459566354751587,-0.1000182181596756,0.017313377931714058,0.047919996082782745,-0.4284598231315613,0.009183574467897415,0.042905524373054504,-0.316402792930603,0.1291312873363495,-1.1871423721313477,0.13971415162086487,0.13905170559883118,0.015301188454031944,-0.00977365393191576,-0.5233606100082397,-0.24090181291103363,0.10110312700271606,-0.5584149956703186,-0.2091284543275833,0.12690787017345428,-0.07878528535366058,-0.08693031221628189,-0.26799944043159485,-0.059768468141555786,0.10991284251213074,0.20047728717327118,0.13154245913028717,-0.1043083444237709,-0.11480460315942764,0.06163154914975166,0.12161097675561905,-0.09078685939311981,-0.34067434072494507,-0.07852089405059814,-0.06005784124135971,0.0316515751183033,0.08223659545183182,0.07305649667978287,0.27295878529548645,0.023175042122602463,0.09908346086740494,-0.24547581374645233,0.18889805674552917,0.34528523683547974,-0.6274515390396118,0.10151376575231552,0.1399872750043869,0.6035383939743042,0.0985984355211258,0.03270959109067917,0.29805564880371094,0.01215298194438219,-0.17236581444740295,0.19063742458820343,-0.07073550671339035,-0.39967986941337585,0.17115508019924164,-0.033796366304159164,0.11500885337591171,0.7355558276176453,-0.26030367612838745,0.12333791702985764,-0.4281376898288727,0.23117466270923615,0.2431231141090393,-0.09086260199546814,-0.03508133441209793,0.021810555830597878,-0.20079222321510315,0.1659645289182663,0.05285337567329407,-0.5770155191421509,0.03026587702333927,-0.1936153918504715,0.11116276681423187,-0.21768206357955933,0.19178658723831177,-0.07339444756507874,-0.008427329361438751,0.0401616208255291,0.39667370915412903,0.04711024463176727,-0.033960919827222824,-0.8094680905342102,0.006690234411507845,0.07648342847824097,0.04293304681777954,0.16667957603931427,-0.06938740611076355,0.08795742690563202,-0.1496000587940216,0.0769360363483429,0.010450216941535473,-0.3856774568557739,-0.06830896437168121,0.15714870393276215,0.12645834684371948,-0.2596871852874756,0.018270544707775116,0.24579931795597076,0.15246163308620453,-0.062033750116825104,-0.21391227841377258,0.012431981973350048,-0.11997300386428833,-0.05434301868081093,0.0743778645992279,0.024689100682735443,-0.22684811055660248,0.055043067783117294,0.06302791833877563,-0.2938067615032196,-0.0473487563431263,-0.16613933444023132,0.1584409922361374,-0.10695026069879532,0.005422492045909166,-0.021921847015619278,-0.0723390206694603,-0.33885130286216736,-0.19364017248153687,-0.24717040359973907,0.0594162680208683,0.10093691200017929,-0.006644214037805796,0.09075003862380981,0.20542727410793304,-0.01904924213886261,-0.14611946046352386,-0.2959006130695343,-0.1149153783917427,-0.13589614629745483,0.014786772429943085,0.10814985632896423,0.07548578083515167,-0.005014459136873484,0.23962706327438354,-0.03408953547477722,-0.17295712232589722,0.015010712668299675,-0.0036736014299094677,0.021996602416038513,0.1304691582918167,-0.10155513137578964,-0.1862964630126953,-0.3973698914051056,0.04709071293473244,0.09439031779766083,0.46529218554496765,-0.010229059495031834,0.3117651343345642,-0.08731599152088165,-0.3561767041683197,-0.07558583468198776,-0.17814595997333527,-0.11474838852882385,0.044047221541404724,0.07210817188024521,-0.10489898920059204,0.024264415726065636,-0.3471296429634094,0.06234078109264374,0.08116082847118378,0.11134076863527298,0.020624887198209763,-0.18097057938575745,-0.039470307528972626,0.09041038900613785,-0.11157986521720886,0.07804897427558899,-0.3984639048576355,0.0875961184501648,0.3200841248035431,0.17300544679164886,-0.11542937904596329,-0.008080015890300274,0.17141452431678772,-0.10526341944932938,-0.13821753859519958,0.08373938500881195,0.23576703667640686,-0.11908233910799026,0.09808776527643204,0.3947864770889282,0.08698034286499023,-0.4538513123989105,-0.04148305952548981,-0.07489306479692459,-0.13476000726222992,0.23520439863204956,-0.08386976271867752,-0.07154414057731628,0.0828390046954155,-0.08473668247461319,-0.3095957636833191,-0.3262563943862915,-0.017898352816700935,0.19334888458251953,0.2006029188632965,-0.1169457733631134,0.4295661449432373,0.0061350432224571705,0.06882482022047043,0.10780496895313263,0.23369695246219635,-0.02402016893029213,0.252423495054245,0.1599617749452591,-0.1651720553636551,0.06321602314710617,0.23910339176654816,-0.15490303933620453,0.08972205221652985,0.028765441849827766,0.06780015677213669,0.3491534888744354,-0.30782172083854675,-0.11300788819789886,0.021397551521658897,-0.2710185945034027,0.05667798966169357,-0.21298132836818695,0.04914584755897522,-0.07027655094861984,-0.021948307752609253,0.1659189760684967,0.24901065230369568,0.047589316964149475,-0.06860083341598511,-0.07442618906497955,0.07120401412248611,0.10411065816879272,-0.005477577913552523,0.4023216664791107,0.07770867645740509,0.022514348849654198,0.07475285977125168,-0.08886167407035828,0.05963388457894325,0.18175093829631805,0.2732882499694824,0.1459091603755951,0.2589126229286194,0.10176371783018112,-0.13662689924240112,0.06406891345977783,0.3281238377094269,0.28594866394996643,-0.4045031666755676,-0.1921379417181015,-0.0014869929291307926,0.067066490650177,-0.04400375485420227,-0.016969667747616768,0.12180058658123016,0.0231532733887434,0.16454234719276428,-0.06177244707942009,-0.026102818548679352,0.12436888366937637,-0.08119866997003555,-0.3315768539905548,-0.05930681154131889,-0.22364260256290436,-0.004098742734640837,0.10851547867059708,0.05955370143055916,-0.03966542333364487,-0.06859435886144638,-0.17811879515647888,0.1319650113582611,0.10419050604104996,0.059184204787015915,-0.22439239919185638,-0.03669619560241699,0.28507593274116516,0.00718890642747283,0.056564316153526306,-0.20055654644966125,-0.06274034827947617,-0.019399793818593025,0.1890944093465805,-0.05423356220126152,0.006017666310071945,-0.06749210506677628,0.034233495593070984,0.03413457050919533,-0.041182391345500946,0.07515423744916916,0.015456730499863625,0.05335300415754318,0.040512342005968094,0.045130405575037,-0.055425021797418594,0.1102578267455101,0.11201543360948563,0.008411587215960026,-0.052435267716646194,0.08917111903429031,-0.19441896677017212,0.15306125581264496,0.09540628641843796,-0.1330690085887909,0.1880960464477539,0.2577592432498932,-0.2624782919883728,0.004417752847075462,0.15221334993839264,-0.0933256521821022,0.08983532339334488,0.20530517399311066,-0.32227179408073425,0.09618444740772247,0.0176574494689703,-0.14659202098846436,0.0015032480005174875,-0.10013478994369507,-0.1197466179728508,0.014277208596467972,0.02083575539290905,0.2785070836544037,-0.009210361167788506,0.1430833339691162,-0.19531084597110748,-0.02516903728246689,-0.06610120832920074,-0.07729970663785934,0.005536901298910379,-0.02197161316871643,-0.17267157137393951,-0.22987928986549377,-0.0905475914478302,0.012038039974868298,-0.2718239724636078,-0.04859992489218712,0.11111913621425629,0.3937256932258606,0.23806793987751007,0.09200311452150345,0.3396488130092621,0.1241452768445015,0.0629342794418335,0.0758785530924797,0.02341817319393158,0.0004183008277323097,-0.31520798802375793,-0.1259305477142334,-0.09851468354463577,0.052159566432237625,0.04218006134033203,0.20197147130966187,-0.23394951224327087,0.1482802927494049,-0.16443504393100739,0.006167401559650898,0.051327336579561234,-0.017752818763256073,0.12669293582439423,-0.0688023492693901,-0.4666505455970764,-0.13408425450325012,0.11476809531450272,0.13296055793762207,0.13543269038200378,0.051212128251791,-0.11849695444107056,0.005199233535677195,0.011459650471806526,-0.04731881991028786,-0.16258017718791962,-0.11617521941661835,-0.0715365931391716,0.13117045164108276,0.1086922436952591,0.2265527993440628,0.5301215648651123,0.048546966165304184,0.040094565600156784,0.10011480003595352,0.08278296142816544,-0.12872622907161713,0.5733877420425415,-0.06403551995754242,-0.17313215136528015,-0.1324152648448944,-0.15962979197502136,0.2768385410308838,-0.3607802093029022,0.15618859231472015,-0.0779104232788086,-0.04934247210621834,-0.10550713539123535,-0.03223111480474472,0.40630096197128296,0.12902326881885529,-0.12868632376194,0.2080138772726059,0.07887593656778336,0.15318118035793304,0.1838153600692749,-0.13711631298065186,0.13154689967632294,0.010766824707388878,-0.08179710805416107,-0.07843393832445145,-0.034964948892593384,-0.0029592877253890038,0.15747760236263275,0.005255852825939655,-0.08003672957420349,-0.22953088581562042,-0.005082758609205484,0.18294700980186462,0.12904062867164612,-0.11396623402833939,-0.10165392607450485,-0.002296427497640252,-0.10688154399394989,-0.036528442054986954,-0.08827462047338486,0.011060371063649654,0.09122937172651291,-0.2323821783065796,-0.1467050313949585,-0.1206694170832634,-0.05351744219660759,-0.031539712101221085,-0.07065044343471527,-0.22099179029464722,-0.030354361981153488,0.10565469413995743,0.11819902807474136,0.14522241055965424,0.0037534988950937986,0.22183123230934143,0.23204393684864044,-0.044944122433662415,0.18627502024173737,0.04691215232014656,-0.04013151302933693,-0.04865691065788269,0.16544857621192932,0.07783921808004379,0.1642800271511078,0.20705005526542664,0.28679946064949036,0.37004050612449646,-0.2643250524997711,0.09396900236606598,0.17660506069660187,-0.22154501080513,-0.18667444586753845,0.3018551170825958,-0.3242880403995514,-0.16289660334587097,-0.15431971848011017,0.2026388943195343,-0.07662571221590042,0.207438126206398,-0.2979380488395691,0.054352112114429474,-0.16605310142040253,-0.0749305784702301,-0.2886209785938263,-0.035626381635665894,-0.3122231066226959,0.140335351228714,-0.018909728154540062,-0.18035219609737396,-0.0013355845585465431,0.16353674232959747,-0.24135427176952362,-0.10345771163702011,-0.16897660493850708,0.16915421187877655,0.008293867111206055,-0.058248065412044525,-0.0004156852373853326,0.19301117956638336,-0.387944757938385,0.1181035190820694,0.06617678701877594,-0.12260499596595764,-0.1409793645143509,-0.05924362316727638,0.07144006341695786,0.14989230036735535,0.18733443319797516,0.21466481685638428,0.07902302592992783,0.04374854639172554,0.13481873273849487,0.030092809349298477,-0.058372613042593,0.15277661383152008,0.23478297889232635,0.12796680629253387,0.006586378440260887,-0.08758586645126343,-0.042789578437805176,-0.21876753866672516,0.0334545262157917,-0.06846822798252106,0.427355021238327,0.09798134863376617,0.05431152880191803,-0.05964953079819679,-0.19466643035411835,-0.15436096489429474,0.13113437592983246,0.11888105422258377,0.026591964066028595,0.0989377349615097,0.050293728709220886,-0.11660297214984894,-0.060796983540058136,0.08519140630960464,0.059808988124132156,-0.1913435459136963,0.15712235867977142,0.05262049287557602,-0.20223082602024078,-0.0870358943939209,0.017604677006602287,-0.20476827025413513,0.021916788071393967,0.0788651630282402,0.3252779245376587,-0.14495033025741577,-0.08291134238243103,0.3433893322944641,0.2837282121181488,0.2362034022808075,-0.01159544475376606,-0.15479034185409546,0.03533118590712547,-0.058350820094347,0.02698347344994545,0.1284356415271759,-0.21677662432193756,-0.08403145521879196,-0.03377353772521019,-0.010502145625650883,-0.003490322967991233,0.18769052624702454,0.10969897359609604,0.031359635293483734,0.11337420344352722,0.04297428950667381,0.09530370682477951,0.17875702679157257,-0.43656250834465027,-0.1569550484418869,0.028853770345449448,0.14820000529289246,0.07639509439468384,-0.08369313180446625,0.17775604128837585,0.044310830533504486,0.08538302779197693,-0.053642891347408295,0.06484287232160568,0.09642374515533447,-0.023776141926646233,0.20352323353290558,0.08699952811002731,0.27935612201690674,0.11760430037975311,-0.12623564898967743,-0.21196523308753967,0.005270624998956919,0.19713866710662842,0.19842775166034698,-0.09355808794498444,0.19436657428741455,-0.20306308567523956,0.054562658071517944,0.15714165568351746,0.2463170439004898,0.32277512550354004,-0.448072612285614,0.16527579724788666,-0.17418330907821655,-0.07177848368883133,-0.06433167308568954,-0.07990900427103043,-0.029840901494026184,-0.15602144598960876,0.06632344424724579,0.5375133752822876,0.19804446399211884,-0.14424188435077667,0.5426841378211975,0.0939168855547905,-0.13930705189704895,0.19169257581233978,-0.1822439730167389,